<?xml version="1.0"?>
<opencv_storage>
<opencv_ml_ann_mlp>
  <format>3</format>
  <layer_sizes>
    48 100 35</layer_sizes>
  <activation_function>SIGMOID_SYM</activation_function>
  <f_param1>6.6666666666666663e-01</f_param1>
  <f_param2>1.7159000000000000e+00</f_param2>
  <min_val>-9.4999999999999996e-01</min_val>
  <max_val>9.4999999999999996e-01</max_val>
  <min_val1>-9.7999999999999998e-01</min_val1>
  <max_val1>9.7999999999999998e-01</max_val1>
  <training_params>
    <train_method>BACKPROP</train_method>
    <dw_scale>1.0000000000000000e-02</dw_scale>
    <moment_scale>0.</moment_scale>
    <term_criteria>
      <epsilon>1.1920928955078125e-07</epsilon>
      <iterations>100</iterations></term_criteria></training_params>
  <input_scale>
    1. 0. 2.9970237930839794e+01 -3.2699435528528080e+00
    2.4896246338020752e+01 -3.8741881158394023e+00
    3.3579075779584315e+01 -4.6199689574557024e+00 1. 0.
    1.9767047364691408e+01 -2.7574543211647722e+00
    1.8707323406991677e+01 -3.0467771844262468e+00
    1.9316229521552295e+01 -3.2161500750886409e+00 1. 0.
    2.1112375558699341e+01 -2.9101436375823346e+00
    1.8664258175280757e+01 -2.9833851495892740e+00
    1.8480241860364949e+01 -3.0182535366804775e+00 1. 0.
    2.6067815743941612e+01 -2.8898613430448048e+00
    2.0826984080665749e+01 -3.2538100207706901e+00
    2.3274312117116924e+01 -3.2492803514426041e+00
    1.5327856736341829e-02 -2.0939604056898520e+00
    1.3024738188747702e-02 -1.7746763985233978e+00
    1.3734219148005537e-02 -1.8101046826635678e+00
    1.5441382753344876e-02 -2.1638230243444365e+00
    1.4752769135426407e-02 -1.8417637993792715e+00
    1.7372408798790512e-02 -3.0732618422622262e+00
    1.6086632438915064e-02 -2.6756206308542905e+00
    1.4298854354039933e-02 -1.8179154887030542e+00
    1.3369476778058527e-02 -1.7575641500786008e+00
    1.3861054619862034e-02 -2.3133044080197749e+00
    1.4137380717475697e-02 -2.4252340016526759e+00
    1.2495249176471651e-02 -1.8492849778804934e+00
    1.3745962609257137e-02 -1.8766511809876290e+00
    1.4174165380401478e-02 -1.9263500704273060e+00
    1.4434006401752797e-02 -1.9929238838991543e+00
    1.2387092613081505e-02 -1.9728391529457210e+00
    1.2919647244922587e-02 -1.8487153897667894e+00
    1.3879672408981015e-02 -1.9862604341389489e+00
    1.3872257368310393e-02 -1.9355894647635072e+00
    1.2725407988895312e-02 -2.0629461876702688e+00
    1.3185774882391350e-02 -1.8070037056445913e+00
    1.3520449424847942e-02 -2.2644821293845325e+00
    1.2187526356253787e-02 -1.9228898726499311e+00
    1.2388918987575326e-02 -1.9258043612514946e+00
    1.6247107806545934e-02 -1.9848859505717074e+00
    1.6793127186802478e-02 -2.8609891017249156e+00
    1.4734814365710891e-02 -2.4491226117726930e+00
    1.3573231406105415e-02 -2.0594728646919012e+00
    1.6835371288855740e-02 -2.4815337279773360e+00
    1.3681715648308921e-02 -1.8614821102873942e+00
    1.3465215107752110e-02 -1.8354883553880492e+00
    1.6025892745884583e-02 -2.5860296300059127e+00</input_scale>
  <output_scale>
    5.2631578947368418e-01 4.9999999999999994e-01 5.2631578947368418e-01
    4.9999999999999994e-01 5.2631578947368418e-01 4.9999999999999994e-01
    5.2631578947368418e-01 4.9999999999999994e-01 5.2631578947368418e-01
    4.9999999999999994e-01 5.2631578947368418e-01 4.9999999999999994e-01
    5.2631578947368418e-01 4.9999999999999994e-01 5.2631578947368418e-01
    4.9999999999999994e-01 5.2631578947368418e-01 4.9999999999999994e-01
    5.2631578947368418e-01 4.9999999999999994e-01 5.2631578947368418e-01
    4.9999999999999994e-01 5.2631578947368418e-01 4.9999999999999994e-01
    5.2631578947368418e-01 4.9999999999999994e-01 5.2631578947368418e-01
    4.9999999999999994e-01 5.2631578947368418e-01 4.9999999999999994e-01
    5.2631578947368418e-01 4.9999999999999994e-01 5.2631578947368418e-01
    4.9999999999999994e-01 5.2631578947368418e-01 4.9999999999999994e-01
    5.2631578947368418e-01 4.9999999999999994e-01 5.2631578947368418e-01
    4.9999999999999994e-01 5.2631578947368418e-01 4.9999999999999994e-01
    5.2631578947368418e-01 4.9999999999999994e-01 5.2631578947368418e-01
    4.9999999999999994e-01 5.2631578947368418e-01 4.9999999999999994e-01
    5.2631578947368418e-01 4.9999999999999994e-01 5.2631578947368418e-01
    4.9999999999999994e-01 5.2631578947368418e-01 4.9999999999999994e-01
    5.2631578947368418e-01 4.9999999999999994e-01 5.2631578947368418e-01
    4.9999999999999994e-01 5.2631578947368418e-01 4.9999999999999994e-01
    5.2631578947368418e-01 4.9999999999999994e-01 5.2631578947368418e-01
    4.9999999999999994e-01 5.2631578947368418e-01 4.9999999999999994e-01
    5.2631578947368418e-01 4.9999999999999994e-01 5.2631578947368418e-01
    4.9999999999999994e-01</output_scale>
  <inv_output_scale>
    1.8999999999999999e+00 -9.4999999999999996e-01
    1.8999999999999999e+00 -9.4999999999999996e-01
    1.8999999999999999e+00 -9.4999999999999996e-01
    1.8999999999999999e+00 -9.4999999999999996e-01
    1.8999999999999999e+00 -9.4999999999999996e-01
    1.8999999999999999e+00 -9.4999999999999996e-01
    1.8999999999999999e+00 -9.4999999999999996e-01
    1.8999999999999999e+00 -9.4999999999999996e-01
    1.8999999999999999e+00 -9.4999999999999996e-01
    1.8999999999999999e+00 -9.4999999999999996e-01
    1.8999999999999999e+00 -9.4999999999999996e-01
    1.8999999999999999e+00 -9.4999999999999996e-01
    1.8999999999999999e+00 -9.4999999999999996e-01
    1.8999999999999999e+00 -9.4999999999999996e-01
    1.8999999999999999e+00 -9.4999999999999996e-01
    1.8999999999999999e+00 -9.4999999999999996e-01
    1.8999999999999999e+00 -9.4999999999999996e-01
    1.8999999999999999e+00 -9.4999999999999996e-01
    1.8999999999999999e+00 -9.4999999999999996e-01
    1.8999999999999999e+00 -9.4999999999999996e-01
    1.8999999999999999e+00 -9.4999999999999996e-01
    1.8999999999999999e+00 -9.4999999999999996e-01
    1.8999999999999999e+00 -9.4999999999999996e-01
    1.8999999999999999e+00 -9.4999999999999996e-01
    1.8999999999999999e+00 -9.4999999999999996e-01
    1.8999999999999999e+00 -9.4999999999999996e-01
    1.8999999999999999e+00 -9.4999999999999996e-01
    1.8999999999999999e+00 -9.4999999999999996e-01
    1.8999999999999999e+00 -9.4999999999999996e-01
    1.8999999999999999e+00 -9.4999999999999996e-01
    1.8999999999999999e+00 -9.4999999999999996e-01
    1.8999999999999999e+00 -9.4999999999999996e-01
    1.8999999999999999e+00 -9.4999999999999996e-01
    1.8999999999999999e+00 -9.4999999999999996e-01
    1.8999999999999999e+00 -9.4999999999999996e-01</inv_output_scale>
  <weights>
    <_>
      -3.2499837810380704e-02 2.3893024628756900e-02
      1.6238329486237255e-02 2.9406755914026337e-02
      1.7753887331600040e-03 2.5934522477789115e-02
      -1.4331972159970164e-02 1.2749848660777835e-02
      -3.8452215513823648e-02 -3.6232644468750040e-02
      1.0666871936445752e-02 2.1524837892952148e-02
      4.0580523759677696e-02 1.5599231551024269e-02
      3.7201591696999339e-02 2.7593393380415489e-04
      2.0171132369419545e-02 -3.2536195499413875e-02
      3.2139503702482843e-02 -2.6789245789153586e-02
      -4.9864183573453758e-03 -2.0217232250873733e-02
      -2.0837610585860852e-02 4.0781545073530517e-02
      3.6901834174418974e-02 2.7534434280510996e-02
      3.8226107277314521e-02 -1.7213639972033845e-02
      3.9725324210574349e-02 2.7815222972183931e-02
      1.2953050989379575e-02 4.0213591961414073e-03
      2.1662900225990515e-03 3.7680673803710728e-02
      -2.1446490430084970e-02 -2.7123479242951571e-02
      -2.4617082619685419e-02 -1.3445614668064505e-02
      -1.3402015413895085e-02 4.1032389427518377e-02
      3.4611166883332087e-02 -3.5229011449297271e-02
      8.5474750836747604e-03 -2.9719420106379870e-02
      2.8392263575178871e-02 1.6085790733256760e-02
      -2.0941665632312065e-02 -5.3272368721714123e-03
      3.5457805016712189e-02 -3.4188229949672466e-02
      -1.3826553951518206e-02 3.5560699790641540e-02
      2.5728749937924150e-02 2.0188578161645394e-02
      -1.8137933515751745e-02 9.5497351908986478e-03
      1.1978602890833462e-02 7.8430548422578454e-03
      -7.6044617699897211e-03 -4.0307963047216566e-02
      -2.7854637316561837e-02 2.3356532851292730e-02
      1.3746757999328046e-03 -2.5099077323056388e-02
      -8.4958434519432965e-03 -3.3805119585283649e-02
      -3.5092522767160524e-02 -2.6680001849770395e-02
      2.8470490906804022e-02 -7.5755444832378265e-03
      -1.4766220068763213e-03 3.0028611050058378e-02
      -1.2388862939810683e-02 1.3481200761645041e-02
      -2.9177935629803628e-02 -1.7822593862946375e-02
      -1.9798540765248031e-02 -5.9525441554813862e-03
      1.2684241454443921e-02 1.8882620510712010e-02
      -8.1382288984580657e-03 -3.3194837340237551e-02
      -3.3434543071397781e-02 -4.2185848453030174e-02
      1.9807737735608854e-02 1.9272016676667673e-02
      -9.2374419497948390e-03 -4.1541888387056643e-02
      -6.8543255320271503e-03 2.8399140706123573e-02
      4.6011100513853904e-04 3.3157453714588558e-02
      3.6811685709983756e-02 -1.6397953466939882e-02
      3.2887533438013761e-02 -1.0873748593099475e-02
      2.4023290500652265e-02 -1.4105640165861355e-02
      3.1751308905701048e-02 1.2914718737594654e-02
      1.7100336422131275e-02 -3.0473305880148405e-02
      5.6805737652445336e-02 6.3717341213031603e-02
      6.3721448782258314e-02 4.2470963176677659e-02
      2.5274175970722385e-01 3.4290463335366055e-02
      4.8638076069160490e-03 -1.7904744681664445e-01
      -1.2746546803450881e-01 -1.4030737471008891e-03
      -9.5420607773246666e-02 3.1227165126266988e-02
      7.2365346976137418e-02 -2.0503766692652602e-02
      -6.0938019655267135e-02 6.6704378888112698e-03
      -7.5695755976454157e-02 -5.5256753915402267e-02
      -3.9595086007202969e-02 -1.0019663702480183e-01
      -2.3500462239457651e-02 -6.9536321106195204e-02
      6.7300779691730026e-02 -3.6855737563458515e-02
      -2.9366735377016229e-02 5.4241451267575602e-03
      -8.6784031963349759e-02 -4.2938625758209219e-02
      -7.9098358273998345e-02 -9.9509036225126704e-03
      -4.9634230131029699e-03 6.7882322237953374e-02
      -8.4040161330876745e-02 4.5879542883067649e-02
      6.9501716315623976e-02 -1.0265728416977069e-01
      -8.2603459701308626e-02 -1.8523406036587003e-01
      -3.4651699635456452e-02 -8.6979406907295831e-02
      -2.3938676024941388e-03 -6.2031122950454293e-02
      3.0666327077741074e-02 1.0493353045233127e-02
      -6.6974220991372721e-02 -1.2674940642626052e-02
      3.0952325631694630e-02 9.6324443045658469e-03
      -7.6458169400805215e-02 -3.7620492159925502e-02
      -3.4952377757132967e-02 -4.3457089951485853e-02
      1.0792797004711147e-01 1.7398837681321704e-02
      -1.2827242052797453e-02 2.2922121127588332e-02
      1.9876940385973024e-02 -1.2659631699602261e-02
      -1.2877690943456574e-01 1.2465424071045332e-02
      8.7691885575273271e-02 -4.9513171874324920e-02
      -1.4932993369289218e-02 1.0531130767168825e-02
      -9.7825079997334960e-02 7.3879077128494383e-02
      1.0737035227402789e-01 -4.3106552122549865e-02
      -3.3515324334589799e-02 1.4766830000821669e-02
      1.2244848739435038e-01 1.5576608825603649e-01
      -1.0206504960022062e-03 -5.4137486043635684e-02
      4.1232618547101654e-02 -1.5337486512392659e-01
      5.4286593565200013e-02 1.9370463998535554e-02
      -7.1927176058151271e-02 -3.5767322244357573e-02
      4.2108865219080305e-02 1.0363323229438207e-01
      -1.0713431113542088e-01 3.7981590320382258e-02
      4.5200939347467776e-03 -1.2651221325583070e-01
      -4.0391266065154183e-02 -4.8062336311267558e-02
      3.1751395596611026e-02 1.5729786552961332e-02
      5.6409566541218266e-02 -1.5195449775213402e-01
      1.1033670483181983e-01 -2.2033855395143909e-02
      6.4117951193797651e-02 1.1437645056727034e-02
      1.1703463953064040e-03 8.5633170158181046e-02
      8.1189353917825377e-02 4.9613157724136665e-02
      8.2360779418789239e-05 6.8364586905272820e-02
      -7.1451741796076843e-02 -1.9235679572524273e-02
      -3.2405848579324645e-02 1.0555710179646306e-02
      -4.5818796611106077e-03 1.9043504300502850e-04
      4.3877661611003232e-02 -1.6512316841055287e-02
      1.2225641896534203e-01 3.2833210762960259e-02
      -2.7197258546263436e-02 -6.0447431662121437e-02
      -1.3077635198301183e-02 6.4986462844957682e-02
      -7.8232999571377377e-03 -4.1333703649405112e-02
      2.1644750885660629e-02 -2.7382330660735095e-02
      -2.7452244097039297e-02 3.7901215224988613e-02
      -7.7931982072286993e-02 3.3333317688922092e-03
      2.9788672262901456e-02 -5.6903025599781632e-03
      9.6229500727881660e-03 -3.6931288725012487e-03
      3.8008664332786130e-02 7.3987288927782946e-02
      8.8770993173936538e-02 -1.4975446319128284e-02
      4.2939330581717436e-02 9.7854548229807020e-02
      -4.0259474859729444e-04 -6.7169478620403275e-02
      9.3360638720211053e-02 9.0609427035990578e-02
      4.0406246461057435e-02 -2.7916011817054751e-02
      2.0853769375394676e-01 -8.5657772639073038e-02
      9.2946713855048310e-02 4.7891241779825004e-02
      3.5927826302587118e-02 -8.1449338410895272e-02
      3.2830433491215408e-02 4.5317297987974283e-03
      -1.8626236167422656e-02 1.2409719638212932e-02
      6.3464078848873007e-02 -1.1929964100423107e-02
      -3.0032592513114412e-02 3.0974643887287288e-03
      3.4873251120608531e-02 -1.2013455231574796e-01
      -1.2806229994666539e-02 -3.9310162715175456e-02
      -3.1896110559819266e-02 -1.8567729432759476e-02
      1.3307285968083071e-02 -2.8716523609551091e-02
      4.3315033665906354e-02 2.9063826285843569e-02
      -1.2003396431539411e-02 -2.1615723768515399e-01
      3.7236386560819387e-02 -1.3127151548069288e-01
      1.3084208942565273e-01 -5.1715756067949994e-02
      6.6169744816245643e-02 -7.5415639266737181e-02
      7.2720941763571467e-02 5.3612759095669059e-02
      2.7055818312453343e-02 -2.0911481437910828e-01
      -3.5080948367885467e-03 4.2477633807823101e-02
      6.4572961274881366e-02 2.0136402032109160e-02
      1.5629748849051006e-01 9.0710236427455730e-03
      -1.4032634592183299e-02 6.4470187600508433e-02
      -3.0816102320342452e-02 8.0106725380796634e-02
      3.5227723717691561e-02 -3.7103873720218207e-02
      1.3378805312675761e-02 -2.1625858167693940e-02
      -3.6628963373299696e-03 2.9892794210424562e-03
      1.6218178568091945e-01 8.9100590736686275e-02
      1.7314157621979093e-02 -1.2785387575348982e-02
      -1.3910015577266249e-01 4.0710267948254379e-02
      -5.8495986248470910e-02 3.6581857192410520e-02
      -5.6120595791109264e-02 -3.0604805196996755e-02
      2.0401094782350561e-02 -3.8769605015242598e-02
      1.7702127838860490e-01 4.1643116043781944e-02
      -6.6034532701932949e-02 4.1702133615787861e-02
      1.3390227642963387e-02 4.7305513464663336e-02
      -1.4248388448375265e-02 1.9626493460129336e-02
      -1.3885535862561567e-03 -1.5770316249561510e-02
      -6.5949639534361735e-03 3.8767047610632807e-02
      -8.9736831725445304e-02 8.5863998726122825e-03
      -6.5140407709794401e-02 1.1230476813562354e-01
      1.0451060713452101e-01 -7.9151777843809543e-02
      6.5600937790971344e-03 -4.1080786573102657e-02
      -8.5354055048681501e-02 -4.8885260374036801e-02
      -5.2257102579387170e-02 2.2862965491705200e-02
      8.8824199709553377e-03 4.4960398870134317e-02
      1.3526804054119441e-02 -9.1344854774227324e-02
      -1.4781754935515121e-01 -1.3545274782549263e-01
      -4.3228733731788312e-03 2.2396096809983845e-03
      -5.1357588286424866e-02 7.6871890471989446e-02
      6.0078551167548115e-02 -9.8786980936403049e-02
      3.3511858080716744e-02 -4.4286041152802836e-03
      5.2545676697602579e-02 -5.1224206785445939e-02
      -1.0214186520377345e-01 -4.7161854566728972e-02
      4.4436558584181440e-02 -2.7778757229401409e-02
      8.5143252969920535e-02 -1.4526394705450703e-02
      2.2609343485318758e-02 3.5583170009475751e-02
      4.2080623830204222e-02 7.2637697369304774e-03
      5.6861661548603733e-02 1.0021722541368702e-02
      4.5754966878949123e-02 -7.0856906159921393e-02
      -7.6528284328738969e-02 8.5334732742651256e-02
      -5.6343532376420029e-02 3.4697754109367110e-02
      -4.9402530725495698e-02 -8.3742767261282935e-02
      1.1622929567226799e-02 1.1259626290595310e-02
      -6.9066033631687729e-02 1.5018234503428596e-02
      2.0875911658181749e-02 1.1807746480930031e-01
      6.6664144149234106e-02 2.5280069263411502e-03
      -6.8277780557784154e-03 -6.0044404548527011e-02
      6.2309456342736734e-02 5.3410588209759661e-03
      -8.4009369547731916e-02 -8.7150949404546818e-02
      -1.2635328390140607e-02 7.5986980933523240e-02
      6.5146618927704708e-02 -2.3263202985656975e-03
      -3.0512824534096494e-02 9.8432471992711025e-03
      -4.2611267644667404e-03 1.7887751990277718e-02
      6.8597297058658829e-02 -1.4619727612809115e-03
      -5.8564832999368341e-03 -1.0740657466743807e-02
      -4.5275358052550792e-02 -2.7488250763549094e-02
      6.8462169656039476e-02 -7.2581734629669589e-02
      -4.1542683544534352e-02 -4.9466188171302321e-02
      9.3960088518754512e-03 2.9591045698874541e-02
      -2.9759530273184440e-02 1.5469719622371616e-02
      2.1823050036900039e-02 2.9671616863065842e-02
      2.0939652299768751e-02 4.5437872906084600e-02
      -4.0916987140044950e-02 -3.2940781104603231e-02
      -2.5292044932348049e-02 2.8091013274700479e-02
      -3.0325887296143380e-02 -3.5534743131343451e-02
      7.2999448563212388e-03 3.2499914618050525e-02
      2.3119998668430859e-02 4.2029206117330603e-02
      -3.0175259897336146e-02 -1.6614153175150980e-02
      3.9824060875710894e-02 5.1200775539608830e-03
      2.0934396486359485e-02 -1.4481740547287609e-02
      1.4444307808180694e-02 3.2821568615342578e-02
      -2.4005792445235315e-03 -2.8405986933732360e-02
      4.3663798035687838e-02 -3.4723529556995952e-02
      1.9800351315698836e-02 -2.6944606589863557e-02
      3.6063955929264944e-03 1.4644109735591226e-02
      3.5770944263660433e-02 -3.3908723098490336e-02
      -1.7836171602324806e-02 -7.0398012951759098e-03
      2.8932329031940939e-02 -2.0690783591951829e-02
      -1.5623303871713049e-02 -1.4652909804847340e-02
      -7.0728863057597444e-03 -2.1232730905030257e-02
      -9.6777080229962804e-03 2.4217889233035195e-02
      3.3453823638562079e-02 3.7928588505543120e-02
      1.3130174772977071e-02 4.5586122446046748e-02
      3.5219104761664781e-02 -2.2206735239356911e-02
      -3.8585981019794236e-03 3.5586506207648964e-02
      -2.3337019499712657e-02 1.4367489182690700e-02
      1.8856609327444617e-03 2.6850245324439087e-03
      3.3211687136932504e-02 2.8383876368019298e-02
      -2.7052591813119271e-02 -3.1102451728407702e-02
      -1.8633368842234082e-02 -4.4609610269142265e-02
      -8.4535815636423411e-03 4.9279842457588207e-04
      5.6729256139646158e-03 2.5664850363819228e-02
      1.8577563877158483e-02 -8.0426163058593698e-03
      -2.6621446440728221e-02 3.2982807112224066e-02
      -1.2171866237020551e-02 2.7912338735446657e-02
      3.8367918424422963e-02 3.3523429142620735e-02
      3.7265353751931893e-02 3.6562328213961270e-02
      3.4219440573890647e-02 -3.3021020709703827e-03
      -3.1670724416457019e-02 -2.5100404258784435e-02
      -3.3333712958584442e-02 2.3123523642064020e-02
      -1.5963246735370109e-02 4.0818182156674423e-03
      -1.0815864001203494e-03 -2.8718515274810855e-02
      -1.2391853877909080e-02 2.7374657959946782e-02
      -5.7147214525015621e-03 2.6217394792007707e-02
      -9.5445783930220331e-03 8.9746307791168291e-03
      -3.7408326990541058e-02 -1.7914368758882561e-02
      -1.0648969674832868e-02 2.9763516885796582e-02
      -3.6674157144905802e-03 3.1900503999259720e-02
      3.6482615411233862e-02 1.7724178237127276e-02
      3.0389211312892198e-02 -2.3306784942344742e-03
      3.0658192512819861e-03 5.2673705795039973e-03
      6.2876309613748141e-02 4.8946234779362281e-02
      -5.7588749565535675e-02 -1.1639879322647116e-02
      1.7807889849902163e-02 -5.5666278827599433e-02
      3.5058515665946977e-02 8.5316478507201476e-02
      -6.7900460589643163e-02 -5.6569719385986296e-02
      -3.0189373615501648e-02 1.2829741567595679e-01
      -1.0957556543762244e-02 5.4596975744066245e-02
      7.0357928907757272e-02 -4.4486796562929420e-02
      8.3741062565652225e-02 -7.2837522634064686e-03
      3.1257760129193485e-02 4.4162120306413068e-02
      -5.1418632822522035e-02 3.8486495099443560e-02
      -4.6685146171111504e-02 6.0249836931689900e-02
      -7.4937339249010687e-03 1.0138669472450976e-01
      5.2698500696075734e-02 4.2544944193375706e-02
      -2.7956940722801315e-02 1.2027803275715608e-01
      -6.2744487637789267e-02 3.5135804644886241e-02
      3.5934790367354565e-02 2.5625947291247113e-02
      5.1199157917435707e-04 -4.3847578871330714e-02
      9.2169289013281572e-02 2.6514519186153929e-02
      5.1270441150987382e-02 1.3113662252278291e-01
      2.7480144878683100e-02 6.0525942319263192e-02
      1.0866116739474174e-01 -4.8094902664182405e-02
      -7.3614340485720579e-03 1.2715384591708168e-02
      -1.1287098520621031e-01 4.7930980978698114e-02
      6.4543888421100815e-02 -6.0939798971801913e-02
      5.1237644980869537e-02 -1.5213435845703827e-01
      -7.0952784056652424e-02 -7.6416433923853722e-02
      9.5169010255555506e-02 1.3130627166166176e-01
      1.0489121199075208e-01 -4.5438680106705001e-02
      1.2740462824261772e-01 -9.5183328968118097e-02
      9.3950358356551703e-02 -1.8768711554205047e-02
      7.8963770209766304e-02 -5.7263090273837136e-02
      1.2597906563074820e-01 -2.4562178619464192e-02
      -4.8944687635860101e-02 2.9898362550520981e-02
      -1.1909442591733913e-01 -3.3505499285435648e-02
      1.1322771072283239e-01 2.7945073141531242e-02
      -2.5139382623562679e-02 8.3623679276531387e-02
      1.5652572095907535e-02 -3.2753264708040533e-02
      5.2961323619010606e-03 -8.2078285590409961e-03
      7.1827689921067528e-02 -5.0982967188495314e-02
      4.6786754366946078e-02 -2.7350972149658717e-02
      -2.2032477533491562e-02 1.2051012291540118e-02
      -1.2960028138305091e-01 3.4348080574968888e-02
      -2.4985194257369867e-02 -4.6564372416104616e-02
      -8.4430340093899041e-03 8.0108611832992754e-02
      -1.1777343147509991e-02 1.1733001972278763e-01
      1.1209823285757460e-02 -5.5844876478743741e-02
      5.0627957994998113e-02 2.8689120463762485e-02
      -1.2771707289966122e-01 -1.2296273257854920e-01
      7.0286691531277368e-02 -1.1341907027023983e-01
      3.1062172311571531e-02 1.6846935528483632e-02
      -5.8731075198085139e-02 -1.2918822069269706e-01
      -2.9262434362199871e-02 6.1243792479761340e-02
      -5.6444839589778507e-02 1.2153016777250922e-01
      5.1529746447154239e-02 1.7654494747543763e-02
      -3.3864040022289496e-03 2.2987272014463673e-02
      2.4263914792534796e-02 -1.1165232508085075e-01
      1.1636613089698815e-01 6.4055078751585864e-02
      -5.6980836198019233e-02 1.0376819903951889e-01
      6.6705747803740681e-02 2.2094481947959731e-02
      -3.4908434106882900e-02 1.5542579369878736e-02
      -4.7090047683837108e-02 -6.1575667254651731e-02
      -1.2358369219100965e-01 -3.7117637512565929e-02
      6.4420864363389965e-02 4.7020912227320986e-03
      4.1610606147761284e-02 3.2026457053543789e-02
      1.8530395022134011e-01 7.9168378253031246e-02
      -6.0594383709296137e-02 9.3746153591914988e-02
      1.8107696766975542e-01 1.2013975759901461e-02
      -1.8070400393039474e-01 1.5284725216727471e-01
      -1.6037601909737581e-01 -2.0434998930988168e-02
      1.0974455078614179e-01 -1.5118999652561660e-01
      2.4723591839293724e-02 4.1386530304647253e-03
      -4.8703788309220931e-02 -2.4769726658333564e-02
      6.9196652661997586e-03 -5.1108380505304911e-02
      -1.5909199493276818e-02 3.3220816270987170e-02
      -5.1445093725844035e-02 -2.0806706359628560e-01
      -3.5213224539483001e-02 1.9252480139487885e-02
      -1.8121413748200982e-01 -4.9174664915442416e-02
      -3.4413525621299762e-02 -3.4243489536493935e-02
      -7.7754514158459367e-02 -2.1405491777304154e-02
      -5.7152649680954203e-02 1.0764877472004802e-01
      9.3140957186838208e-02 8.2319005816277636e-03
      9.8949741152032464e-02 -2.8706128982964201e-02
      8.1499015444525466e-02 -4.2876544218956356e-02
      -3.2400030783289926e-03 9.3772829060748047e-02
      -6.3365558525780755e-02 1.1767494168362147e-02
      -1.0410346408520592e-01 -8.2531913534520884e-02
      -2.5021442461156066e-02 -1.4749431423991818e-01
      1.9986903009571716e-01 8.2774279526457231e-02
      -2.3121094270562036e-02 3.8035594109905181e-02
      1.2320417795608507e-01 1.2713429157843986e-02
      -6.8184390394455091e-02 1.4825652724943106e-01
      9.4992518058694159e-02 -2.6476376360963540e-03
      -3.5289377282093998e-02 -6.7747628980068782e-03
      1.5773095372695362e-01 1.1734833373449040e-01
      9.8965578775110072e-02 9.6295955449936469e-03
      -7.6528418060424097e-02 -9.9812801240137139e-02
      -1.3545764349905839e-01 -1.3702719134071167e-01
      -5.4700940575099895e-02 -1.9050460878003557e-02
      1.9574000712681616e-02 1.6845852142906511e-02
      7.6472430126051944e-03 -7.4192680727788729e-02
      -5.1692197637443683e-02 1.9516134039540192e-02
      -1.1480638308180331e-01 1.3474381503594132e-01
      3.7985503075942235e-02 3.5341601143689646e-03
      6.8656615703939897e-02 -3.7666987039999301e-03
      4.6760985658701307e-02 -1.0889089013823645e-02
      -2.4944713235808297e-02 1.7347083535749118e-02
      4.0828830553640567e-02 2.6648485239556877e-02
      -3.0674998742783789e-03 8.4420050961633047e-02
      5.0900629075006906e-02 3.6249450693095542e-02
      -3.3802699315779436e-02 -8.2165811479042922e-02
      -1.1104928834517232e-01 1.0290519962885875e-01
      -3.3442793398471636e-02 3.1156205679222563e-02
      7.7558085160848528e-02 2.3513054816005997e-02
      3.5375074943851156e-02 -1.3806837436005488e-02
      3.1402327203191256e-02 -2.4166332566354056e-02
      -7.4317887294070240e-02 5.0502466991994191e-02
      1.1753752214976743e-01 7.8865255326730180e-02
      -2.5786700525769937e-02 -9.2504393855205216e-02
      -7.2367931204800853e-02 5.7657722502296858e-02
      2.5062613033785095e-03 -1.1082728445700110e-01
      -7.2337410249888545e-02 4.1390465036910330e-02
      -3.5249220722185635e-02 -1.4197112267910927e-01
      -3.6494174278959741e-02 -8.1490443134858176e-02
      7.5836837870304291e-02 1.0598936110730511e-01
      1.0441821493952874e-02 1.3332798028497461e-01
      -5.7946115002283104e-02 -1.2243815210033752e-02
      -4.5481177445341789e-02 3.3859289851402132e-03
      1.0150734178456371e-01 -1.0559087054574203e-02
      -5.1803389445642140e-02 2.7535626729395551e-02
      -2.7889617507742940e-02 -2.3774745165346708e-02
      -1.5360277802756500e-02 1.5461488294853824e-02
      2.9513488269728022e-02 4.6962407028636681e-02
      -7.8106996196113318e-02 -3.8011040395568435e-03
      2.6868190596945833e-02 5.8157895270695405e-02
      -2.1204142922281091e-03 -2.2272333971884391e-02
      7.4530300173568194e-03 -4.2164246006929994e-02
      6.2152585069099861e-02 -1.9821744879786862e-01
      -7.3010251049883193e-02 9.6928372034036397e-02
      -3.7660651511795519e-02 -1.8150076837685370e-02
      8.3586182110464511e-03 -1.7291592446607600e-02
      -2.4158426768803767e-02 1.9352973508323129e-02
      2.4001394262209524e-02 3.4075131647509062e-02
      3.6756041517008217e-02 4.4988788459260652e-02
      -8.5402258440478544e-03 5.0178191553941365e-03
      -2.0661953596176168e-02 -7.2999278926757605e-04
      5.6738929802061723e-02 -8.9326598062409612e-02
      8.7713905817634663e-02 -3.0582187537400263e-02
      -2.0381145962899673e-02 -2.9171040217879099e-02
      -1.0273262685880287e-02 -1.6616868585783387e-03
      8.3737272659084577e-03 3.9171419069322831e-02
      1.7403156022344272e-02 -5.4906000729234294e-03
      2.0501526720379235e-02 2.2349997596248922e-02
      3.7841473187326863e-02 -3.0804299730536867e-02
      2.5903564089416058e-02 -3.4455267325743742e-02
      -3.0393257898130101e-02 -1.3796087612299598e-02
      2.3593894997902803e-02 -2.3218294942527102e-02
      -1.1315444726147740e-02 1.2363772118134489e-02
      1.2803715226281641e-02 1.2254845988252733e-02
      -2.0734882814984604e-02 -1.2093638238493139e-02
      -2.7455997256266396e-02 -1.7272081698445366e-02
      -1.5493646327385041e-02 -3.5693905422845729e-02
      6.9502225390821277e-03 -2.8366205683126693e-02
      2.5080867647259593e-02 3.9003871578029960e-02
      -4.0171561356169019e-02 -5.0498788811187620e-03
      -3.5101581810897155e-02 3.7958346857581760e-02
      -7.6116536790250475e-03 -5.6524706057679988e-03
      1.4872683099783431e-02 -3.9853889713662716e-03
      2.1290865522141839e-02 1.0890018868869136e-02
      -2.0614383836521793e-02 1.9292203134523799e-02
      1.4433988722964260e-02 4.1754637239801780e-02
      -1.9014907591118663e-03 4.3808571245647202e-02
      3.4537520968949284e-02 9.3422132499815604e-04
      -1.1597348844842625e-02 9.0708944925778304e-03
      -2.6708002899122367e-03 4.5058342168333284e-03
      1.9616856082365294e-02 -5.9528976196522943e-03
      -3.0027296373380627e-02 -2.0008770036874172e-02
      2.1716571104365499e-02 -2.4352255349737329e-02
      5.8181525645672359e-03 1.3778749724382402e-03
      1.4013326768783096e-02 1.0986329145933933e-02
      -3.2921862606347267e-02 -6.9977472683025689e-03
      -2.5745001554531369e-02 3.6760812190885554e-02
      -1.9958295973157826e-02 2.7006121820149563e-03
      -3.2983105417605518e-02 -6.4889857814716791e-03
      -2.5739523620438097e-02 9.7249139763285371e-03
      -2.1304534571523433e-02 -1.2308232871187875e-03
      2.3110746554401377e-02 3.1439543797555154e-02
      2.2701381301125471e-02 -8.9409155130302405e-03
      -2.3012247917608846e-02 1.4144288929347023e-02
      7.8146165430806585e-03 4.1226403184191386e-02
      -1.1786451208553783e-02 2.6476956900966322e-02
      -8.4436948267840907e-03 -2.2439155265403566e-02
      -1.1039749300769588e-02 -1.8199849380937400e-02
      9.7917068774441337e-03 -2.6671375079848517e-02
      -2.4669452345681714e-02 -1.8835444463075772e-02
      4.5616074517562291e-02 -3.7662741981797802e-02
      -2.1118061680623797e-02 -2.0008947282698308e-02
      -1.8422048058069979e-02 2.1533202384489251e-02
      3.7289522682675068e-02 5.1671630069735928e-02
      1.2238873431074341e-03 -1.2852713645432187e-01
      -3.9054090305301922e-02 5.1054505246959779e-02
      8.6597412109870431e-02 3.3948392127497333e-02
      -1.0586324205651719e-01 9.7885162282502158e-02
      -7.3209874576428025e-02 -4.7701780268638971e-02
      -1.7340660016306514e-01 1.5979975058962481e-02
      3.5713452838308637e-02 -5.1664336363786964e-02
      4.7535009425102911e-03 2.4797709352630530e-02
      -1.0865033483000665e-01 -1.4723805449482422e-01
      -1.3015787271350493e-01 5.0025208758732821e-02
      -9.1406527022480089e-02 -1.0696651006841672e-01
      -1.9391402789704701e-01 4.5125938030627630e-02
      -3.9782919409083156e-02 1.7416938948494190e-01
      -1.1969984199518939e-02 -9.8433708757666352e-03
      3.9947720637020772e-03 -7.5776089163143590e-03
      1.7794799643434587e-02 4.5293571476323652e-02
      -6.4332669358996911e-02 4.5877409697835388e-02
      9.4084367102172051e-02 -1.2618766802717149e-01
      -5.2774546269897540e-02 1.3449852606848334e-01
      5.7813552296345300e-02 1.1094926308444777e-01
      1.4619261443950646e-01 3.7888953116423804e-02
      4.9007665286476605e-02 2.2124798391938974e-03
      -9.6825026504984372e-03 1.5114475592720590e-04
      1.5529080954135277e-01 2.1482852998752668e-02
      -1.0805141111422811e-01 1.5834352675701536e-02
      -8.6406630908825693e-02 7.7819952567137946e-02
      3.6758512216682901e-02 -3.2478897969651366e-02
      6.4570115184185164e-02 1.5825070656942157e-02
      7.8394564561972302e-02 6.1430259660367650e-02
      6.8411674050803173e-02 3.3696088800702094e-02
      1.1777725139961023e-01 1.2008414594273847e-02
      5.5099923066753494e-02 -9.4012900803657762e-02
      -1.3995384156559140e-01 -2.1508980535527483e-01
      -2.0730019185583971e-02 2.1194424763220719e-02
      8.5094597775889499e-02 1.2046281405836200e-01
      1.3172592559588813e-02 5.3711335636260883e-02
      -1.8875899580073709e-02 6.2719153453365734e-02
      -8.4114957450210789e-02 8.3306800240835440e-04
      -1.6476667553253196e-01 -2.7845291980333756e-02
      -3.5063897410415046e-02 -7.5252574019708904e-02
      6.2692193684902434e-02 -1.0581050576905372e-02
      -3.0235762218700807e-02 4.9716037292597284e-02
      6.9982441639016832e-02 -1.3994498271829156e-01
      -1.1088700609921312e-01 -6.4135403441830718e-02
      -1.2075308194253535e-01 -7.3257883042796576e-03
      -1.4985323967514833e-01 -3.8088769001996890e-02
      -4.2506063186143396e-02 -9.8546614823861844e-02
      -3.9926161431344989e-02 3.9270661788605644e-02
      3.2782012972257815e-02 1.5655150627552253e-01
      1.3103365655588031e-01 2.2874758313321305e-02
      -1.1144368238896142e-02 -8.2321798004446941e-03
      2.3972288805400695e-02 -1.3063707560732707e-01
      -1.5832421344701833e-01 -7.6473586666185034e-02
      -2.6153267904475620e-02 -5.8793601852884635e-03
      6.7345397575647184e-02 5.7718992829477463e-02
      3.9925463782166798e-02 -9.4959682197991113e-02
      2.2647223425173644e-02 -8.7299969241212860e-02
      9.1553460545628962e-02 8.7188438392153053e-02
      1.1215461492593029e-01 -1.1194361905493008e-01
      1.6453277246061607e-02 -1.3949715478859042e-02
      2.4639788215290947e-03 -3.1774163725602406e-02
      1.4221701747469411e-02 -8.7634815220296466e-02
      -3.5383024467736328e-02 -6.1372896543513356e-02
      4.8919524734822011e-03 6.1468452357511146e-02
      -2.4619160388292032e-02 9.9458786072326943e-02
      8.0506085692292728e-02 -7.7298136740321863e-02
      8.5387503194867209e-02 3.5712568106327724e-02
      5.5960112272678379e-02 -3.3942264471802722e-03
      2.2185755411557143e-01 -4.2166678094632704e-02
      -6.6679972145429298e-02 -1.3873871699775908e-01
      4.0847180080903073e-02 4.7572628048498031e-02
      1.0832500389585180e-01 1.0278315874826331e-01
      4.0912500172656713e-02 -1.8803700064601553e-01
      -8.0197151316889745e-02 -1.2047502921047964e-03
      -1.3889302681019719e-01 -8.1596041573702094e-02
      8.1539009249301034e-02 3.5148415243054744e-03
      1.0092777552095539e-01 -1.2987336191834434e-01
      -1.2545842887694980e-01 -1.0289631687179196e-01
      1.2628657546117431e-01 -1.4931427227917404e-02
      1.4893067676549165e-02 -3.7337975634029984e-02
      -5.2139025243433133e-02 -5.3335173177452094e-02
      -2.0761027480469527e-02 -2.1254535533551503e-02
      8.1382906788692505e-02 -2.0386291704754811e-02
      -3.2548386324513061e-02 -8.4460354013444455e-02
      5.4617561780608753e-02 -1.6780682102637876e-02
      -3.7461865490944560e-02 -6.0051073753561404e-02
      6.5762740498241115e-02 -3.3889247397216993e-02
      8.4209211639622653e-02 2.9789052889508668e-02
      4.0057627120910121e-02 1.7705211016563915e-01
      8.4210622333375632e-02 -6.9705248451334800e-02
      9.8086140619191658e-02 -1.9692767013315030e-02
      1.3027316564916835e-01 1.6267040875947925e-02
      6.1183166006872257e-02 -1.9438897549850478e-02
      5.7527213596254866e-02 6.5494350813616112e-02
      7.8242789897946433e-02 1.5940894804054365e-02
      5.0485028403106274e-03 -2.6524654556449194e-02
      2.8372435872107171e-01 4.3223075729288317e-02
      7.3213772189178669e-02 6.5970784011696995e-02
      -2.1845098819182066e-01 -9.4868739975344993e-02
      6.7749757426496429e-02 4.3119789892720195e-02
      -7.9164237207769800e-02 4.7678259755780703e-02
      3.8034698868259630e-02 8.8116599975415516e-02
      -7.4037969689951730e-02 3.3176070784600449e-02
      -6.9802632030717959e-02 6.6490904997000111e-02
      -1.4470993800531027e-02 -7.8084678228194801e-02
      1.9905815237415365e-02 4.2341494740233868e-02
      6.6087390957685066e-02 9.0194333451483658e-02
      1.5353081490181750e-03 -5.8494867332639519e-02
      -9.5364879659020851e-02 -7.4028750876260610e-02
      -6.1256842393360204e-02 2.9822541532900142e-02
      -2.7162160236317988e-03 -3.9719423138034629e-02
      -9.4724623036954822e-02 3.1855063911176075e-02
      -1.1896614450764527e-01 3.6271936257797184e-02
      -2.5490593887452201e-02 8.6870232630953600e-03
      8.6671694358169855e-03 7.3229920623254036e-02
      -3.2193566642039616e-02 -1.5005427533858756e-02
      6.8576191013316648e-02 4.9082154832296533e-02
      -6.1983548158152053e-02 -8.8517365998619216e-02
      2.6662953525091987e-02 4.3018668690275069e-02
      -5.9704494754450464e-02 2.8763990441464326e-03
      7.7630903465762624e-02 2.3396981600537919e-02
      1.4486623760776965e-01 -7.6967820032672357e-02
      -8.2724588041638032e-03 6.8792189156732991e-02
      1.3579907690828180e-01 -2.1474739695162410e-02
      3.6310565929949488e-02 7.8668152192940197e-02
      6.4606137309886850e-03 4.6183462146226588e-02
      -2.7423748582858265e-01 1.3082612209600961e-01
      1.1750219459650936e-02 2.1523909335230396e-02
      -9.1268806292958513e-02 -1.7868426290458608e-02
      1.4836270003008692e-01 4.9134720619038993e-02
      7.5482462699832872e-02 1.8887908613007022e-02
      4.4329865965196648e-02 5.1074897029255245e-02
      2.3526720767317901e-02 -8.2382871886707884e-02
      2.9737464804955913e-02 3.9558109679342937e-02
      7.1414879539914128e-02 2.8942682886100791e-02
      7.5682774935468711e-02 1.0661258528004555e-02
      6.3524275894687482e-02 -1.0036667020580969e-01
      -1.5317273597798165e-03 -1.1259314467847997e-01
      -2.7211049651146714e-02 -9.1623941738052189e-02
      2.4538549422322718e-02 -3.0169269820426912e-02
      -9.4324588615929711e-02 -1.8814531358770013e-02
      2.7188331771204624e-02 -2.6584193562402148e-03
      5.3759945962688523e-02 -1.8291302374323012e-02
      -9.5103528739969689e-02 -5.0773671562676821e-02
      -4.4221519912902942e-02 1.0083479411286875e-01
      1.6855617478532904e-02 2.4769405710667347e-03
      -1.1531859926749399e-01 1.1443361178767908e-01
      -8.7134743149063429e-02 3.5362019300101889e-02
      -5.8065185472325545e-03 3.0995677384367360e-02
      -2.3718998387476764e-02 -2.5383957010769440e-02
      3.9688566243784924e-02 -1.5994868956738982e-02
      1.4297541689421982e-03 8.1675468336028859e-03
      2.5960309745894868e-02 3.3881874643924836e-02
      -1.5367910608597081e-02 -2.2974714306459826e-03
      1.3056806215098495e-03 -5.7885648573108685e-04
      -1.2630423604812356e-02 1.2345669815449076e-02
      3.0602248886632873e-02 3.1551321234786101e-02
      1.2416823420706696e-04 -1.5802933659710944e-02
      -2.7199272426714462e-02 3.2527499084869821e-02
      -2.2643769438756112e-02 3.6365835061651378e-02
      3.7258371846770659e-02 -3.6715857827066559e-04
      4.0476040285667675e-02 1.5362847743986850e-02
      3.7789294651340128e-03 -7.2655398838014570e-03
      2.2998819225791545e-02 3.7769408659202130e-03
      -2.1433469592158385e-02 -1.4688971822209995e-02
      1.1114411447533208e-02 -3.0614523566118920e-02
      -1.1436019916134642e-02 8.1140414226820688e-03
      -2.8791388169911759e-02 1.8867612208077093e-02
      4.2910461841575251e-02 3.1712364617507510e-02
      -2.4564254796075241e-02 -3.0920685510658016e-02
      -2.4551313319118914e-02 -6.7206212402043742e-03
      8.8821996520472082e-03 5.2469232459000682e-03
      1.3056088544081933e-02 -1.5307187306969885e-03
      -4.2281520040316732e-03 3.4491084783307563e-02
      5.8301119739394905e-03 3.0050871026167892e-03
      -2.9623326032216929e-02 3.0090460699771508e-02
      -1.8552543404986094e-02 2.2082057699545399e-02
      1.6499512531762555e-02 -3.6160398003939200e-02
      5.7437645672902488e-03 -2.9738102488060169e-03
      -1.7199774438029485e-02 -1.9953639103685469e-02
      2.1740019133630283e-02 -2.7738934429649628e-02
      1.2461225811938882e-02 -2.6550876910260902e-02
      4.2543323297764467e-02 -2.9027365235367603e-02
      -7.2934870297209735e-03 5.3834571574216897e-03
      9.1359070448295970e-03 2.0750569543658681e-02
      2.0269072331694806e-02 2.5898309725424243e-02
      1.4575016195893610e-02 -3.8246846167647515e-02
      -3.4670926200407633e-02 -4.9847038879088153e-04
      1.8441447249195324e-02 -1.1492593169268222e-02
      -2.4330694267496816e-02 -3.4403786380468850e-02
      -2.0684831648355235e-02 -1.9639344327270557e-02
      -1.1194829235956801e-02 -3.1394323958057871e-02
      -2.4624006733503200e-03 -2.2894524671392868e-02
      -2.0635141056166234e-02 -4.7655465958643471e-02
      1.0640206360711443e-02 1.3556519489680627e-02
      1.4451141967273297e-02 -3.0767715382730845e-02
      7.0885060137625480e-03 2.1999763711277740e-02
      -1.6936325545858926e-02 -1.5727957243877769e-02
      -3.1921510880292492e-02 -2.3730067524058043e-03
      -9.2078035622355434e-02 2.3674272552220228e-02
      -7.6907762626621926e-02 9.7206489006238531e-02
      -2.8045749322840468e-02 -1.1062367323071781e-01
      -4.8516094963013061e-02 -1.8138273616689730e-02
      9.7287024606116018e-02 -5.7826000676027500e-02
      -5.9362963991454964e-02 -5.4050189555727289e-02
      -1.4266723001339332e-02 4.0749635031567220e-03
      -5.8028966219076633e-02 -8.5754270409209354e-02
      5.8259013581241269e-02 -3.0396249813082196e-02
      4.9978592319809473e-02 7.3577395209122196e-02
      1.5037721719437352e-01 -8.9721726160041440e-02
      5.5568101072534098e-03 6.4880628805241328e-02
      -8.9198076761079936e-02 6.1130990732880183e-02
      1.2297197079688971e-01 -1.4153703173840527e-02
      -1.4625372562516217e-02 -8.8585267767735038e-02
      -4.9984554419653306e-02 8.9956428900462050e-03
      3.4387014202376179e-02 -1.6851306296874841e-02
      -2.4599408548447509e-02 9.6541670281905124e-03
      5.7814994931397346e-03 1.1821484438087487e-01
      -8.4536390742742731e-02 -2.7934622903868993e-02
      2.5875148175510235e-02 -4.2417298776627275e-02
      -2.3985912708560868e-02 -6.3660704502803709e-03
      -2.8825843669436687e-02 3.2344461304606324e-02
      -6.4136057776494018e-02 3.1698112428699375e-02
      1.9733730294026551e-02 4.8399112620916502e-03
      5.8257517486808512e-02 6.2545638436693283e-03
      -4.6343146241609970e-02 -6.3880463213834959e-03
      -1.7746161221597653e-02 -1.3110395338451706e-02
      4.9215642572589889e-02 7.5469543190557584e-02
      1.8679236633719325e-02 -1.5441523681428292e-03
      -1.0966606918445257e-01 4.7889329580000549e-02
      -1.0649079030001635e-01 6.0195547384490407e-02
      -1.2937165442712770e-01 -3.2837979251821553e-02
      7.4884387248137688e-02 5.9724870980272828e-02
      1.1771103548052561e-02 4.4179408206336805e-02
      -6.2495615826239446e-03 -1.4766392344018414e-01
      -7.5361299433305107e-02 -1.2903384272525500e-01
      1.9542919384281637e-02 6.8245620855148362e-02
      -7.8181195306910325e-02 -2.2031256034181036e-02
      2.8308835412913968e-02 4.7352594366304498e-02
      7.9747745706444731e-03 -4.7138637187777513e-03
      -3.0855599877754763e-03 1.7223021183628888e-02
      -2.6809538378383149e-02 3.8262309629055753e-02
      1.2014794070744432e-01 -1.6792302983135148e-02
      1.2752854108218398e-01 1.2096862481553319e-01
      8.1649710040752471e-02 -1.0644233003342833e-01
      -3.8256143212909134e-02 -7.4097865195982299e-02
      -1.1890260316022605e-02 2.0037582919678401e-02
      -7.6421696413187273e-02 4.4769625896475457e-02
      -3.7244714125329800e-02 9.1129730072138010e-02
      -1.0958017040150378e-01 -7.8245311547200616e-02
      1.3369672854288533e-01 9.1986427252162620e-02
      -9.0227074689351566e-02 -2.0958077653403129e-01
      -9.1768311885874875e-03 -4.7873364635624312e-02
      1.9560097048128521e-02 6.1089841395621451e-02
      6.3848191336513968e-02 -1.6928628602029462e-02
      -3.1336792144982230e-02 -3.1736227220452197e-02
      -7.7908850392300185e-03 -6.1920622861023338e-02
      7.6133380129297587e-02 1.1701382255041856e-01
      -1.0574104613977542e-01 -2.7998394548467365e-02
      1.5343622359383425e-02 -9.2299420890319242e-02
      -1.1137593583223308e-01 8.3193638281306853e-02
      -7.4108901813523684e-02 4.2756250746759554e-03
      -5.2831164481352402e-02 -5.4137351257852080e-03
      6.9703151969614449e-03 9.0418602862991748e-02
      4.5083146926316577e-02 2.9997142371459892e-02
      -7.5589198600417865e-02 -8.3382326047385241e-02
      -8.7019520835797004e-02 2.3112925966287164e-02
      8.2128812661344364e-02 3.0857696817284831e-02
      -4.5769890520103523e-02 -6.6581292640945458e-05
      8.6850195705863123e-02 8.3100977031053416e-02
      -3.4447925359801970e-02 -1.2009075929148814e-01
      3.4759485321907486e-02 8.8897647624208931e-02
      3.6750411532573919e-02 -9.8161538915420551e-02
      -4.6422985391233143e-02 -8.6506374615384476e-02
      1.9962226005248489e-02 -2.9495591117640465e-02
      1.0603317694535753e-02 1.2843497931046832e-01
      1.5088892614238092e-01 -6.1509252484010964e-02
      -4.8205617545692463e-02 -1.0541906847158247e-01
      7.2376502257068348e-02 6.9554513467182610e-02
      1.0218333666785405e-01 -4.8857269677251423e-02
      -1.6384996411778676e-02 -3.5035460021944673e-02
      8.1007031596478749e-02 -8.9535257010466412e-02
      -2.4964141529518192e-02 -7.9636863086287507e-02
      7.1064389950625972e-02 -3.3515847974441827e-02
      9.5324226428460557e-02 1.0767546463694386e-02
      2.5497220502131865e-02 -7.5563818067247088e-03
      -2.9729676637530900e-01 5.7618560730308764e-02
      8.1282145060698502e-02 -8.1253074720814611e-02
      1.8041412416910516e-02 -9.3067330933346709e-02
      7.7139268073686984e-02 1.1796800084263974e-01
      6.2824454502660651e-02 3.3560144565346894e-02
      2.0215112599544161e-02 5.6914559214758333e-02
      -5.9743708570209005e-02 2.8570778329248734e-02
      1.1912466838385760e-01 1.7025561110067045e-01
      3.1196437216432301e-03 1.0398545781350302e-01
      -7.3634318086362824e-02 3.9189816237338734e-02
      4.4821554053282579e-02 9.1255052435899348e-02
      1.9250844781886125e-02 -6.6283971867270003e-02
      -7.7480782897767150e-02 1.6542058765003746e-02
      9.0380928457543322e-02 -4.4250301004902765e-02
      -6.0286279956149446e-03 5.6548839632070726e-02
      -7.3305647816275382e-02 3.0731179707317385e-04
      1.8887895027339809e-02 -1.1210121173623477e-01
      1.2537496509482490e-01 1.5226301109731808e-02
      -1.7207226746834663e-02 -6.7495866548970468e-02
      6.9947774840638577e-02 -6.7887472928159401e-02
      -5.2574290641571916e-02 6.7992345633558868e-02
      -1.4541256093354771e-02 -4.9776101004882181e-02
      -1.4367285526626572e-01 2.8344588618190687e-02
      8.2492737682656511e-02 -9.7888764380429497e-02
      7.8930096343654520e-03 -5.1061608232268784e-03
      -5.3256528190544411e-02 1.1444855867905047e-01
      1.3809639268905395e-02 9.0040979279469135e-02
      8.6946767642047354e-02 -5.0251065248841750e-02
      5.1275088572163952e-02 -8.5460927875457893e-02
      -2.5763910049532514e-02 -8.8209106307970131e-02
      5.9860816395277017e-02 2.8529383940689698e-02
      1.8417959256268835e-03 2.0234263272006423e-02
      -8.9464649138624227e-03 1.0697229228652938e-01
      -1.3524583898656036e-02 2.9676355968950560e-02
      4.6367588786094198e-02 1.4322544420206288e-02
      -9.9628940022524246e-02 7.8660781681695074e-02
      7.5468005653098788e-02 2.4934589832284679e-02
      9.6762926301440996e-02 -5.4548191532337198e-02
      1.0414090185130752e-02 2.7753332293006739e-02
      -4.3425027466427679e-02 -3.3486126245906890e-02
      -6.1113331122592290e-02 -2.9583297508867658e-02
      5.9004293564875326e-03 2.2030774448778694e-02
      -1.9935879368101081e-02 2.3001304406739941e-02
      1.2136213561992683e-01 3.1912844288392896e-02
      -2.4560591409498081e-02 -5.1522017818497454e-02
      1.8556988488265144e-01 -8.6629181879109094e-03
      6.1415922801426555e-02 -1.8914567088757057e-03
      -4.0589662314546499e-02 1.2245368320093240e-02
      7.8064671432769447e-02 -1.5806205656150669e-02
      -1.7359848220231146e-02 1.2762983863493591e-03
      -7.0597134486344637e-02 -4.0998522875495387e-02
      -9.8733502446115614e-03 -7.5298549113371350e-03
      5.0645207012952199e-02 -3.6778521409018945e-02
      1.0571963055355861e-01 -3.7641547818859741e-02
      9.8282733724014571e-03 -3.2784827650176832e-02
      2.4104660487446852e-01 8.9713123116405058e-02
      -2.1522693490023889e-01 -2.2467420585355240e-03
      1.4702289821765058e-01 -1.1379751603172315e-01
      -1.3639377109876949e-03 -5.0127859342343491e-02
      8.7402202116470831e-02 1.9755467162220795e-02
      -6.3365674524404517e-02 -5.2046727579252317e-03
      6.8983544060216020e-02 -1.0333243444766875e-02
      -4.7232009957506205e-02 -9.4124212998853637e-02
      9.2579210787056498e-02 -1.7821558504328783e-01
      -1.8138061192732841e-01 5.1542452039251577e-02
      1.4332086579421323e-02 -5.8674773389016999e-01
      9.8026876308785330e-02 5.4953467991109332e-02
      9.9546665159049530e-02 2.5258136897920953e-02
      3.3375334424170300e-01 2.0153646007446926e-02
      1.1574378482479106e-01 -2.5928773104592007e-01
      -5.7044183055881291e-02 1.0915360141929747e-01
      -4.1236999878859183e-02 -1.7089063184310105e-01
      -1.0548440553757468e-02 -2.3017566818485723e-02
      4.0888917355452298e-01 -2.3547555397053177e-01
      1.2618952731397695e-02 -2.9453701508057861e-01
      1.9464299313131070e-01 -4.4695351916296047e-02
      3.0566067322351043e-01 1.2231745281608719e-01
      3.3993265300593395e-01 1.3109393426718191e-01
      2.7425895659298632e-01 1.1410165688568764e-01
      1.0325706849469510e-01 -2.1397892362677699e-02
      -4.6787518083105223e-01 1.1031160624408150e-01
      2.2009857244089256e-01 2.2078260333954811e-01
      -2.2336776206304140e-01 -2.1827246064669123e-01
      2.4384078355472283e-01 -3.1348429767880309e-01
      -2.1522244489269018e-01 3.4104995638999525e-01
      -1.5865988528156386e-01 1.7778746375577678e-01
      -1.5151163569293896e-01 -8.0439219556636229e-02
      2.4417990699921972e-02 -7.9619465627821906e-02
      1.7919613039984117e-01 1.9250453371213694e-01
      -3.7340276440279541e-01 -3.5518477886951429e-02
      2.0387668240302418e-02 1.3920965231153123e-01
      2.0336176985896140e-02 2.9513980221664127e-01
      2.4780940901394710e-01 -2.4882138863648970e-02
      4.1506584481215258e-01 -1.9397189798890882e-01
      1.4560931256912346e-01 -1.5975864639875539e-01
      1.6404362806363948e-01 -1.5518297436273704e-01
      -1.3281107771538682e-02 2.9425741744280964e-01
      -1.7456034516462904e-01 4.0623310115755545e-01
      1.5324064110588417e-02 2.4820564092043926e-01
      -2.6887263806027906e-01 -4.0104553108677859e-01
      -7.1650075367371377e-02 2.0295089565579782e-01
      2.3154624030225537e-01 3.8966777374261674e-01
      1.9243258201403621e-01 -3.6951961134760750e-02
      -3.2789306082153991e-01 -5.9445559878989168e-02
      -2.2341880928002050e-01 -1.1355078629647077e-01
      9.1580475480760606e-02 -1.0679092658732148e-02
      -6.2637417650607914e-03 8.8950436047038978e-02
      -3.3050638028771973e-01 -2.5331437163024349e-02
      1.5926207298805206e-01 -4.7230971782524439e-01
      -1.6372680769230291e-01 3.0768743442497236e-03
      -2.5030348267553065e-01 1.7756072107936427e-01
      -2.0163946816761390e-02 -1.4488952542761715e-02
      -6.2212400945629506e-02 -1.1452003487664184e-01
      5.0418479540501368e-02 -1.5337301796793837e-01
      8.3572950745553348e-02 -1.4837495402015666e-01
      -3.8732830993315681e-01 -2.4475673728298386e-01
      1.3261364130092884e-01 2.3220657125183192e-01
      -3.1727763585224034e-01 -3.3408728257241860e-03
      -5.1900985601163886e-02 -1.5124218182346427e-01
      -4.0721523529180507e-02 -2.7316264705290005e-01
      -2.2100938666598816e-01 1.6296807090814178e-01
      -2.0752304165064622e-01 4.5954979405808852e-02
      -8.8909354934936929e-02 6.4954349769511505e-02
      -2.4434228159123936e-01 3.1757662739642600e-01
      9.4404107831067605e-02 2.6269897760931987e-01
      1.6434289697966675e-01 3.0280192838807551e-01
      -1.9677510295546716e-01 7.2349358964716087e-02
      1.8156988224881462e-01 3.2542991204372101e-01
      -1.4773145921595154e-01 -2.4632208100779115e-01
      2.4207088213578035e-01 -4.0246532819023136e-02
      -6.6071411757739784e-02 -5.9149214744498857e-01
      3.0507380235338638e-01 -1.3982046466707936e-02
      2.6970278932010527e-01 3.7521535266715161e-01
      -4.4916797485065489e-02 -1.6704868423217645e-01
      -7.0150978680824386e-02 -2.5553643832743245e-01
      -5.3927405031625637e-02 -7.8972170926062402e-02
      1.5971358275619799e-01 2.4917722841809942e-01
      -1.3398467730194610e-01 -4.4129703969845009e-02
      1.3056401481202515e-01 -7.0041744319356752e-02
      -2.8270390252542604e-01 -2.5448941731348168e-01
      -2.6079929739228758e-01 3.4084612007639342e-01
      -8.2567782013673860e-02 1.3658124499200064e-01
      1.6672478582796316e-02 1.7871825716134940e-01
      -2.3477297777607931e-01 5.2582499932233373e-01
      -4.0826929554321718e-02 6.2924241139725459e-02
      -2.0350051417939316e-01 8.2945543805725275e-02
      6.7644502556594807e-02 2.0275383624566537e-01
      -4.2065481976602682e-02 -2.0223495081056617e-01
      -4.3296445371456820e-02 2.5548349932109604e-01
      -6.9390145310279969e-02 -2.1736914702192300e-01
      -1.9896998843930661e-01 -3.0447536861365898e-01
      -2.1916022733370035e-04 7.6862142809350720e-02
      6.4900418565416451e-02 2.8070202147566969e-01
      -1.1296880866550951e-02 3.8889367179549023e-02
      -2.1558241697057141e-03 -4.1621998640072606e-02
      -1.1705235482100278e-01 8.8219111033913694e-02
      3.3287120392537735e-02 2.8398012653861757e-02
      1.7112486521385037e-01 1.4820133513683503e-01
      1.8105853699122187e-01 4.4536448400069845e-02
      -4.0626628493889122e-02 -3.9989229480109945e-01
      1.0846739439708909e-01 -2.3246832069043447e-01
      -2.0996252148128006e-01 -4.3186853858116110e-03
      1.5178323214280151e-01 -8.2376872206331290e-04
      -4.7340683178952576e-02 1.2317770628777329e-01
      1.3223374210444880e-01 -2.5369950921168827e-01
      -4.2436248181405117e-01 -5.9081904730364065e-02
      2.7924342890352388e-01 1.4825426945649220e-01
      1.1386034695360446e-01 -1.5549598537117032e-01
      -1.4817565700259677e-01 1.5814091835094058e-03
      -2.0649453868604811e-01 -2.4884144693217486e-01
      -2.1372210004587382e-02 -7.4518915496954261e-02
      -2.2659813114582636e-01 6.5774604852571847e-02
      -2.3271467816230779e-01 -2.4943381737495626e-01
      -2.2824364733712105e-01 9.1173513977920478e-02
      2.3669741114752639e-02 1.7678848862244037e-01
      -1.9284567543886088e-02 2.7944935554499839e-01
      -4.7995637099591835e-02 1.7921376841628153e-01
      -2.9543197835315177e-01 2.1000609196673059e-01
      5.1587733383126451e-02 -7.0781950715007716e-02
      3.0985636475962258e-01 -1.5817589585296035e-01
      1.8931446432079287e-02 -4.1532378462583558e-01
      3.9777524162877753e-01 -1.4991110462589957e-01
      -6.1717748192981661e-02 1.8149220601595883e-01
      -2.3606716670964534e-02 2.1629775213232151e-02
      -2.2196890404494066e-01 -9.0198667808386299e-02
      -1.4196793193199830e-01 3.1309425010646380e-03
      1.0393547621568229e-01 1.8962535490825780e-01
      3.4827873761874439e-01 -6.0610075266793177e-02
      1.1040064122849617e-01 4.1111926593547475e-02
      -1.2530092794784900e-01 -1.0021960406449509e-01
      -2.1144136644650774e-01 6.8088630818259444e-02
      -1.6490948303202124e-01 4.2121726703559476e-01
      -4.9247623375347944e-02 5.3198937285872017e-01
      -1.8316746716220053e-01 3.2041586364656127e-01
      1.3845883096333927e-01 -1.3141210005179137e-02
      -4.4653326872071958e-01 -4.4623391080650020e-02
      -4.6602323525801362e-02 2.1959139013002743e-01
      -5.2099609352631214e-02 -8.1060814544082579e-02
      -7.6865316265009295e-02 2.4250161709219564e-01
      -2.9343292374407870e-01 -1.4825728610561331e-01
      7.6398444407773061e-02 -3.9661990008413606e-01
      -2.3479289719835400e-01 5.4620544402950466e-01
      3.9018542951032311e-03 8.2327509400210330e-02
      -4.3435291773471774e-02 -1.4630826322413276e-01
      1.9824868969464987e-01 -1.5223847930700427e-01
      4.0381045367298501e-02 7.9045678714812176e-02
      5.5996724419032445e-02 -2.8314975383992347e-01
      5.0213060283822504e-02 8.1322700665313566e-02
      -1.0690393429996975e-01 2.0202786021250910e-01
      4.4610688015057624e-02 -3.5098518886972646e-01
      -1.8978377495193521e-01 -3.2263262130268228e-01
      -1.0936947017786042e-01 1.2981182627136748e-01
      2.3783247943367283e-01 -4.9345691673556860e-02
      -2.9477655455142898e-01 -8.6030891063243978e-02
      -1.2438314031990916e-01 -6.7602506409350296e-02
      2.0869777060700523e-01 -1.1368623568285328e-01
      2.8058615132111103e-01 -6.9472994532195853e-02
      2.6199130973291901e-01 5.0060382907689646e-02
      5.2879534033383434e-02 8.2470496818668151e-02
      -1.6588798967934032e-01 -1.1305567245326964e-01
      -7.6525660085257963e-02 2.1550444296204121e-01
      -1.7802156994984175e-01 2.5391461111795674e-02
      -3.0222278826301779e-01 1.1154664751618162e-01
      -2.2063284425106522e-02 8.8880183262937088e-04
      1.1963407451941498e-01 -1.8184001593613258e-01
      -1.5014911041043089e-01 1.9591704600771645e-01
      1.8251980413066146e-01 6.6394241258839637e-02
      2.4122157307648795e-01 -3.9917090351477655e-02
      -2.2406281207057867e-02 -7.3086052859901468e-02
      -4.5482219137829905e-01 3.2572048781942786e-01
      -1.5724070947845764e-01 -2.3493667849264149e-01
      2.1725108688750158e-01 -2.7956079006467416e-01
      -2.3959740968887044e-01 -7.3297990586012135e-02
      3.3165768209090823e-01 -2.5777840531315994e-03
      2.8362934604205819e-01 4.3429440082066506e-01
      -2.6691915156584700e-01 2.6942797558868709e-01
      -5.6120961979181483e-02 1.3323880977201816e-01
      -1.4930504907415176e-01 -1.8012178563479592e-01
      -1.8327049243240068e-01 3.3767494365998224e-01
      9.8874605469668978e-03 -1.5189134304055893e-02
      -1.5597046410887389e-01 -2.8180020168407577e-01
      -1.8492297785618239e-01 7.7304609767049060e-02
      5.2060149141876171e-02 1.4099412285659577e-01
      1.5030267163192090e-01 1.0475454788209007e-01
      1.0947570020518944e-01 1.5163484660061974e-01
      1.9208401519736379e-01 -2.9301374623063742e-01
      3.0951125001977853e-01 -7.1859258234025725e-02
      6.5097116396305166e-02 8.6348322420311222e-02
      -1.8682042423740106e-01 1.8239611547189502e-01
      -2.4372412210743843e-01 7.1807256823595164e-02
      4.9019577965389199e-01 -5.8260687644534882e-02
      -9.3467077782450975e-02 4.9816725433998194e-01
      1.8377920289795729e-01 2.2102444552035391e-01
      -3.6822816092617450e-01 8.4002397459592964e-03
      -1.4431685834022205e-04 -8.0725918847792594e-02
      3.5083158621121185e-01 1.4736950264794532e-01
      1.9782603122039963e-01 -1.8348682987988540e-01
      -3.4735602966444519e-02 -1.0656126208573573e-01
      -9.2236343427495232e-02 -3.2278015967701462e-01
      1.0966509908635523e-01 -1.7574822726786540e-01
      2.3019280189078288e-03 -3.3554678537853065e-02
      9.3132679232830803e-03 -2.9065695211893083e-01
      -2.4755236869581076e-01 1.2497928642579262e-01
      -7.8632457160086947e-02 -2.6276689305909617e-01
      -4.3351713873510347e-02 -1.5838249013053453e-02
      -6.0242836895440721e-01 1.7789916282276212e-02
      -1.8412874071282406e-01 -1.4653647166931977e-01
      2.0617479128997204e-01 1.6984237275911201e-01
      -3.8699510863044506e-01 -1.5663022909012764e-01
      2.6704751683759381e-01 8.6176038762181384e-02
      6.2119900758974417e-02 -3.6660488450471075e-02
      1.9314834171903605e-01 -1.6158251961376735e-01
      1.5697281687573642e-01 -3.7445895989742669e-03
      6.0813315715335790e-02 -7.1480285949728606e-02
      -4.4358179792389651e-02 -4.2048639225867872e-02
      -6.5442314603942744e-02 2.3821876925549404e-01
      -2.9967082656557348e-01 1.4670320853348207e-01
      2.2158869798793779e-01 5.9076046700081319e-02
      -1.7654043492335633e-01 -3.4970897649095878e-01
      1.4141622034155266e-01 4.4296419400227105e-02
      3.3574731996543933e-01 1.9050948323829742e-01
      1.3575269449188229e-01 -1.1184889481157384e-01
      1.4590127532316691e-01 -2.7598850617898008e-01
      -1.5428072823543068e-01 2.4921670565295850e-01
      -1.8637270583214471e-01 -1.3787071018664276e-01
      -9.7758320394082221e-02 1.6102872389211070e-02
      3.8591875097898226e-01 -2.1317502170729738e-01
      3.8410764307104453e-02 -4.8997688636313499e-02
      -2.4120456677856469e-01 3.7505857830124840e-02
      -6.0401451059672609e-02 1.4660793489002771e-02
      -9.5819082660247162e-02 -1.5382442166210952e-01
      -2.7804805134910326e-01 6.2715864054549542e-02
      -2.3079503704284199e-01 3.9166292301408466e-02
      2.6938371022437890e-01 2.6919629151873870e-01
      9.6748610755351665e-03 4.9549020702193511e-02
      3.3644721463022292e-01 1.9596651739987650e-01
      1.2074720712555995e-01 2.0981840930065684e-01
      7.2704131783502254e-02 1.0425667761616789e-01
      2.1907866590028488e-01 -2.6398960699824903e-01
      9.5168082017135919e-02 3.5173179485483541e-02
      -1.1814968571232466e-01 3.6757593730749237e-02
      -3.6325944808753485e-01 -2.7107187237640334e-01
      3.2383886917844512e-01 -6.2843530564665503e-02
      2.3216036278101954e-01 -1.4166184930017795e-02
      7.1410646005850079e-02 1.9923486409692125e-02
      1.0740776508122966e-01 9.2266928015497948e-02
      9.7690443753845432e-02 2.7180020863087806e-01
      2.3957889115817016e-01 -1.7801343238857681e-01
      -2.3849181795188804e-01 -3.3635670884830486e-02
      5.6302448197943278e-02 9.0487428445446660e-02
      -1.2228236239784364e-01 1.1697158302755770e-01
      2.2138356999053613e-01 3.2901883996741954e-01
      -5.7665338086874032e-02 -1.1112562383659659e-01
      -9.4332567614653473e-02 -2.8978479887572295e-01
      1.3107244102412011e-01 -6.3804549825937348e-02
      -2.3529815919556926e-01 2.6685426070997575e-01
      -2.5562378413658887e-01 4.7564328671178846e-01
      -1.8566088975517434e-01 -1.8331444411574777e-01
      1.3131453456010408e-01 1.8171663214855394e-01
      1.7821726453505615e-01 2.7635857812070047e-01
      2.1107401432059397e-01 -1.5941378894993741e-01
      -4.2882909236948563e-01 5.3421417337573600e-02
      -6.8165240890717488e-02 -1.3179061535895789e-01
      1.2775568605909113e-01 -1.1086614031609363e-01
      2.7360429949388643e-01 -1.7150082542569184e-01
      -1.9902395300546161e-01 9.3024691254187095e-02
      6.4730093599412539e-03 1.4159051503384642e-02
      -3.5144716227177819e-01 3.2588508212764689e-01
      1.7838927872977228e-01 -5.2444582999495552e-02
      -1.5241067910202785e-01 1.6037071462141358e-01
      1.1743491034409259e-01 -3.1342238105938391e-01
      1.7777169052686681e-01 2.3850838499614238e-01
      -4.1856150300185906e-02 2.3187599400819120e-01
      -8.5563816773676263e-02 -3.6618981665623419e-02
      2.2724004285454102e-01 -7.3892155075970262e-03
      -4.2355108059440948e-02 -1.5155300970656035e-01
      2.6693931423856843e-01 -4.6354555657213953e-01
      2.8739678869000057e-01 2.3323134382360153e-02
      8.8398971825093722e-02 -1.0401684994647843e-01
      1.3798106670787866e-01 9.7491873221061523e-02
      -5.3634078901249389e-02 -1.2271536973620106e-01
      -3.6992972883147140e-01 -3.1920090750484559e-01
      3.0793176460534993e-01 1.3056920405194436e-01
      -2.0710733632524472e-01 6.7112352241451900e-02
      2.0201774167100403e-01 -2.1842193040624330e-01
      -4.2088824023216162e-02 -1.2763101354668038e-01
      4.6445504271712995e-01 -1.2119963847956945e-02
      3.2068408538946819e-01 -1.0775193000335465e-01
      4.2241656628605240e-02 2.6172649947992377e-01
      -2.7333755980831476e-01 -1.2455225110447656e-01
      1.5407518117721791e-01 -2.3848217308191635e-01
      -2.6223474832499722e-02 -9.2977215150953058e-02
      5.7294494858379993e-02 5.7612081487646523e-02
      6.1262631749668665e-02 1.0157839126398339e-01
      3.3060003902285329e-01 -1.1069722744670424e-01
      9.8695228695492687e-02 -9.6575681370795766e-02
      -2.0791991789550577e-02 -3.0559478180699550e-02
      -1.0108248347652668e-01 -1.9847603590972707e-01
      -9.6901278770286578e-03 2.3352938350502864e-01
      2.4921522927426465e-01 2.9150472889385139e-02
      -2.5148308799711605e-01 -2.8261091435811372e-02
      2.4781146554598560e-01 -2.7621079921490760e-01
      2.5559307481291565e-01 -1.0346199574312943e-01
      -2.5490040770368133e-01 -3.1060044185036911e-02
      1.4096960553766522e-01 -1.3404363436593966e-01
      2.7288537627643661e-01 -1.2133833410831030e-01
      9.5710836316479794e-02 2.0609655136528016e-01
      -2.2929849460628782e-01 5.4791022052860149e-02
      2.9220391779539173e-01 3.1011969991010863e-01
      -3.1962977576393448e-01 -1.9407709053969539e-02
      2.2907687829832565e-01 6.2948336669349611e-02
      5.3440087313352078e-02 1.9205654119291479e-01
      4.9306609078609738e-03 -1.7287687139253491e-01
      8.2139112383942212e-02 1.5971210449116483e-02
      3.2409426114889139e-01 -4.1868973224876566e-02
      -1.0345668673502800e-01 -4.8253834418755948e-01
      -1.0680687071904989e-01 -2.6307158965673466e-01
      -6.6814967376988152e-02 -1.4435629117753182e-01
      1.9455435313995598e-01 2.4591706466508742e-01
      -2.1069682496776884e-01 -1.9161725222451345e-01
      -3.4003605001115872e-01 -2.5743105842255942e-01
      3.6400829636905324e-01 1.8497607134640628e-01
      2.2915319633564538e-02 1.3698265971933235e-01
      -9.1125362229501919e-02 -2.4958065521105247e-02
      1.7773339918666417e-01 3.9149434197923577e-02
      3.0794515698016273e-01 -6.0038741583841149e-02
      -9.9333827623204030e-02 1.0423212496237082e-02
      -3.6759526432240494e-02 -2.0159266654056909e-01
      3.2677306394392580e-01 -3.8715638037644148e-02
      -5.5452464493919489e-02 1.9566971367402486e-01
      2.1816794293261457e-01 -1.8278501877159714e-01
      -5.5267795962610196e-03 -7.3097262548774203e-02
      1.6415954053248630e-01 1.7162911597582986e-01
      -1.2881681674382126e-01 2.4013174355226815e-02
      1.0423107752556053e-01 -1.4231416405509964e-01
      -4.2568451595300089e-01 -1.5424375587712086e-01
      4.9479483203765627e-02 2.0441796215314417e-01
      1.5559865221178773e-01 -2.9424222048153637e-02
      -9.0355090694611465e-02 -5.5368917479186139e-02
      -2.1858608590162912e-01 -4.4074592703203359e-02
      -9.7175196694136740e-02 -4.1855038655409610e-01
      1.9154274443544106e-01 3.7195068234062806e-01
      4.4107777696938126e-02 -4.1992018692690525e-01
      -1.1744211018675310e-01 3.2555602844603110e-01
      1.9067768437055593e-01 -1.2322530848935603e-01
      -9.0941964053291108e-02 1.0193046879540574e-01
      -7.5731543026902826e-02 -1.3581067686289213e-02
      -1.0752752591264954e-01 -6.1374560165212727e-02
      -5.4269378481856562e-02 -1.7048848468280281e-02
      8.1418519264172692e-02 -2.4990096251525265e-01
      -1.7402542208299737e-01 -2.0365851240265267e-01
      -9.4342091692388538e-02 -2.9492572732666922e-01
      2.2541512747841458e-01 1.1751678083467682e-01
      -4.1615013023580461e-01 -2.6646799200890825e-01
      4.4627641367856735e-01 -1.5471263758611431e-01
      -1.4275541238789846e-01 -3.2223171903456077e-01
      -2.3102959126238328e-03 1.7266976467004556e-02
      -5.0878399243316635e-02 -1.3860535523445183e-01
      -2.2756864508261757e-01 1.8663213704904416e-01
      -7.6876912140458845e-02 -8.8853585713524780e-02
      1.0334877244647334e-01 -2.1332065066518585e-01
      -1.3979878991225969e-01 -2.7875672000407931e-01
      1.8776101867139947e-01 4.7747841010766201e-01
      2.3511222576679158e-01 -3.5165115942824343e-01
      2.7612915758339368e-01 -3.6197451891106423e-02
      7.5766983049830081e-02 2.5050897587235210e-01
      9.4795273983346015e-02 -3.3926577384436157e-01
      1.0139185346636714e-01 -1.3452075185238110e-01
      2.1534860243972079e-01 -1.3529004793599197e-01
      -1.8214650846182651e-01 -1.9842704152709315e-01
      1.2686310002662911e-02 2.6751835448921302e-01
      2.6025903766034619e-01 -7.1415591479664517e-02
      2.0541912486488148e-01 -9.6745716175656027e-02
      -1.3431215040004529e-01 9.7717771144068561e-03
      -1.3198386952915281e-01 2.1493335754657200e-01
      3.1057546569491995e-01 1.0433918469159513e-01
      1.2736113114852790e-01 1.8277014440074280e-02
      -5.8640406180674849e-02 -6.4159198006662821e-01
      -1.1747477247642248e-01 -2.7673636391733095e-02
      -6.1350955659238993e-01 1.8775225344705085e-01
      2.0737214348064595e-01 -5.5272668456900054e-01
      -1.6825063018108916e-01 2.7553511678640130e-01
      -1.4582128407056424e-01 2.1077092194491875e-01
      1.1361938221614289e-01 1.6889362003521102e-01
      1.4333090678030946e-01 1.0793268179254437e-01
      1.0065202335969438e-01 3.0136497766479971e-02
      1.2229209185873412e-01 3.0349590109023133e-01
      1.4240938829551672e-01 3.4088897892854707e-02
      2.8902408019897588e-02 -2.1254873461968812e-01
      -2.3088302646363523e-01 -1.7830320532134949e-01
      -1.3419241756405648e-01 1.6643457494139496e-01
      -4.1593221038865974e-01 1.7956082813246280e-01
      1.4951518450906112e-01 -3.1608572170610671e-01
      2.3398302996176648e-01 1.1239197759817265e-01
      2.5909419998346278e-01 -1.9260580187790838e-01
      2.8998073942938830e-02 6.3874254146964182e-02
      -1.6887915950878515e-01 2.3014121164755250e-01
      1.8867210511400306e-01 1.6477455134644764e-01
      2.2471379557261284e-01 -1.7257882186583459e-01
      9.3441647146524767e-02 2.3707703210034781e-01
      8.5007774697682753e-02 3.1367161364937213e-01
      3.1134896984850308e-01 7.4091710299002800e-02
      -1.5523252960770722e-03 -1.3683843757613093e-01
      -1.1440216032443449e-02 -2.0860481414000270e-01
      4.0210427531196330e-01 1.7019845167107635e-02
      -1.2435208610766012e-01 -4.2119329352603652e-02
      2.3138800653091596e-02 -2.2782122820102177e-01
      3.1569036068954304e-01 -2.1703280672642361e-01
      -4.9597168029326621e-01 -1.8641881038495878e-01
      2.3970610563348882e-01 -2.3714241703760144e-02
      -2.8138479439482678e-01 -4.5325693571695308e-01
      -1.3468322365020557e-02 -8.6235517799457026e-02
      1.0563683516585881e-01 -2.2911692162066033e-01
      -1.9172791695495242e-01 -1.8813418773627111e-01
      -1.6915783235732340e-01 1.2383914501712691e-01
      2.0316709666122473e-01 4.7250056082774737e-02
      1.0482485258249014e-01 -2.7131472680630109e-01
      5.9325498836650073e-02 -2.8524581147941452e-01
      -2.6014724381880105e-01 -2.6690174956910101e-01
      5.7160146810023155e-02 -2.3459233154036996e-01
      3.6982991461976328e-01 1.7203217318818194e-02
      -2.0293699656654776e-01 1.1310773228961800e-01
      9.4432274351201093e-02 -4.9185025138980870e-01
      -2.9674826456872089e-01 -1.9337945690564579e-01
      -5.1536061408825773e-01 -1.9214573411840419e-01
      8.9652562528050220e-02 -4.1960958681490149e-02
      -1.9017969279552888e-01 2.5582409791038763e-01
      -1.6460882925475667e-01 -1.2633605408074206e-01
      -3.4291353684532022e-01 -3.7034685750400198e-01
      3.8183733532697869e-02 -1.6052652651815622e-01
      -1.8272101086398243e-01 1.0019805793748968e-01
      5.8160572599513481e-03 -8.8020232682944580e-02
      -6.7757549295726485e-02 -3.5748950310659805e-01
      -7.7138873835798033e-03 8.9359327446369985e-02
      1.0183820020151402e-01 5.6555179438230574e-02
      2.0037370096279922e-01 3.0476058713718795e-01
      7.8718673593264218e-02 1.4906256803916590e-01
      2.4698786716443755e-01 2.2397084241869489e-01
      1.0517114373452108e-01 -1.8333448526713267e-01
      -1.0934379218481070e-01 3.5163348035846503e-01
      3.5395932766329553e-02 -1.2475636360687402e-01
      -9.8721970403498435e-02 -5.6208884102295720e-01
      -5.7606432973779674e-02 1.1807334742889478e-01
      1.8447207288737261e-01 1.5214225101737985e-01
      -3.3064672850766763e-01 1.4095934570559410e-01
      1.2840976453848882e-01 2.0415456620814307e-01
      -6.1559945344149356e-03 1.8153678882816476e-01
      3.2878822187941925e-01 -7.5810288132567974e-02
      3.4796648052533946e-01 1.2516669357935856e-01
      2.0579322533998778e-01 -2.3214385761151252e-01
      2.6679587899197160e-01 1.1077800025476631e-01
      1.6267075057770303e-01 -2.4309836267703541e-01
      -1.3624179005265077e-01 -1.6423564569991886e-01
      -2.1826957357875140e-01 -3.8656150398078021e-01
      8.3103275412840433e-02 2.7094427030113677e-01
      2.7374279636258442e-01 1.2888198085734109e-01
      -1.6661248214868321e-03 -1.4202939837740966e-02
      -3.7656900341825877e-01 -2.9522272960328610e-02
      -2.8634117053072788e-01 6.4884580004697698e-02
      -1.3769049752148674e-01 2.4193123399063568e-01
      3.6091571362104180e-01 -8.2326362024618599e-02
      3.8306191626054004e-01 2.2281549048216814e-01
      -2.3224410708442811e-01 -2.6333516668100893e-01
      3.7488873134637640e-01 -1.1923402117527609e-01
      3.7910286086301215e-01 -2.3195231784227888e-02
      -1.3097052548996560e-01 -2.0616492061521915e-01
      -2.5929121003575867e-01 6.5170937132867701e-02
      -4.3725192748578379e-01 -1.0016520450345548e-01
      -6.5957299318349358e-02 -8.7728083933667017e-02
      -1.4754719865547655e-01 1.1132488258839947e-01
      -4.5356817756241188e-02 -6.6197081966231823e-03
      -2.9202605677235843e-01 1.1217225371250070e-01
      -2.8092177313507077e-01 1.0271209807976673e-03
      2.0869895062238333e-01 1.9011086833132398e-01
      9.8400380901693688e-02 -5.5835482824772706e-03
      1.9543213402163553e-01 -3.6979013813637246e-02
      8.5347767597135998e-02 -1.8409987343782883e-01
      1.7856665411774900e-01 -1.4295467002027459e-01
      9.4534230978420203e-02 2.1501504584748146e-01
      1.1088468352045017e-02 -2.1734573212020254e-04
      2.1162754737441927e-01 -2.8115386846851942e-01
      -2.7565294315705313e-01 -2.7380124319187149e-01
      -1.7035329516349126e-01 1.8696919891713581e-01
      3.4651351683346508e-02 -1.8092512570859456e-01
      6.4418065831604115e-02 -2.6712941722852884e-01
      -5.6949323211165645e-03 1.6458693022910104e-02
      7.2769242820317520e-02 -2.7569973065266340e-01
      3.6683033530265641e-01 -3.2120112016251057e-01
      1.2799319873032552e-01 -2.4667942146260385e-01
      9.4009947294927690e-02 -2.6888777763620191e-02
      -3.2625629617522085e-02 -2.4083484990814688e-01
      1.5703069725143157e-01 -1.2744172425650951e-01
      -6.2953033618460746e-02 -3.2389149892250901e-01
      2.7925311172952588e-01 2.2977621507184603e-02
      -5.8672439392260314e-03 2.2047272661545195e-01
      1.6969478320946385e-01 1.2311260365127565e-01
      -1.4482542743645821e-01 2.9742383861163096e-01
      -1.0755504622631809e-01 -2.0264589780327305e-01
      -9.7250009536882287e-02 1.4180148820865024e-01
      -1.8068966851085621e-02 2.3332561198123591e-01
      -1.8522120150117918e-01 -8.4964542239135184e-03
      -1.4854261060827575e-01 -8.3285381187111415e-02
      3.7076610825779382e-01 -1.2207068535608011e-01
      -4.9304798158182200e-01 -1.2103723209086663e-01
      1.3172835580668563e-01 -3.8732244389877746e-01
      -6.9238746724196859e-02 -3.0460562641857888e-03
      3.3989008119546055e-01 -4.3924185186944874e-02
      -5.1239533033540963e-01 8.8089986485431093e-02
      8.6420108656466002e-02 4.7925706233113118e-02
      4.0011885186823984e-02 3.4225500988294005e-01
      2.8714806796959635e-01 2.7886651275193613e-02
      -2.6204022158329832e-01 3.6095923039411426e-01
      -1.0406279159657945e-01 2.7391580429033668e-01
      -2.5956888716361326e-01 4.4642722909409169e-02
      1.9735266532909382e-01 -2.2179398923269300e-01
      -5.0529164463560794e-01 -1.6064877855276835e-01
      -1.9739986994311684e-01 -7.2573612115679434e-02
      1.4965997884667520e-01 1.6519620379297439e-01
      6.0468029878122361e-03 -1.5947606975576178e-01
      -4.0456979672191812e-01 -1.8370511078662485e-01
      -3.5412415311678014e-01 -1.3221118640332566e-01
      1.2342590862984669e-01 -3.0869177926601887e-02
      -6.9505917035890846e-02 -3.9332646197977598e-02
      5.9004552955674534e-02 1.1448298230684273e-01
      1.9463217286131915e-01 2.5880364973600523e-01
      3.0601161683290196e-01 -1.9263808645215516e-01
      -4.5876798030227911e-01 -1.1541077954165192e-01
      -1.6764968550014209e-01 -5.0274735817907434e-01
      -6.5091481932012765e-02 7.1424455072422413e-02
      6.5353667384553366e-02 -2.5336563736288431e-01
      -2.1792104049798495e-02 -2.2038066650102314e-02
      -4.3732248746590774e-01 -2.8207349780577301e-01
      4.0429071987225923e-02 3.5794719589698648e-01
      9.2263309041888314e-02 -1.3333200191449671e-01
      1.7838638400768558e-01 -1.6321572634536052e-01
      8.7751791261259024e-03 -4.3525734881294476e-01
      1.7043197808186594e-02 9.6703767290006112e-02
      1.4731125903484910e-01 -4.0296128482408011e-01
      -1.4075685773415086e-01 1.6476276406542473e-01
      1.7527330170097616e-01 4.8885699932750448e-01
      -4.6202328267270837e-01 -4.7768154461886031e-01
      2.0753147977073583e-01 2.1883289559520147e-01
      -1.3349257289327818e-01 -2.3271934150277457e-01
      -4.7132989587043733e-02 1.7006907778293870e-01
      -9.4821853740365267e-02 2.4524365907158195e-02
      1.3532091800800727e-01 -2.0507068341772964e-02
      4.1987945772270475e-02 -3.6273304367823972e-02
      -1.5447598744203836e-01 -8.6293648378953980e-02
      -2.2880615816905223e-01 1.1475665371163110e-01
      -1.0338088856678679e-01 -3.7573498743472766e-02
      -4.8494499805748113e-04 -2.0337920587053557e-01
      -3.3013235179402428e-01 -2.7895615814716118e-01
      -9.5896899902188609e-02 1.6103715996058968e-01
      -3.8125803853160517e-01 -2.1466706375574057e-01
      -4.9580032284775248e-02 -4.4155421160719410e-02
      -3.2271212982814707e-01 -1.7507233641429640e-01
      -5.5184205251987806e-01 -4.1934866852012698e-02
      1.5464864898598721e-01 2.6770302590144807e-01
      -2.1584068053060856e-01 3.9128865054459144e-01
      2.3645577351467409e-01 -1.2723824287214811e-01
      -1.5235868893108281e-01 -3.1532601715314107e-01
      -3.8576408863837575e-01 1.1052192625752512e-01
      4.8488210449805896e-01 1.9398526265922508e-01
      -1.7597533319520151e-01 -3.4046707463149967e-01
      2.6063578636810386e-01 8.8490471207739382e-02
      1.2156192582406114e-01 2.6334343451376657e-01
      2.7658525334148981e-01 -2.8678917914627738e-01
      -1.7082872029393556e-02 4.4086436573130071e-02
      9.6242388394227704e-02 3.4300459200773230e-02
      -4.2298297169955340e-02 -1.7159919425735046e-01
      5.6398713120670720e-02 6.3843174470173192e-01
      -4.6463209691550850e-02 2.1574993204267195e-01
      3.6369323349621518e-01 -3.6787524938007486e-02
      -2.3161260534374611e-01 -2.5831685026540852e-01
      -2.3884649538205746e-01 7.9216487326027360e-02
      -1.5464280626039517e-01 -1.6739894702462127e-01
      -1.5615135743234831e-01 -1.6162394099227592e-01
      -9.9380704962832453e-02 -2.7088749744884350e-01
      -2.3745916671448150e-01 -3.2928231932422186e-01
      -2.2370273600885301e-01 2.8425069474175535e-01
      2.9239209492182811e-01 -1.0090781152148900e-01
      -1.8603363174485893e-01 6.3268406131438359e-02
      -5.7196288725710553e-01 -3.6268863942231999e-01
      -1.5898306358690764e-01 -1.3457233765338743e-02
      -4.0449821201955732e-01 -5.1956441283473147e-02
      -8.7214948624857305e-02 1.4698994621489000e-01
      1.9672666547628206e-01 3.0660055332025204e-01
      -1.7619016571348459e-01 1.3737206774019362e-01
      -1.5376331912031585e-01 -2.0672547200384203e-01
      -1.8921732014550255e-01 -1.3874934262319313e-01
      -2.6411833136742868e-01 4.4599611479649842e-01
      -4.0604215148716988e-01 -4.1475637516010011e-01
      2.0306775808094626e-01 -2.5341365721271797e-01
      3.8766803832811425e-01 -1.0798192787606162e-01
      -1.7917218944322744e-01 1.4927444342296942e-01
      1.9638954377095610e-01 3.3404923590773239e-01
      2.9617153492864001e-01 1.1707103397916463e-01
      1.1816039515321215e-01 1.3382095106711830e-01
      4.6281797084867621e-01 5.6825780336623548e-02
      3.2431620514318238e-01 6.7631719864036599e-02
      1.5970241633968255e-01 4.8116188957374556e-01
      3.0206496706568359e-02 -9.4585528757065357e-02
      -3.0255817451901912e-01 -3.3842204452016633e-01
      2.1347504709268100e-01 -1.3689201105658458e-01
      -4.9766311084379872e-02 9.7631809229431876e-02
      6.0258033034065336e-02 1.3864089262726198e-01
      -3.4378855112025590e-02 -3.8113212418977672e-02
      3.0835542991959186e-01 -2.0757209348498573e-01
      -2.7064470749024966e-01 -7.5302498233845383e-02
      3.0998820656236575e-01 -2.1169357364816171e-01
      -1.9897398707358868e-01 -1.2805331073018486e-01
      2.5950648484171566e-03 -2.8534708662634956e-01
      1.9713120293399414e-01 -7.0536312763878799e-03
      3.8645076848973769e-01 -3.8741533234604514e-01
      1.6646632688522556e-01 4.1186010990285668e-02
      1.1370770134828537e-01 1.1233974761882730e-02
      1.0116991831968715e-02 8.0721061027820076e-02
      -4.4779922469732336e-01 -2.0476583433330800e-01
      9.0242892387412843e-02 -2.3842220514535165e-01
      1.7138156677870445e-01 2.0334193441194806e-01
      3.4854522761182061e-01 2.7310388793063467e-01
      -2.1383144771090651e-01 4.9562130240580693e-01
      2.5565566931774875e-01 -1.5802209970912426e-01
      -3.2775494171075653e-01 -6.2302696627634012e-02
      -4.7264596083281971e-02 -2.8262250786523496e-01
      -2.4330292126306843e-02 2.1585548726232130e-02
      1.6815045299503861e-01 2.7986057914774426e-01
      -9.2703967611840660e-02 -1.2297566337677932e-01
      -1.6990602389156098e-01 2.2901150990816654e-01
      2.6328827197498170e-02 1.5284973687746756e-01
      2.7406103601706222e-01 -3.0824652661880149e-02
      -2.1629130086094092e-01 3.0063787715749562e-02
      -5.8358924355005642e-02 -2.7143615433909912e-01
      -6.1996220434368782e-02 2.0323831461498774e-02
      -1.5072393996395694e-01 2.8065477931376426e-01
      -2.5382006109716884e-02 2.1900236879959453e-01
      1.0099494591486122e-01 1.5499783336403583e-02
      3.8322576665291944e-02 6.7107828407143702e-02
      4.9745255365944130e-01 -4.1828666045948648e-01
      2.2633994054668958e-02 2.5894683807596330e-01
      1.5155592052154734e-02 2.3498871626378159e-01
      -2.3965456139846320e-01 -2.4026083309334317e-01
      9.5734262181754442e-03 1.3183341933347240e-01
      1.4031763981555537e-02 -2.1058654551179681e-01
      -3.6037098218639813e-01 1.9213256832985701e-01
      3.8552265135102720e-01 -2.6352941695812948e-01
      -2.5920248080762542e-01 1.3984763372959746e-01
      -1.2589888832126128e-01 -1.2999341220760251e-02
      5.7153225048467315e-01 1.3402771148996917e-01
      7.3701211091485225e-02 1.8096677414949627e-01
      2.6321725322534933e-01 -2.2465610668171546e-02
      5.3451373321444029e-01 1.0888325217798994e-01
      -2.8971845643729632e-01 -1.5892900535146923e-01
      3.7052847323007988e-02 -8.6534472314184846e-02
      -3.7252637727385213e-02 2.4346876498180814e-01
      4.4473819182513047e-01 -4.6124364966515535e-01
      -1.1395607544884401e-01 -2.6459551508831586e-01
      1.7267219023447047e-01 -1.2134910551101047e-01
      2.4462009702421481e-01 1.9295374225595985e-01
      1.8901640740466113e-02 -2.0407889139315483e-01
      7.1772812097412556e-02 -4.2199621651041651e-02
      3.4164691502406558e-02 1.9703102506823972e-01
      -4.8430591117509116e-02 1.6463921564471112e-01
      1.0056501653249582e-01 1.8839606811916432e-01
      -3.1705949949244960e-01 7.5424390717187415e-02
      1.8357117669979986e-01 -9.5247351639220906e-02
      9.6151212648702619e-02 -1.7477784684257303e-01
      -5.8271896188261185e-01 2.3162857079970764e-01
      -2.6468563794129424e-01 5.0224465535537255e-01
      -1.4950508343102270e-01 -2.9887588984563335e-01
      -8.2027744982104647e-02 -2.5444952239308655e-03
      -4.0746458023592763e-01 -2.2961923746580185e-01
      -2.9925046298909846e-01 -2.8348387109675841e-02
      -5.8808829307946439e-02 -3.5180677054620285e-01
      5.6615302556704765e-02 -3.7491856507510718e-01
      1.3696867633203105e-01 -2.2245200696863904e-01
      1.0430557791486722e-01 -2.7635509261736940e-01
      -2.6850133891062616e-01 -2.0701538734490846e-01
      2.1449048865304526e-01 7.9809930731072912e-02
      3.0892818687023338e-01 -7.4782835345100523e-02
      -2.9904242729044339e-01 -1.0642557698396596e-01
      -2.7736365905959659e-01 1.5718982746212773e-01
      2.2126531489982304e-01 -3.8478592165123560e-01
      -1.3484684459386179e-01 2.3892726939005151e-02
      4.7492665005820278e-02 -1.9149097799858655e-01
      -9.2439723065032120e-02 -1.0037353429092453e-01
      -4.9625236714424925e-02 -1.7187883778019115e-02
      2.2765238102733826e-01 -1.0061464695014326e-02
      1.3764214846867556e-01 2.3489379064099358e-01
      -1.1155487739169847e-02 -1.3959406038691272e-01
      3.9899555558987632e-01 -1.9582733823874890e-01
      2.3849395031763101e-01 -9.1712559903890337e-02
      -1.5504444230695642e-02 -2.5061097945475203e-02
      8.1562781935645035e-02 1.3494886669994915e-01
      2.3966979051452031e-01 6.9078593990894929e-02
      1.7734039481495753e-02 3.0689076380941338e-01
      2.8765424650146483e-02 2.0564195877696489e-02
      9.4852276594788884e-02 7.0672391499320752e-02
      -2.3126713410452962e-01 -5.1652538156453015e-02
      1.2839167254445738e-01 -7.5160217999233378e-02
      2.0090869982456780e-01 3.5770769964758614e-01
      -3.2300819274084602e-01 -2.2259486888959218e-01
      -3.9967196737046107e-01 1.4685570766308453e-01
      8.0988904538021184e-03 4.9055541084715541e-02
      8.2570378889012766e-02 -7.9506154014832506e-02
      4.7186557967702089e-02 -3.3534625438888958e-02
      -5.3756399277549875e-02 -8.0466373239433578e-02
      7.0029077226414424e-02 -2.7054484642629456e-01
      1.7629327273662648e-01 8.7500495158616201e-02
      -3.1522341506382195e-02 3.0531156072763847e-02
      9.4197734974251060e-02 1.8582855041558860e-01
      -3.0424609161469152e-01 2.5180329867294521e-01
      6.7492579914911990e-02 2.7180572314703533e-01
      -9.4167784017140682e-02 7.0805212801599793e-02
      4.7281030044205731e-02 -8.9087244982106739e-03
      1.2957108213086130e-01 -4.9420294459993414e-01
      5.9897381514184847e-02 -1.3076922593832510e-02
      4.6557109306267899e-02 2.8157600248170972e-01
      1.0248967096850133e-01 2.3680960206041488e-01
      -2.0695960553324955e-01 4.1171921777553135e-03
      -2.8392334425448440e-01 -4.8749295208675414e-01
      9.0810096412967750e-02 -3.8026513629397940e-01
      3.0799684777956762e-02 5.5706159035365695e-02
      9.6447049277592248e-02 -1.0050294260529859e-01
      3.7059230218670591e-01 -2.1230483842988820e-01
      1.6497907354919214e-01 -2.0330787569584000e-01
      1.4600077741001219e-01 -6.3700638849536295e-01
      -7.0620839754807582e-02 5.8711812236945632e-02
      -5.6544432958378577e-02 -4.7156788887711958e-02
      -1.0412267974759633e-01 1.1955966299041802e-01
      -4.5137468085042931e-01 -2.3912101659726881e-01
      -3.9187622016635221e-01 -9.4132085132826643e-02
      7.2929399646333229e-02 2.6985357122034849e-02
      1.4935942474396932e-01 1.4912574202937592e-01
      -1.6234369570580751e-01 -3.4675772756473794e-01
      1.8521809808571026e-02 -1.5704515202333055e-01
      1.8318139619155632e-01 -6.2287189492941597e-02
      1.6353763392181458e-01 -4.3633136140652101e-01
      8.2549698810961025e-02 -8.7690370108959192e-02
      4.1660514488522926e-02 -3.1227711458033885e-01
      -4.9476714996540501e-02 -1.9829497018900871e-01
      4.6569480160663063e-01 5.5997695774639193e-02
      -5.1868509743557639e-02 1.6766684613887359e-01
      -6.9729157793816290e-02 4.0297787287171948e-02
      4.4604911968670130e-01 -2.3905701027256327e-02
      1.5504094005140232e-01 1.2849572666040415e-01
      -7.4085738870343060e-02 1.2377025089669330e-01
      8.3483047841811917e-02 1.5086309579668483e-01
      -3.0896544306323254e-01 2.7021748082210615e-02
      2.5005006448848943e-01 -3.3613444468016268e-01
      5.3153028500652366e-01 3.1517091757863175e-01
      -2.4717141874830023e-01 2.6689214228135992e-02
      -4.9827275556368150e-01 -7.6426282070049992e-02
      -1.3661804953411186e-01 -2.4353137293860508e-01
      2.3213589256872746e-01 4.1260692411098276e-01
      -2.9514644499408649e-01 -1.8659608440603057e-01
      -4.6949164888664174e-01 -1.5400581279720713e-01
      3.9408151703694999e-01 -8.5923684642386436e-02
      -4.2586570507536353e-01 1.6037789295382551e-01
      2.1747720107320551e-01 -1.3139553441799875e-01
      -5.2656418402551187e-03 -6.9870452935625563e-02
      -8.4544339318949821e-02 -4.3222314603477180e-01
      5.9994365161857847e-02 3.9759956099104687e-01
      1.0088878364578775e-01 -7.4494783300224687e-02
      3.8371648835916405e-01 -6.7072837141114519e-02
      -3.3162016205313942e-02 1.0663890449344804e-01
      -2.2345233258228103e-01 -1.7397963944687267e-01
      -2.2024066930919975e-01 2.0205399493094856e-02
      -1.8126288481495428e-02 -2.9004982230998000e-01
      2.2541644336786076e-01 -2.7611670269038097e-01
      3.1959767494249131e-01 3.4714868655228648e-01
      -3.9887553765803174e-01 5.1909971799870891e-01
      4.3826483310533160e-01 -3.2639839082243233e-01
      -7.5821409549589436e-01 -3.3931025548147042e-01
      -5.5315754924357419e-01 -1.7262865401863198e-01
      8.2623338024020027e-02 -1.7204464427853580e-01
      -1.0232301490255866e-01 2.9994015265404284e-01
      -2.9958935319148106e-01 -3.5682762638511378e-01
      -1.2757199466890856e-01 -2.3844786667375892e-01
      -4.1777061512963837e-01 -2.3510051073976680e-02
      4.8270165444163189e-02 -1.1014448464248132e-01
      -2.9994341473093322e-01 1.7351875861685462e-01
      -2.5627265783651110e-01 -5.2327622126610618e-01
      -1.3017585221582903e-01 -3.5927490369837844e-01
      -4.4103537868976744e-01 1.0563144718669026e-01
      6.1469404885107007e-02 5.1643269978068929e-01
      1.0332263379696557e-01 -7.0186651994605742e-03
      1.7533158009383618e-01 3.7896511538725786e-01
      -4.1299979596601838e-01 -3.2510304617703784e-01
      9.3469226922300905e-02 -2.1121733747917784e-01
      -1.1605101000086100e-01 3.8322576251267859e-01
      -1.3764263819456815e-01 -5.2900654394991542e-01
      -7.9256018894908797e-02 1.4982149319033927e-01
      3.5126621623429871e-01 8.1148066641915026e-02
      -5.2284764696487004e-02 2.3120070531864309e-01
      7.9263159598717062e-02 3.4614126080713944e-02
      2.1476012860502711e-01 8.3433451182041651e-02
      3.2061508580366604e-01 2.9079725148941965e-01
      7.8514991335234277e-02 -1.1941200074870441e-01
      3.5769814225920105e-01 6.1206945408007096e-01
      2.3603530205501014e-01 9.6210374288256878e-02
      1.6682133547710340e-01 -1.2409204158670135e-01
      -2.8139999263587245e-01 -2.1732598560216793e-01
      -7.5664221012784555e-02 3.1386952791765885e-02
      -2.3629124555336344e-02 1.9817998688087127e-01
      4.0961748773782020e-01 -7.3514628765172937e-02
      -5.9851895610110450e-01 -6.4894911045495621e-02
      6.2788866778141425e-02 -2.6999011579928528e-01
      -3.1201644867684930e-01 7.6934043012893763e-02
      2.8830325716870475e-01 -2.2356995920482259e-01
      -2.0243788325619658e-01 -1.7198055584924646e-01
      -1.7749647731760851e-01 -1.1905186093783279e-01
      3.1417138363535357e-01 1.1881373346742789e-01
      -2.6236154490842184e-02 -1.9903467577639011e-02
      2.8099283699480498e-01 6.7848782479682485e-02
      -3.0059558435088663e-02 4.5257393380133182e-01
      1.6490868479276771e-01 -6.9919954125194764e-02
      -3.4700757405330651e-01 -1.9006400585270097e-01
      -7.4813078545320794e-02 -4.3963777860015416e-02
      5.3459157311892908e-02 -2.5332251616959622e-01
      3.8934883254489944e-01 3.0469704273748260e-01
      -3.4284044283900535e-02 2.2293679147838369e-01
      1.4159315149090218e-01 -1.1900925092647240e-02
      -1.9519325706380031e-01 -3.8017974606108701e-01
      8.5275792782083300e-03 1.3571430593606237e-01
      -6.3073411887884651e-02 9.5139948539524812e-03
      1.5320574954955371e-01 5.0258677736932944e-01
      -1.6189192630966923e-01 -1.3926712667768620e-01
      -8.1571438482998221e-02 -4.2297268697302981e-01
      2.0157160653425177e-01 3.8359054404567866e-01
      8.4383423310189512e-02 -2.6326491529842311e-01
      -1.3047173283377009e-01 1.0015369803384115e-01
      -1.9619375690867061e-01 -3.6496404416175166e-01
      -2.0310092260090395e-01 -7.3920240043469337e-02
      5.2523469167985691e-02 8.2720900462201971e-02
      -1.1311184232591474e-02 6.1934187670280150e-01
      -2.9444595994466475e-02 6.9940687341783256e-02
      1.4827245473767073e-01 5.1089066115052727e-02
      -2.0206087503702042e-01 -1.6308974959853384e-01
      -5.4774193886050600e-02 1.0934914662868604e-01
      1.0960576917976228e-01 7.9296107972918084e-02
      -5.4776118025718037e-02 -4.0010039704596267e-01
      3.1683517408255624e-01 1.4626909781869046e-01
      2.9053251869982238e-01 -8.2118938493093666e-02
      -2.0939144728779593e-01 -3.8644996305776352e-01
      4.6110626724680054e-01 2.4045720040068144e-01
      -2.6069169600097769e-01 8.1864455089589908e-02
      2.8261517239248057e-01 -1.7885437556292461e-01
      2.9907073959348895e-01 -1.4885148324820821e-01
      3.4004697077766516e-01 3.4619699372462903e-01
      -3.0798243860926281e-02 1.1146310835998717e-01
      2.1498167954772715e-01 -1.5836849864768504e-01
      -1.0979086871945383e-01 -1.8247370878307156e-01
      -1.1191624113841529e-01 -1.7471038505085168e-01
      -7.3399240141181932e-02 -8.1027296600190174e-02
      1.1020272022956630e-01 -4.4170262300404017e-01
      2.1990887675671097e-01 -1.5859421560986103e-01
      -2.9238796295644037e-01 -9.3147203766846154e-02
      5.1308632890314121e-01 2.6933562950839324e-01
      -1.6485134428865761e-01 -2.0633943424208892e-01
      1.9119118794908677e-01 2.1521078605047528e-01
      4.4463627274098513e-02 4.5411647443108177e-01
      2.0130486201822150e-03 -5.6124127996723290e-02
      -2.8765260773145712e-01 4.2793928084452171e-01
      4.1549267653065247e-01 -2.0456307738247176e-01
      2.5426305118786652e-01 -6.9890778837191714e-01
      -5.1099509682929567e-01 -2.2927222963766875e-01
      -6.0180429133012789e-02 2.1562292066774086e-01
      4.3832601102275692e-01 2.7124677514603757e-01
      8.6088829691400942e-02 -1.2835592451523692e-01
      -7.4511756830542814e-02 -3.2860412625468421e-01
      -3.9684051054423020e-01 8.9742295061074645e-02
      3.8937442940772027e-01 7.2219941615326508e-02
      -1.4259041379052551e-01 -2.8782991246238204e-01
      -9.4882315576017007e-02 -2.0756111207335701e-01
      1.2455399763778741e-01 -1.8809324626801216e-01
      -8.0895828471214654e-02 -3.8336681904404407e-01
      -4.0898977363457167e-01 -2.7654405596419412e-01
      3.6213493435859551e-01 1.6316732463651590e-01
      2.7428024279240781e-01 1.4670067851102983e-01
      2.4810121467672530e-01 -1.6878138101652038e-01
      1.8997965668539200e-03 -2.6527886327115402e-01
      3.6360312896641805e-01 -2.9079850206175922e-01
      1.1278903901917161e-02 1.0105434940251624e-01
      -1.6360349352444609e-01 2.5358483141452552e-02
      -2.6052283037965901e-01 -1.8870474013204394e-01
      3.2018393170197518e-01 -1.8070681683483328e-01
      2.4058474806016483e-01 1.3409420710965944e-01
      -5.5819716665794820e-02 1.5569900033388240e-01
      -2.0311524786578022e-01 -7.6106437192860574e-02
      -1.3477258828065772e-01 -8.7884748278828612e-02
      2.7696029738929817e-01 1.2325051470002213e-03
      5.9047298508018230e-02 -3.2924782610742420e-01
      -3.0415534006055195e-01 -4.1758881640515305e-02
      4.5260467056942183e-01 -1.2579438071114882e-01
      1.4341892720529820e-02 4.5458019546425121e-01
      2.1046786637125524e-02 2.7840995119289902e-01
      1.9983822973352036e-01 3.7827853966267422e-02
      2.0029173813157583e-01 2.1119374379397697e-02
      8.9350640771862597e-02 -4.8608139955801627e-02
      4.3836982591700402e-01 6.4262143651882486e-02
      -1.3240445612243754e-01 -4.1553256431481633e-01
      -3.2675361557638377e-01 1.0504635527713409e-01
      -1.4234768879960852e-01 3.4173267065983719e-02
      -3.9475437513574789e-02 7.3763154126554797e-03
      -9.6479534450913160e-02 -3.0551157388133265e-01
      -1.7421863983290337e-01 -1.5198810118556497e-01
      -2.3701377651042518e-01 2.0688307343054255e-01
      2.2380869865164499e-01 2.1823043588748692e-01
      1.4807948878624289e-01 -1.2984861379772766e-01
      -6.7717167515360069e-02 2.6303166816813345e-01
      -3.1956731301893482e-01 2.0775769399268215e-01
      -1.5467397813343020e-02 5.6753586336760098e-01
      2.6314983528062291e-01 2.7811830011767252e-01
      1.7165795658808994e-01 3.2226165474424313e-02
      3.1856410938328505e-01 -3.2603084409129551e-01
      -3.6116832967408624e-01 -1.7239905886049323e-01
      -2.7678162440922821e-01 3.4719503496448700e-01
      -1.6460551530297938e-02 3.5839317659856035e-01
      1.8710277372551520e-01 2.7409203948195238e-01
      8.3550972325340367e-02 -6.2817941981404016e-02
      -3.6113851255651440e-02 -1.8074682673561104e-01
      3.0574229410650644e-01 -1.4852452085320017e-01
      6.7402123419285337e-02 -2.4894415890871766e-01
      6.0279640235348805e-02 4.6114052684331892e-02
      1.0961745744604184e-01 -1.9086276103978003e-01
      1.1719771410483888e-01 -4.8417057550796588e-01
      -6.1240114802420566e-02 -1.4216361533915384e-01
      1.8719883518203615e-02 -2.1704595435344531e-01
      1.2011511134460292e-03 8.7131493458848033e-03
      9.3479868190826668e-02 -1.4119775094299025e-01
      -2.0228493883258136e-01 -1.7021511690936775e-01
      1.5878229067722596e-01 -1.1893361695091628e-01
      -1.9402658126188813e-01 1.7742786658294996e-01
      -1.9511782411097009e-01 -2.3645452201033554e-01
      -1.8655004778103257e-01 -1.0011942666779319e-01
      -4.1727907220763368e-02 -6.5060293955339521e-02
      2.2450099918401972e-01 -3.0243055991840928e-01
      -1.8233691607512405e-02 2.5187025584748612e-01
      -3.0651135571595746e-02 -5.4918054950083568e-02
      2.2735870306102179e-01 -2.2570823991758274e-01
      2.6613063067386228e-01 -5.7318635645638430e-03
      -2.0526474210824000e-01 -9.4466941453115585e-02
      7.1247553662673171e-02 1.3377827729739028e-01
      2.8794731571385362e-01 7.8828656322515775e-02
      -1.2876072239668493e-01 5.6844076053491510e-02
      -7.9512950769074858e-02 1.2436354463607387e-01
      7.0309806831083677e-02 2.8885344525350237e-01
      -1.3854382628600628e-01 -2.2042732047164387e-01
      1.0950475695489917e-01 -2.4262400407500156e-01
      4.2184033584466168e-01 1.5189637572907699e-01
      1.2211990541150870e-01 -2.1236127220850273e-01
      -2.2428446635918650e-01 2.5211956973597183e-02
      -2.6487852286316782e-01 -1.6989723803846515e-01
      1.5525037948521966e-01 4.7802510852673291e-01
      1.4589762658655170e-01 -2.1632671517601409e-01
      -1.2086962598656949e-01 -3.4928178601386478e-01
      1.1927680765109006e-01 -8.8388390503572212e-03
      -2.6898076730094994e-01 3.4163700088765431e-01
      1.8281917255160907e-01 -3.9305678892696686e-03
      -3.0269476518876121e-01 2.0865390168939521e-01
      -1.0145346943606345e-01 -3.6547887145156982e-01
      2.7173909656989770e-01 3.0816221455784909e-01
      9.2986346281810517e-02 -2.0451360744377983e-01
