<?xml version="1.0"?>
<opencv_storage>
<opencv_ml_svm>
  <format>3</format>
  <svmType>C_SVC</svmType>
  <kernel>
    <type>LINEAR</type></kernel>
  <C>1.0000000000000001e-01</C>
  <term_criteria><epsilon>1.1920928955078125e-07</epsilon>
    <iterations>1000</iterations></term_criteria>
  <var_count>4752</var_count>
  <class_count>2</class_count>
  <class_labels type_id="opencv-matrix">
    <rows>2</rows>
    <cols>1</cols>
    <dt>i</dt>
    <data>
      0 1</data></class_labels>
  <sv_total>1</sv_total>
  <support_vectors>
    <_>
      3.02785138e-05 1.03370367e-05 -1.34578831e-05 -2.26092980e-05
      -1.97080262e-05 -1.86644647e-05 -1.62377710e-05 -1.63451750e-05
      -1.77928741e-05 -2.36587093e-05 -2.65274630e-05 -2.06592049e-05
      -1.57708055e-05 -1.10986011e-05 -1.31613126e-06 4.59128933e-06
      6.99460770e-06 1.27126395e-05 2.46676118e-05 3.77767574e-05
      3.57410536e-05 3.30205839e-05 3.10273972e-05 3.44034997e-05
      3.64983716e-05 3.74959163e-05 3.11030199e-05 2.32130460e-05
      1.60841591e-05 9.47319131e-06 8.48154014e-06 6.40440840e-06
      -3.73299349e-06 -1.32240202e-05 -2.20790043e-05 -2.83395475e-05
      -2.77018516e-05 -2.43942050e-05 -1.67910239e-05 -2.00607919e-05
      -1.72496275e-05 -2.23623756e-05 -1.92832558e-05 -1.06599746e-05
      -1.01297574e-05 -2.03360329e-07 4.41822385e-06 4.20715565e-07
      -3.77980086e-06 -4.49751269e-06 -8.25324605e-06 -1.39678250e-05
      -7.88305897e-06 4.43047838e-06 1.35297905e-05 9.25569395e-07
      -7.00145665e-06 -9.50359936e-06 -1.70820094e-05 -2.20422298e-05
      -1.06474481e-05 -1.05146239e-06 -6.38827669e-06 -6.00264866e-06
      2.76822357e-06 1.83663324e-05 1.19590886e-05 1.51344702e-05
      1.96167130e-05 1.16114434e-05 1.50806209e-05 1.87083388e-05
      1.74442575e-05 1.70317053e-05 1.49019115e-05 1.60869240e-05
      1.88968552e-05 1.23986356e-05 6.13831526e-06 5.92383776e-06
      1.24502567e-05 1.25289162e-05 4.55216559e-06 8.45334682e-07
      3.27730777e-06 -1.78769358e-06 -6.21041863e-06 -7.45339912e-06
      -8.78303035e-06 -8.33817558e-06 -1.05216168e-05 -1.01803798e-05
      -1.02534159e-05 -1.01990245e-05 -6.04956085e-06 -1.49775212e-06
      3.75420996e-06 3.70566909e-06 1.90734295e-06 6.57691089e-07
      7.27146073e-07 -2.04038133e-06 -1.09598732e-05 -1.06206953e-05
      -1.72178279e-05 -3.00321080e-05 -2.99763669e-05 -2.73716269e-05
      -1.68341230e-05 -1.38138612e-05 -1.83250922e-05 -1.77557795e-05
      -1.01156411e-05 -3.60069862e-06 -1.29678779e-06 4.62283015e-06
      8.54017708e-06 9.27656686e-07 -5.73901661e-06 -8.32103581e-07
      5.29620320e-06 1.27567182e-05 2.70320083e-06 -7.26313874e-06
      -8.88463910e-06 -1.92323787e-05 -2.79746910e-05 -2.98829364e-05
      -3.17712038e-05 -3.31996089e-05 -4.26083352e-05 -5.01531613e-05
      -4.99215021e-05 -4.62543940e-05 -4.59196235e-05 -4.39453652e-05
      -3.77692450e-05 -3.21362422e-05 -3.22971209e-05 -2.19252761e-05
      -1.21459761e-05 -4.43185581e-06 2.73838268e-05 8.03892617e-05
      2.90015869e-05 9.10548169e-06 2.71411182e-07 -7.20261596e-06
      -1.99889164e-05 -1.96456913e-05 -1.70888070e-05 -1.84417841e-05
      -2.51129477e-05 -3.62580504e-05 -3.49327784e-05 -1.90709834e-05
      -1.27736103e-05 -5.10737937e-06 -6.85024872e-07 -2.03308127e-06
      -4.25620237e-06 -4.07160815e-06 7.42405518e-06 1.45862950e-05
      2.11219631e-05 2.60244396e-05 3.05820722e-05 2.76121427e-05
      2.09897735e-05 1.88816975e-05 1.36350272e-05 1.35500986e-05
      7.55732071e-06 2.25134045e-06 1.51569529e-05 1.21574822e-05
      -5.03408592e-06 -1.19405731e-05 -1.81720243e-05 -2.09781119e-05
      -1.32528940e-05 -1.00818615e-05 -9.37683399e-06 -6.34682419e-06
      -5.25772157e-06 -8.74201032e-06 -1.20090863e-05 -6.85241548e-06
      -3.21751872e-06 4.94210599e-06 3.41361670e-06 -2.75079674e-06
      -4.69972019e-06 -9.51360289e-06 -1.30055232e-05 -1.29715818e-05
      -9.99684926e-06 -1.66776817e-06 4.39775340e-06 1.71966497e-06
      -3.30903640e-06 -1.06927773e-05 -1.85373374e-05 -1.89923776e-05
      -5.87569184e-06 7.07300842e-06 6.33563423e-06 -7.63150354e-07
      -5.50958248e-07 1.85858516e-06 -3.67064058e-06 -7.43425289e-07
      -8.63638093e-07 -1.17779803e-06 5.96665450e-06 9.54663665e-06
      7.73080137e-06 3.47039145e-06 2.85133865e-06 1.92473431e-06
      8.14666146e-06 8.32038950e-06 -6.48166974e-07 -2.86317089e-07
      -2.18154378e-06 -9.81344328e-06 -1.39477252e-05 -1.97268782e-05
      -2.35777497e-05 -2.36501983e-05 -2.62546328e-05 -2.83477111e-05
      -2.80341737e-05 -2.61860496e-05 -2.37630229e-05 -2.48827600e-05
      -3.43106003e-05 -2.85095757e-05 -1.07483211e-05 -3.93270830e-06
      -3.17948547e-06 -2.52126779e-06 -6.93421589e-06 -1.31032502e-05
      -1.04162709e-05 -6.34175331e-06 -1.09737130e-05 -1.47613682e-05
      -1.83144439e-05 -2.49508539e-05 -2.14534030e-05 -1.38684609e-05
      -4.88271189e-06 3.70787717e-07 -4.78139611e-07 1.40022246e-06
      -2.48684319e-06 -2.74946001e-06 2.58403065e-06 3.17537410e-06
      3.18618936e-06 -3.37741852e-07 2.26283532e-06 1.29229938e-05
      1.79020190e-05 1.43373318e-05 -5.86037049e-06 -2.68960684e-05
      -3.04180794e-05 -3.04715359e-05 -2.50984085e-05 -2.64758546e-05
      -2.77044164e-05 -2.85581082e-05 -3.47061396e-05 -3.89307352e-05
      -4.28358580e-05 -5.56907326e-05 -6.37272024e-05 -6.32847514e-05
      -5.90435557e-05 -4.90152561e-05 -4.01590623e-05 -2.95097707e-05
      -1.04810824e-05 -3.37605320e-06 2.12084833e-05 7.68691098e-05
      3.82454855e-05 1.38740061e-05 4.86298359e-06 -9.00247142e-06
      -8.79722938e-06 -1.40891252e-05 -2.63585789e-05 -3.72018949e-05
      -4.21512559e-05 -4.36853588e-05 -3.68560031e-05 -2.82037709e-05
      -2.50255889e-05 -1.99572551e-05 -1.29761756e-05 -1.41007522e-05
      -1.96693236e-05 -1.76309841e-05 -8.87052101e-06 -1.15806324e-05
      -1.30552880e-05 -8.42532609e-06 5.72571389e-06 9.34105901e-06
      4.94740516e-06 -4.32892506e-07 -5.69237500e-06 -1.75070727e-05
      -2.24944906e-05 -1.96640831e-05 -2.85891792e-06 -3.94252947e-06
      8.06824744e-07 1.64395697e-05 4.22086123e-06 -1.52286093e-05
      -1.99125807e-05 -1.82948443e-05 -1.35847213e-05 -7.88081343e-06
      -5.60509943e-06 -8.42616646e-06 -9.06615060e-06 2.50154471e-06
      1.00838624e-05 1.83287502e-05 2.13705644e-05 2.07692410e-05
      2.28851168e-05 1.87598962e-05 1.19664492e-05 1.08840313e-05
      7.74687396e-06 7.49435003e-06 7.95167762e-06 1.29374905e-06
      -7.16196519e-06 -1.14632994e-05 -7.31558930e-06 -1.55872067e-06
      3.37915753e-06 5.96443078e-06 -3.00802958e-06 -9.33028423e-06
      -8.04340016e-06 -5.11610870e-06 -4.00455019e-06 3.46534125e-06
      8.31286070e-06 6.83557028e-06 4.42519604e-06 7.37915661e-06
      5.15321153e-06 1.27135245e-05 2.65032122e-05 2.40972076e-05
      1.71537704e-05 1.65850488e-05 1.32543646e-05 -1.26947884e-06
      -1.07022015e-05 -1.53857873e-05 -2.72404868e-05 -3.69352747e-05
      -3.59850455e-05 -3.38618083e-05 -3.39144681e-05 -3.22475207e-05
      -2.85710521e-05 -2.33188239e-05 -1.94827171e-05 -2.06148634e-05
      -1.89361090e-05 -4.12973532e-06 5.44669774e-06 6.37357516e-06
      1.22036017e-05 1.13910346e-05 -1.00605876e-05 -2.07015255e-05
      -1.57724317e-05 -1.18138596e-05 -1.61949411e-05 -1.89247603e-05
      -2.03942836e-05 -2.57575048e-05 -1.71575521e-05 3.08502626e-06
      2.25141366e-06 4.56508451e-06 1.39490601e-06 -5.53127347e-06
      -2.32305629e-05 -2.21309201e-05 -1.96343135e-05 -1.68710721e-05
      -5.72080035e-06 -2.70104988e-06 -3.33262665e-06 -7.17566172e-06
      -1.14789100e-05 -1.35069276e-05 -2.09539212e-05 -8.66609116e-06
      6.47363095e-06 1.42915860e-05 1.72405544e-05 1.20325294e-05
      4.82067207e-06 2.40767849e-06 -3.12248153e-06 -1.10544070e-05
      -1.46487027e-05 -2.29914403e-05 -3.47010500e-05 -4.18050586e-05
      -4.68344879e-05 -4.12518930e-05 -2.44711810e-05 -2.07240300e-05
      -1.48229446e-05 -1.32060341e-05 1.31811767e-05 7.56223671e-05
      3.83002043e-05 1.22579168e-05 -1.84223472e-06 -1.44171527e-05
      -1.85520730e-05 -1.14232344e-05 -1.71761337e-06 -3.09571965e-06
      -8.50838296e-06 -1.07897586e-05 -1.45485001e-05 -2.38484317e-05
      -2.42600563e-05 -1.77204056e-05 -8.61736498e-06 -8.60648925e-06
      -2.12207360e-05 -1.85744393e-05 -2.68112899e-06 2.09703876e-06
      -2.18030686e-06 -9.28435293e-06 -7.24006259e-06 -7.00279179e-06
      -7.29044632e-06 -5.22167875e-06 -1.39007998e-05 -2.56881885e-05
      -3.86778011e-05 -4.33681853e-05 -3.17601844e-05 -2.57812881e-05
      -1.47244082e-05 8.94457753e-06 1.69704726e-05 2.42479746e-05
      3.09113966e-05 3.06326838e-05 2.36300730e-05 1.59234914e-05
      1.30934332e-05 5.65855271e-06 6.59421630e-06 1.64955891e-05
      2.25042240e-05 2.66280986e-05 2.56248313e-05 2.01050898e-05
      1.26912792e-05 1.34000475e-05 1.86397683e-05 2.30044334e-05
      1.32253799e-05 2.52431460e-06 -3.62330098e-07 3.28852070e-06
      -1.48309471e-06 -3.53863288e-06 -8.51234927e-06 -1.35661685e-05
      -1.38025780e-05 -1.47313485e-05 -2.07796056e-05 -2.14228912e-05
      -1.27751791e-05 -9.40631617e-06 -8.33274316e-06 -8.83087250e-06
      -8.33531521e-06 -1.47234750e-05 -9.64523770e-06 -6.80776566e-06
      6.44679994e-06 1.90604696e-05 2.26597131e-05 1.98613616e-05
      1.43552816e-05 1.58008170e-05 8.74522266e-06 -4.38485631e-06
      -1.31421630e-05 -2.16055778e-05 -3.32004929e-05 -3.42634994e-05
      -2.93025969e-05 -2.38911052e-05 -1.65072688e-05 -7.04405375e-06
      3.26256122e-06 4.99526550e-06 5.39836037e-06 5.07072809e-06
      1.91635190e-05 2.03949912e-05 1.31567231e-05 4.75138268e-06
      9.01732255e-06 1.21520243e-05 -9.90446210e-07 -5.54029248e-06
      1.62535162e-06 2.62903586e-06 2.22031940e-06 7.33937441e-06
      9.09305254e-06 1.57057639e-05 2.82702895e-05 4.16593721e-05
      4.14295937e-05 3.71107999e-05 3.42119347e-05 2.58509626e-05
      9.75198691e-06 -1.27942405e-06 -4.28278327e-06 -2.20724883e-06
      3.16715023e-06 -5.16897580e-06 -1.60496056e-05 -8.81511551e-06
      6.43064880e-07 4.95880795e-06 1.41507817e-05 1.71263891e-05
      2.15092659e-05 2.76893697e-05 2.34600357e-05 1.86133329e-05
      2.16094340e-05 2.77394411e-05 2.23181778e-05 1.87888236e-05
      1.22553383e-05 9.78984099e-06 6.48604146e-06 -1.14109855e-06
      -1.44255764e-05 -3.14280842e-05 -2.54435927e-05 -9.90732588e-06
      -1.42190061e-06 -1.11864301e-06 1.59678511e-05 7.65158402e-05
      1.90095398e-05 -8.38831693e-06 -1.65310285e-05 -2.61435962e-05
      -2.86839822e-05 -1.03245929e-06 7.85472275e-06 1.25264760e-05
      1.80978477e-05 2.86950708e-05 2.43342038e-05 -5.74756223e-06
      -1.70501953e-05 -1.60563595e-05 -1.05452709e-05 -8.75632122e-06
      -4.70383611e-06 1.06906919e-05 2.30244586e-05 2.23981151e-05
      3.57551698e-06 -1.37005054e-05 -1.58010098e-05 -1.24713924e-05
      -9.66926655e-06 -1.14038903e-05 -2.18566274e-05 -2.33030914e-05
      -2.17202723e-05 -2.59525386e-05 -1.13713886e-05 1.02232643e-05
      2.08751135e-05 3.80106867e-05 3.99402597e-05 3.80771598e-05
      4.00923745e-05 4.21076656e-05 3.65836313e-05 2.96601429e-05
      2.17870420e-05 1.76754820e-05 -9.39458096e-06 -7.73738066e-06
      -4.19970957e-06 -2.90172511e-06 3.56736859e-06 4.16805642e-06
      6.28657872e-08 7.36175878e-07 7.08853213e-06 8.49721437e-06
      1.06304742e-05 1.80512725e-05 1.24850967e-05 -7.07663901e-07
      -9.37362165e-06 -1.16026977e-05 -1.46056664e-05 -1.62724064e-05
      -2.17896886e-05 -2.14484880e-05 -1.96306446e-05 -1.06447724e-05
      -7.13987447e-06 -1.74790512e-05 -1.95646935e-05 -1.81446721e-05
      -2.41026464e-05 -3.63521067e-05 -2.55904615e-05 -7.94951302e-06
      -5.35213303e-07 3.90496916e-06 6.38808660e-06 7.96941094e-06
      3.06250422e-06 -1.09358971e-05 -1.24479466e-05 -9.26937901e-06
      -1.14221739e-05 -1.15816547e-05 -2.27328746e-05 -2.66037932e-05
      -1.91537529e-05 -7.88035777e-06 -4.80245944e-07 2.21830965e-06
      5.64433913e-06 8.88931118e-06 2.67978266e-05 3.55492666e-05
      3.77324941e-05 4.03410777e-05 3.34863362e-05 1.72982218e-05
      6.43443718e-06 -3.16665250e-06 1.92230971e-07 6.50397487e-06
      2.94176425e-06 -3.13657119e-06 -1.19995471e-08 1.05732533e-05
      2.71533900e-05 3.69369882e-05 5.40468754e-05 6.80947487e-05
      6.18265767e-05 5.85396010e-05 4.85311393e-05 2.94255824e-05
      8.14883788e-06 -3.95997768e-06 -3.68366091e-06 -7.58362421e-06
      -4.78948596e-06 -5.13662826e-07 -5.03085721e-06 -1.16188749e-05
      -1.09444663e-05 -1.19268143e-05 -1.09724360e-05 -1.14166151e-05
      -5.83966539e-06 1.26426585e-05 7.79215407e-06 -2.80719132e-06
      -4.54205474e-06 2.08303777e-06 2.19890194e-06 2.68244958e-06
      3.10880023e-06 -8.90178114e-07 -9.83726386e-06 -2.01215880e-05
      -4.30109467e-05 -5.96565405e-05 -5.11343133e-05 -2.16270309e-05
      -7.67409256e-06 9.74815430e-06 2.88912797e-05 9.14754492e-05
      1.15285929e-05 -1.76052235e-05 -2.83660702e-05 -3.39564867e-05
      -3.40936094e-05 -7.77325022e-06 7.32464696e-06 1.25389333e-05
      2.50434277e-05 3.75678974e-05 2.90920634e-05 -3.28063948e-07
      -1.81057185e-05 -2.85713431e-05 -2.75125967e-05 -2.97384249e-05
      -2.29551679e-05 -4.74335366e-06 -1.56099702e-06 1.27623789e-05
      1.30359413e-05 -2.54898578e-06 -2.19833128e-05 -3.37571291e-05
      -3.28705064e-05 -1.93896376e-05 -2.56668318e-05 -2.20753172e-05
      -1.54295267e-05 -3.88093622e-06 2.11282986e-05 1.86368252e-05
      1.03177208e-05 2.83653717e-05 3.52944371e-05 3.53269243e-05
      3.80620841e-05 3.95423413e-05 3.36195226e-05 2.63227084e-05
      2.29595207e-05 1.91178951e-05 -2.37100880e-06 6.72413580e-06
      -1.44092528e-05 -2.39547680e-05 -2.02617503e-05 -1.94072909e-05
      -3.08099334e-05 -2.59460303e-05 -1.36832250e-05 5.40301153e-06
      7.46241130e-06 1.30415237e-05 1.46448692e-05 -5.06090510e-06
      -2.22507842e-05 -3.12496741e-05 -3.04494934e-05 -2.59515418e-05
      -1.84113942e-05 -1.34684960e-05 -1.90561987e-05 -2.64773043e-05
      -2.61035384e-05 -2.91402157e-05 -4.80746166e-05 -5.38124550e-05
      -4.76830974e-05 -4.51353699e-05 -3.16165424e-05 -2.29675552e-05
      -1.65404927e-05 -7.46324440e-06 4.18357513e-06 3.69127838e-06
      -1.02503429e-06 -1.12210705e-06 -9.63039747e-06 -2.09196933e-05
      -2.11600909e-05 -2.85289625e-05 -2.45954034e-05 -1.44290516e-05
      1.25877807e-06 6.56574821e-06 1.56282658e-05 1.41299379e-05
      1.93461856e-05 3.68531582e-05 3.15196594e-05 1.10718738e-05
      4.62221124e-06 8.23805385e-06 2.22998369e-06 -1.31717188e-05
      -1.89769867e-06 6.10348616e-06 9.22395157e-06 4.44813395e-06
      -1.38554233e-05 -2.61317964e-05 -3.49378643e-05 -2.29642446e-05
      -2.44346438e-06 2.04366715e-05 3.70566559e-05 4.55233530e-05
      4.29817192e-05 4.14342794e-05 2.98553550e-05 3.25545125e-06
      -2.56534859e-05 -3.51221170e-05 -3.73262919e-05 -3.60952472e-05
      -3.10248979e-05 -1.36048857e-05 -6.29153055e-06 -1.66047012e-05
      -3.00825036e-06 -3.05603244e-05 -3.80856545e-05 -3.38731479e-05
      -2.60172274e-05 -2.55708364e-05 -1.92924817e-05 -2.06406494e-05
      -1.60588370e-05 -6.22714697e-06 -9.80360824e-07 5.38050881e-06
      2.49804489e-05 2.76943174e-05 -1.26714458e-05 -2.21517421e-05
      -3.14765239e-05 -5.43090318e-05 -7.18111332e-05 -3.91133726e-05
      -2.51329839e-05 -1.12069574e-05 7.27600218e-06 8.27292897e-05
      3.27420094e-05 8.76576536e-08 -1.96134588e-05 -2.06974837e-05
      -4.16259809e-06 1.67887683e-05 2.91814140e-05 4.67492791e-05
      5.09673664e-05 5.55505067e-05 4.77466783e-05 1.13647293e-05
      -1.49604448e-05 -1.31912457e-05 -2.02718620e-05 -3.64384505e-05
      -3.48225367e-05 -3.42686835e-05 -1.59703486e-05 7.62780655e-06
      1.08375762e-05 7.94199195e-07 -1.57111990e-05 -3.87043547e-05
      -3.82178623e-05 -2.48396173e-05 -3.71079150e-05 -3.64251027e-05
      -2.13975673e-05 -1.68976094e-05 -1.00683274e-05 -1.83756456e-05
      -1.27909707e-05 2.26500142e-05 3.73236726e-05 3.52164097e-05
      2.95675309e-05 2.44697912e-05 1.74334000e-05 1.17239524e-05
      2.34144409e-05 3.76792705e-05 1.37339930e-05 1.21122985e-05
      -4.52786708e-06 -2.26632255e-05 -2.07819357e-05 -1.78096780e-05
      -1.67135549e-05 -1.22486417e-05 -2.07443486e-06 5.78128947e-06
      1.14767397e-06 1.26240429e-05 1.60248201e-05 7.61549109e-06
      -8.85109239e-06 -2.05918768e-05 -2.09624031e-05 -1.25340530e-05
      -9.00757823e-06 -2.45741217e-06 -2.60968335e-07 2.33531455e-06
      -1.43357884e-05 -3.08141098e-05 -4.94653723e-05 -5.90799791e-05
      -3.54260301e-05 -3.32834934e-05 -2.32559378e-05 -1.64944649e-05
      -1.26434743e-05 6.97608812e-06 1.40791444e-05 2.30164642e-05
      3.45939516e-05 3.93194132e-05 2.86231316e-05 3.34058532e-05
      2.75430975e-05 9.54554253e-06 5.97475810e-06 2.28972622e-05
      1.59525025e-05 7.42880457e-06 1.34216352e-05 1.54302834e-05
      3.58100951e-05 2.16368444e-05 -8.56240422e-06 -1.19843207e-05
      -1.11240051e-05 -1.28701913e-05 -1.16695110e-05 2.03826244e-06
      5.29029649e-06 5.91987327e-06 1.26489776e-05 1.21769233e-06
      -1.48831550e-05 -2.66425559e-05 -2.11228089e-05 -1.11282097e-05
      2.73313672e-05 4.35007350e-05 5.21509064e-05 6.89277076e-05
      6.31925213e-05 5.72230565e-05 5.65817427e-05 2.69038937e-05
      -1.51584563e-05 -3.55480952e-05 -4.42606215e-05 -4.58911818e-05
      -4.80295785e-05 -3.17648701e-05 -2.75733128e-05 -3.34179604e-05
      -1.43311054e-05 -3.16975347e-05 -3.03301531e-05 -1.96002457e-05
      -1.08201812e-05 -2.35489988e-05 -7.22162213e-06 -1.11595555e-05
      -6.55582880e-06 1.37369789e-05 3.25632609e-05 3.58205762e-05
      5.05691678e-05 5.19382775e-05 1.29552109e-05 1.41310773e-06
      -1.26250588e-05 -3.31358642e-05 -6.88734071e-05 -5.98702245e-05
      -5.29676763e-05 -4.35705588e-05 -1.44098194e-05 6.42882951e-05
      2.28466306e-05 -3.10881251e-06 -1.07115784e-05 -6.60550040e-06
      4.68813141e-06 1.93257656e-05 3.80582969e-05 3.89417401e-05
      4.13879243e-05 6.12448566e-05 6.80137018e-05 2.86973773e-05
      -4.94295728e-06 -4.76604600e-06 -9.51797574e-07 -8.08455979e-07
      -1.42148360e-06 -7.89592013e-06 1.83099837e-06 1.46973280e-05
      2.16559256e-05 2.52401969e-05 1.35673972e-05 -6.65973994e-06
      -1.33792264e-05 -6.14453302e-06 -1.98957059e-05 -2.45512310e-05
      -2.65114159e-05 -5.15510073e-05 -4.13384259e-05 -3.47558744e-05
      -2.11047882e-05 -1.88186334e-06 1.26905516e-05 8.42230565e-06
      3.17108288e-06 -7.00441660e-08 -1.41220307e-05 -2.02374995e-05
      -1.46821424e-06 1.98022735e-05 2.43073828e-05 4.20509205e-05
      4.37801573e-05 2.92151653e-05 2.44811654e-05 2.27948694e-05
      1.62160595e-05 -1.81207713e-06 -9.14461270e-06 -1.09420034e-05
      9.62746890e-06 2.66476072e-05 2.74318318e-05 8.96319580e-06
      -3.25975407e-07 -9.83055179e-06 -1.26966634e-05 1.62906622e-06
      6.18389276e-06 1.22295196e-05 6.01287638e-06 3.02705212e-06
      4.72571628e-06 -1.32411260e-05 -3.67171924e-05 -3.33049320e-05
      -7.26094731e-06 -1.69213126e-05 -1.19234419e-05 3.83120732e-06
      2.46825221e-05 1.74870274e-05 1.90362771e-05 2.55998530e-05
      4.20423348e-05 4.87116522e-05 3.56765013e-05 4.32568886e-05
      4.32633751e-05 4.43056306e-05 5.16027249e-05 7.69311882e-05
      5.60924600e-05 2.64036789e-05 2.48098477e-05 3.45846311e-05
      1.48556401e-05 -2.01094153e-05 -2.27101827e-05 -1.24267162e-05
      -2.20407310e-05 -2.35824227e-05 4.06138906e-06 2.76783448e-05
      1.74135184e-05 -1.18139246e-06 -6.31342073e-06 1.51206962e-06
      -6.21253503e-06 -2.34031886e-05 -1.51735130e-05 -8.02050363e-06
      1.20537079e-05 -3.50742120e-08 7.37170126e-07 1.75662008e-05
      2.67362757e-05 2.89557393e-05 2.16567878e-05 1.36974713e-05
      -1.97982035e-06 -1.46335351e-05 -3.49926668e-05 -5.07316508e-05
      -6.96396601e-05 -4.73538421e-05 -3.63392282e-05 -4.20548349e-05
      -2.45006049e-05 -4.18705531e-05 -3.74807751e-05 -3.24167704e-05
      -1.76280155e-05 -1.75570312e-05 -7.59920397e-07 -7.15149190e-06
      -2.42470355e-06 1.27526055e-05 2.98403775e-05 4.27721752e-05
      6.80173325e-05 6.87860083e-05 3.44083383e-05 3.27363014e-05
      2.08761157e-05 -6.35383276e-06 -4.78408256e-05 -3.92327092e-05
      -6.25666871e-05 -6.56867269e-05 -4.20056203e-05 3.37768543e-05
      2.11969145e-05 -1.31416539e-06 -1.32348850e-05 -1.62198685e-05
      -1.17712871e-05 2.24920791e-06 3.27662610e-06 1.13493343e-05
      1.79210347e-05 3.77232864e-05 3.80228958e-05 5.97378084e-06
      -1.65242691e-05 -2.11348979e-05 -2.72693205e-06 3.50391747e-06
      8.94043933e-06 9.46590444e-06 2.99208205e-05 3.42739368e-05
      2.54793231e-05 6.28655289e-06 1.14880077e-05 3.23228733e-06
      -1.29912787e-05 -6.87416605e-06 -9.61707337e-06 -1.60928575e-05
      -3.50090813e-05 -4.17533738e-05 -2.75470920e-05 -1.54703357e-05
      -1.08336772e-05 -1.97992949e-06 2.50415656e-06 -2.92129789e-06
      -1.39507756e-06 -3.83846236e-06 -1.78994997e-05 -2.20963848e-05
      -5.15830288e-06 1.58230068e-05 1.46540824e-05 3.40028528e-05
      4.86126155e-05 5.37994893e-05 4.17389638e-05 3.95483548e-05
      2.68047406e-05 -9.68750828e-06 -2.93310404e-06 3.40349311e-06
      1.38596324e-05 6.54906216e-06 5.76281479e-07 -4.56879798e-06
      5.09263646e-06 -1.42862100e-05 -3.16212136e-05 -2.93620196e-05
      -2.25147433e-05 -9.90221815e-06 4.72349399e-07 3.16336440e-07
      -4.33262630e-06 8.68080042e-06 8.10452821e-06 -3.50340906e-06
      8.47157571e-06 -9.25384484e-07 1.16900028e-05 2.92451623e-05
      2.96361632e-05 3.53349496e-05 3.27551134e-05 1.99419082e-05
      1.92498410e-05 8.09927133e-06 2.63677430e-06 1.13366423e-05
      2.24210307e-05 3.52963980e-05 5.35353720e-05 7.62887430e-05
      5.14611238e-05 3.26889967e-05 3.10747309e-05 3.55629982e-06
      -4.22274970e-05 -4.52436107e-05 -3.20773506e-05 -2.44265721e-05
      -2.52207010e-05 -5.28994178e-07 3.69508016e-05 4.06606341e-05
      2.49198638e-05 1.44157693e-05 1.92654697e-05 4.45339028e-05
      4.49732906e-05 2.22698527e-05 1.74258112e-05 1.30303106e-05
      1.99738988e-05 3.54013650e-06 1.61512671e-05 3.61909515e-05
      3.96874384e-05 4.23759593e-05 2.91959896e-05 1.24018261e-05
      -1.76621086e-06 -3.85304656e-06 -8.80428797e-06 -2.88626561e-05
      -5.15959364e-05 -3.96618962e-05 -3.30054245e-05 -3.66066888e-05
      -1.68517545e-05 -3.06344918e-05 -2.54477727e-05 -1.05004328e-05
      4.32360548e-06 1.46465627e-05 3.37852980e-05 2.90167955e-05
      2.59386616e-05 3.16941405e-05 4.63850483e-05 4.94500746e-05
      6.91855967e-05 6.76304480e-05 4.94127598e-05 5.40692854e-05
      4.28551102e-05 2.66999632e-06 -3.83244624e-05 -3.55950833e-05
      -6.12671429e-05 -6.77964563e-05 -5.59114451e-05 2.04611206e-05
      2.40296213e-05 3.20141498e-06 -1.35758137e-05 -3.09324787e-05
      -3.99226301e-05 -4.39368232e-05 -3.74393494e-05 -1.18331236e-05
      7.16942031e-06 2.44670300e-05 1.35567816e-05 -4.16635248e-06
      -2.08104411e-05 -2.19128542e-05 -2.02684241e-05 -7.07969093e-06
      -3.21704010e-06 -7.91331331e-06 1.18616308e-05 2.27684759e-05
      -5.73328919e-07 -2.19681297e-05 -3.32114287e-05 -2.41183843e-05
      -3.85206586e-05 -2.36036467e-05 -9.97816915e-06 -9.67334199e-06
      -1.62664219e-05 -1.00726193e-05 -5.63726826e-06 5.93568029e-06
      2.40071608e-06 3.74541378e-05 3.72510585e-05 2.18884998e-05
      9.15738747e-06 1.19451613e-06 -2.84850357e-05 -4.81646275e-05
      -3.35783006e-05 -8.77202001e-06 -1.37252518e-05 6.49943240e-06
      2.85996211e-05 4.95455788e-05 4.48802857e-05 5.15545908e-05
      3.49069960e-05 6.31665216e-06 -5.64370748e-06 -3.83125871e-06
      -4.71963716e-07 1.01742462e-05 2.48271135e-05 3.90582209e-05
      4.05017599e-05 2.79155138e-05 1.42179006e-05 6.98876818e-07
      -2.25109088e-05 -2.53751186e-05 -1.06447051e-05 -3.67623852e-06
      -8.33901049e-06 -9.21644551e-06 2.48861375e-06 -7.78784033e-06
      1.00132611e-05 7.29644535e-06 2.97885690e-05 3.48787653e-05
      3.64869302e-05 3.36339835e-05 1.72519631e-05 -9.59789122e-06
      -2.43555296e-05 -3.13888813e-05 -3.84240630e-05 -2.66744573e-05
      -2.95463360e-05 -1.62498345e-05 3.25595693e-06 3.26528570e-05
      3.21031839e-05 2.95540176e-05 1.13847373e-05 -3.94095550e-05
      -4.51108826e-05 -3.64141633e-05 -3.85680323e-05 -3.56017772e-05
      -5.64955917e-06 1.46167413e-05 2.12688210e-05 7.24640540e-06
      -1.63491623e-05 -1.41126757e-05 1.17777417e-05 5.01053219e-05
      4.72256979e-05 7.92068568e-06 -7.69469625e-06 -1.93542583e-05
      -1.64022003e-05 -2.30859405e-05 1.68426402e-06 2.77906292e-05
      3.59810219e-05 2.86369759e-05 2.11005699e-05 -5.72476756e-06
      -7.81724702e-06 -1.15790317e-06 1.47343360e-06 -4.44425041e-07
      1.09300593e-07 -1.92662355e-05 -2.78184125e-05 -3.12228804e-05
      -2.34838171e-05 -4.47098537e-05 -3.32891505e-05 -1.28995580e-05
      -1.13257926e-07 1.09596003e-05 4.49939434e-05 4.97605251e-05
      4.21314144e-05 4.56309535e-05 5.90305135e-05 6.08342125e-05
      8.97065693e-05 9.20522652e-05 6.02231012e-05 5.65835544e-05
      4.44601428e-05 -7.78346475e-07 -4.23744968e-05 -3.75345480e-05
      -6.09220187e-05 -7.07191211e-05 -5.93425902e-05 1.87189453e-05
      1.91622566e-05 -4.45561500e-06 -2.11933511e-05 -4.12068475e-05
      -4.72746979e-05 -6.24590684e-05 -5.47980962e-05 -3.59013611e-05
      -1.96411329e-05 7.66821722e-06 1.35426671e-05 4.95079303e-06
      -1.02827835e-05 -2.30323840e-05 -3.32013624e-05 -2.85710266e-05
      -1.52296589e-05 2.69927841e-06 -5.11385588e-06 -1.03366324e-06
      -4.84638622e-06 -2.41776906e-05 -4.24386708e-05 -2.97619936e-05
      -4.97352048e-05 -3.56003038e-05 -1.76095054e-05 -1.06693560e-05
      -2.06799928e-06 1.19711158e-05 1.57534269e-05 2.37072472e-05
      3.44673426e-05 4.82533760e-05 1.62104188e-05 -1.68708914e-06
      -8.71365683e-06 -1.13253773e-05 -3.11676740e-05 -6.22292428e-05
      -6.92021713e-05 -3.62428109e-05 -2.60213001e-05 -2.06850473e-05
      -1.33495705e-05 2.18992827e-05 4.46840058e-05 6.69677975e-05
      4.04873754e-05 2.54915740e-05 1.06825146e-05 -1.81318489e-06
      -1.06018115e-05 6.15171939e-06 1.03586435e-05 1.88785350e-06
      -3.11831354e-06 5.36203004e-07 -3.28161263e-06 -1.13774095e-05
      -3.09389143e-05 -5.15531501e-05 -4.59784897e-05 -4.14194838e-05
      -4.48304636e-05 -4.27762061e-05 -3.00598531e-05 -3.15309444e-05
      -2.12986197e-05 -8.04809406e-06 1.41177143e-05 3.11628246e-05
      2.93913363e-05 1.49861398e-05 -1.50175074e-05 -3.43235333e-05
      -4.02471924e-05 -4.29428510e-05 -5.39131834e-05 -3.96780597e-05
      -4.41742341e-05 -2.94080601e-05 -1.82555395e-05 7.45347506e-07
      1.92517691e-05 4.59248349e-06 -1.64293178e-05 -4.84873199e-05
      -4.21885597e-05 -3.94716299e-05 -4.76629066e-05 -2.15699583e-05
      1.43169009e-05 6.66199594e-06 4.55116742e-06 -1.97051122e-05
      -3.73761177e-05 -2.78084281e-05 -6.83008648e-06 2.65736307e-05
      3.37732054e-05 -4.25510592e-07 -3.43215870e-05 -5.84399932e-05
      -4.99172966e-05 -4.94789056e-05 -1.91956333e-05 9.21118590e-06
      1.68759998e-05 1.49889402e-05 -6.65855623e-06 -3.60581107e-05
      -2.70880228e-05 -1.05761583e-05 -2.69002430e-06 2.17090019e-05
      2.40958780e-05 -2.19033063e-05 -2.48666838e-05 -2.48864526e-05
      -2.27374221e-05 -4.59918629e-05 -3.76831485e-05 -2.40296140e-05
      -6.90224670e-06 4.81877896e-06 2.47986627e-05 2.30605001e-05
      2.45940046e-05 3.43993197e-05 4.05461906e-05 4.24728860e-05
      6.96653951e-05 8.14911691e-05 6.31569055e-05 6.25662942e-05
      3.45280569e-05 -8.46417697e-06 -4.42516794e-05 -4.11570909e-05
      -6.35330362e-05 -7.41618423e-05 -5.80796113e-05 2.78050302e-05
      1.86182879e-05 -9.33440424e-06 -2.47540011e-05 -3.83028128e-05
      -5.49779179e-05 -5.90721902e-05 -5.06982105e-05 -1.82929343e-05
      1.44129290e-05 4.43963945e-05 3.81907194e-05 2.62666435e-05
      2.15094788e-05 1.52286957e-05 1.90242275e-08 -6.30642126e-06
      -4.30879982e-06 7.70478437e-06 -9.03202817e-06 1.91863069e-06
      2.02047545e-06 -2.07576813e-05 -3.98711418e-05 -3.83835504e-05
      -4.71558451e-05 -3.45914959e-05 -2.04102525e-05 -5.22228038e-06
      1.18220314e-05 3.42969724e-05 3.34759934e-05 3.47429159e-05
      3.83953302e-05 4.04827551e-05 1.09425828e-05 -4.13233920e-06
      -8.31447778e-06 -5.66020981e-06 -1.93549640e-05 -3.99387536e-05
      -5.60163608e-05 -4.26045663e-05 -3.76860226e-05 -3.48078502e-05
      -3.16181759e-05 1.58172606e-05 3.97200020e-05 5.99599662e-05
      2.90335302e-05 2.00400445e-05 1.37976467e-05 -3.37306824e-06
      -1.75534788e-05 1.07907033e-06 -1.12180896e-05 -2.13973653e-05
      -9.54377174e-06 -1.54987374e-05 -1.32761006e-05 -8.98000599e-06
      -3.56851779e-05 -5.73079233e-05 -4.70946216e-05 -4.95404965e-05
      -5.21136608e-05 -5.54907456e-05 -4.60640695e-05 -3.90944297e-05
      -2.67035593e-05 -2.74318136e-05 -1.39416818e-06 1.96950496e-05
      1.84892415e-05 -3.65834990e-06 -4.49044419e-05 -5.40247202e-05
      -5.05858079e-05 -5.03150841e-05 -5.28995915e-05 -3.66189888e-05
      -2.94918282e-05 -1.55666967e-05 -1.00217621e-05 -1.09262746e-05
      -2.91242623e-06 -8.24684321e-06 -1.31096385e-05 -3.23271088e-05
      -2.48373617e-05 -2.53453600e-05 -2.29004690e-05 2.41659473e-06
      -4.67636227e-07 -9.90732406e-06 -1.35163464e-05 -3.26105182e-05
      -4.02584556e-05 -2.27856090e-05 -7.09753022e-06 1.87428450e-05
      2.59895332e-05 -2.71542626e-06 -3.50674090e-05 -5.51120138e-05
      -4.60477386e-05 -4.77274407e-05 -1.65647507e-05 1.29418395e-05
      9.11088136e-06 -1.69100440e-05 -3.24857647e-05 -4.60317751e-05
      -3.35332588e-05 -1.54805530e-05 5.23214521e-06 2.88364354e-05
      6.09114352e-07 -4.53946086e-05 -4.88349033e-05 -4.41079210e-05
      -3.06829206e-05 -4.37849703e-05 -3.20624495e-05 -1.24324333e-05
      3.70122741e-08 -4.50994230e-06 7.24574102e-06 -6.96918335e-07
      2.40027157e-06 1.44050191e-05 1.20152908e-05 2.00060913e-05
      5.45425974e-05 7.82730640e-05 6.33524760e-05 5.90467425e-05
      3.83107144e-05 1.82031704e-06 -4.02171027e-05 -3.39312974e-05
      -6.31537405e-05 -7.75319349e-05 -6.00215280e-05 4.73661967e-05
      6.77205298e-06 -2.10267644e-05 -2.76077299e-05 -3.56658202e-05
      -4.92378858e-05 -4.40696786e-05 -2.99913245e-05 8.25183088e-06
      4.02926125e-05 6.89548324e-05 5.76178245e-05 4.39997239e-05
      3.85812236e-05 2.70761357e-05 1.71274205e-05 1.12432417e-05
      1.22188503e-05 7.89212663e-06 -1.27078033e-06 9.14914290e-06
      -1.22361826e-06 -2.26582160e-05 -3.93323535e-05 -4.28635212e-05
      -4.53274079e-05 -2.67577507e-05 -1.17428026e-05 2.58333694e-06
      2.44341354e-05 4.64012555e-05 4.05039900e-05 3.73856819e-05
      3.18569146e-05 2.87105904e-05 -5.11097733e-06 -2.93144167e-05
      -3.37323982e-05 -1.53228011e-05 -1.87928526e-05 -2.33998271e-05
      -3.81069913e-05 -8.51463392e-06 -1.34045504e-05 -1.08092017e-05
      -1.88779868e-05 2.69915545e-05 3.18957682e-05 4.56674170e-05
      1.38992982e-05 1.46578705e-05 2.55209579e-05 3.70398197e-06
      -2.41625894e-05 -4.38897814e-06 -1.06229254e-05 -1.70330713e-05
      -1.68017996e-05 -1.95990215e-05 -1.77431557e-05 -1.55030521e-05
      -3.48580579e-05 -5.28764031e-05 -5.14235398e-05 -5.14830790e-05
      -4.77573849e-05 -6.38733181e-05 -5.53187419e-05 -4.63744218e-05
      -3.86929605e-05 -4.31866865e-05 -1.35022392e-05 1.43637772e-05
      1.53495967e-05 -6.44754027e-06 -4.48251958e-05 -5.34896935e-05
      -5.17921071e-05 -5.19927817e-05 -4.76937821e-05 -2.56884778e-05
      -1.44708865e-05 -7.06283799e-06 -4.07727521e-06 3.05587992e-06
      -2.10703661e-06 -2.56903559e-06 -1.88493641e-06 -1.99695623e-05
      -1.32899695e-05 4.96774328e-06 2.88387855e-05 2.73911282e-05
      1.30085109e-05 -7.60447438e-06 -1.98914604e-05 -3.41293016e-05
      -4.19238750e-05 -2.12105588e-05 -2.02674528e-06 2.97243769e-05
      3.53988289e-05 6.54107862e-06 -2.00201939e-05 -4.78294351e-05
      -3.79159137e-05 -2.37178319e-05 3.39474968e-06 2.47765947e-05
      1.71378288e-05 -2.06524455e-05 -3.44379623e-05 -5.03514457e-05
      -4.06250219e-05 -7.38011340e-06 3.13660858e-05 1.57327722e-05
      -1.76352842e-05 -4.32880079e-05 -4.39471805e-05 -4.57403185e-05
      -2.52879308e-05 -3.32912714e-05 -1.77648781e-05 -1.54129066e-05
      -1.17844966e-05 -9.83986683e-06 -1.42238332e-06 -1.58975890e-05
      -1.35183582e-05 -1.03668181e-05 -4.42155397e-06 4.99085627e-06
      5.37415617e-05 8.56778788e-05 7.29187013e-05 6.78480574e-05
      5.06093857e-05 7.79517450e-06 -2.23512052e-05 -1.50229753e-05
      -4.43718418e-05 -6.37001212e-05 -5.85326852e-05 4.94654923e-05
      6.30579461e-06 -2.55486284e-05 -2.91083452e-05 -3.62177489e-05
      -5.03611336e-05 -3.71325186e-05 -1.96601195e-05 2.27390901e-05
      5.66271592e-05 8.03406292e-05 7.18230367e-05 5.56431551e-05
      4.92781546e-05 3.60283339e-05 2.44335242e-05 2.90363532e-05
      2.61628466e-05 2.13367512e-05 1.37724182e-05 2.01926723e-05
      1.00070247e-05 -2.28401732e-05 -5.05029020e-05 -5.98986808e-05
      -6.49876310e-05 -3.36264529e-05 -1.15895191e-05 3.36518633e-06
      3.20144427e-05 4.84480552e-05 4.73506771e-05 4.76035566e-05
      5.29721001e-05 4.74291955e-05 2.59099197e-05 -8.96157815e-07
      -1.10760921e-05 4.71150884e-07 -1.39159692e-06 -5.24777306e-06
      -1.54870504e-05 8.15476233e-06 -3.92604261e-06 -1.06894458e-05
      -1.55424859e-05 1.89625480e-05 3.26592635e-05 4.46871964e-05
      1.89751863e-05 1.51672712e-05 2.28500303e-05 1.11114487e-05
      -8.42502141e-06 5.67170764e-06 9.21382161e-06 -4.54936708e-06
      -1.18779826e-05 -1.79733324e-05 -1.48054278e-05 -7.74290402e-06
      -1.98015605e-05 -4.55818154e-05 -4.44053730e-05 -3.78851073e-05
      -4.75960551e-05 -6.23487140e-05 -5.20775757e-05 -5.26501208e-05
      -4.75616653e-05 -3.28958486e-05 1.03315397e-05 3.53843861e-05
      3.99382734e-05 2.56192634e-05 -1.51535751e-05 -4.21184268e-05
      -4.47269849e-05 -3.58307807e-05 -2.57631891e-05 -1.04105648e-05
      -3.74460637e-06 7.43571627e-06 9.78965454e-06 9.38170979e-06
      1.83477857e-06 -4.02548750e-07 6.38802203e-06 -3.33903608e-06
      1.53025721e-05 4.95489767e-05 5.82437278e-05 5.88167568e-05
      4.42187084e-05 1.58723724e-05 1.77209927e-07 -1.77331203e-05
      -3.82129256e-05 -2.09964201e-05 2.70051373e-07 3.03684501e-05
      3.78032237e-05 1.87353635e-05 -8.96335314e-06 -3.78805235e-05
      -2.01059538e-05 1.25767256e-05 2.75063103e-05 3.72216891e-05
      4.09789391e-06 -2.20149359e-05 -2.56859748e-05 -3.68118272e-05
      -1.83577740e-05 2.11672595e-05 2.24780742e-05 1.31376937e-05
      -1.08105251e-05 -3.64067673e-05 -3.78450968e-05 -4.63288343e-05
      -2.12062678e-05 -2.16816079e-05 -6.49839467e-06 -1.26005998e-05
      -2.24832402e-05 -3.37293532e-05 -1.76234062e-05 -1.48715926e-05
      -1.71934626e-05 -1.15562343e-05 -8.47843967e-06 3.36929389e-07
      4.96170869e-05 8.52174708e-05 7.31929831e-05 7.93106592e-05
      6.57706623e-05 1.60718773e-05 -1.70835592e-05 -1.08824916e-05
      -3.62630562e-05 -4.89622216e-05 -4.70275845e-05 4.82330834e-05
      -5.96228460e-07 -3.38193931e-05 -3.54226831e-05 -4.20947836e-05
      -5.18944216e-05 -3.19650499e-05 -1.12094867e-05 3.46887937e-05
      6.42491868e-05 8.53090896e-05 7.47404556e-05 6.09883973e-05
      5.78707914e-05 4.07429798e-05 2.62340182e-05 3.44229593e-05
      3.22728847e-05 1.02010008e-05 1.31810896e-06 1.05348117e-05
      -9.23316838e-06 -3.42473722e-05 -5.85296548e-05 -6.63447499e-05
      -5.28362034e-05 -2.58771652e-05 -6.99366865e-06 8.09572884e-06
      4.39890209e-05 5.90011114e-05 5.67482130e-05 5.21866350e-05
      6.35952383e-05 6.42675877e-05 5.19778114e-05 2.93727517e-05
      2.77527270e-05 4.61575655e-05 3.93583505e-05 3.39805847e-05
      1.95038028e-05 3.22929300e-05 1.72715099e-05 8.10394795e-06
      -8.41533620e-06 7.92116043e-06 8.49806656e-06 2.20020629e-05
      3.06201946e-05 2.69661978e-05 3.76857788e-05 2.80167005e-05
      8.22830498e-06 -1.47820128e-05 -2.20848215e-05 -1.60454183e-05
      -1.99142596e-05 -1.77781785e-05 -3.89907609e-06 9.80045115e-06
      -1.13908536e-05 -2.73202368e-05 -2.17877441e-05 -2.18269415e-05
      -4.30846339e-05 -6.05975110e-05 -4.94719352e-05 -5.33210550e-05
      -6.03743320e-05 -4.25976505e-05 5.29124100e-06 4.81479074e-05
      6.16185862e-05 5.76183338e-05 5.40058936e-05 3.25109613e-05
      1.94892818e-05 6.94467963e-06 7.00831788e-06 2.51101446e-05
      3.20125437e-05 3.77114593e-05 4.09806598e-05 2.50772973e-05
      1.05747949e-06 -8.71527936e-06 -5.00201941e-06 2.92675463e-06
      2.88279425e-05 6.63663232e-05 6.11139476e-05 6.34689859e-05
      6.00807580e-05 4.64937184e-05 3.40614861e-05 2.57888451e-06
      -2.93105113e-05 -1.51043714e-05 -2.60530641e-07 2.83106183e-05
      3.20514919e-05 2.09768532e-05 2.67265796e-06 -1.79828839e-05
      7.21426341e-06 3.45485787e-05 5.24459901e-05 3.95041643e-05
      1.79446124e-05 7.68569862e-06 5.86843407e-06 -9.21368155e-06
      2.07165194e-05 5.83478977e-05 4.78187867e-05 4.25343642e-05
      1.44470841e-05 -2.70738692e-05 -3.52494317e-05 -4.22462981e-05
      -1.37833704e-05 -9.76727733e-06 -5.78902018e-06 -1.56288206e-05
      -2.28587414e-05 -4.43613790e-05 -3.49238799e-05 -1.92221087e-05
      -1.57226568e-05 6.90689205e-07 2.50949483e-06 -2.42808619e-06
      2.45829469e-05 5.13252016e-05 7.55521978e-05 8.61778317e-05
      6.78661017e-05 2.29448488e-05 -1.11823501e-05 -1.09131452e-05
      -4.46040140e-05 -5.90253148e-05 -4.89829617e-05 4.15673858e-05
      3.12351290e-07 -3.44268410e-05 -3.73346229e-05 -4.26095030e-05
      -4.81949064e-05 -7.62213358e-06 1.86003163e-05 5.24406460e-05
      7.92779319e-05 1.00963494e-04 9.11312673e-05 7.74425134e-05
      6.62879611e-05 4.71237836e-05 3.24820285e-05 2.87281928e-05
      9.77174182e-07 -1.61477037e-05 -1.20892755e-05 -4.17819683e-06
      -2.11613460e-05 -3.81659702e-05 -4.74283552e-05 -4.88362311e-05
      -5.41344489e-05 -3.30770126e-05 -8.51274308e-06 1.23819227e-05
      4.53444591e-05 6.13256416e-05 3.86839565e-05 3.47771820e-05
      3.92002548e-05 5.89475057e-05 5.95045458e-05 4.86468016e-05
      4.10478751e-05 5.73833204e-05 5.31013829e-05 3.12081356e-05
      2.00615978e-05 3.06531692e-05 2.24126743e-05 3.52081406e-05
      2.80199947e-05 2.57142146e-05 6.72587612e-06 1.60273721e-05
      4.82041869e-05 5.46193951e-05 4.68405524e-05 2.71211393e-05
      1.08231097e-05 -1.68569295e-05 -3.28461792e-05 -2.73964797e-05
      -2.46232776e-05 -3.14641002e-05 -1.95919129e-05 -1.05255594e-06
      1.15872608e-05 2.08045331e-05 3.15707621e-05 4.55149602e-05
      1.09795274e-05 -1.95074190e-05 -1.48638819e-05 -3.25785368e-05
      -3.60253725e-05 -2.67641317e-05 -1.78654432e-07 2.11545630e-05
      4.13524904e-05 5.04796553e-05 6.54891046e-05 6.34531534e-05
      5.11832768e-05 3.95446950e-05 3.67344110e-05 4.68584876e-05
      5.19759924e-05 5.19190362e-05 5.37849446e-05 3.45433327e-05
      1.69736923e-05 -5.54162807e-06 -9.36409924e-06 8.31195939e-06
      3.39038197e-05 5.49009928e-05 5.39008070e-05 8.12581566e-05
      8.49178032e-05 6.79236691e-05 5.52359998e-05 3.32663512e-05
      1.16440979e-05 3.85694648e-06 -1.91798608e-06 2.25367421e-05
      4.15267423e-05 3.72285795e-05 1.82947770e-05 4.36216942e-06
      3.12247030e-05 5.08458506e-05 5.76466628e-05 4.41478696e-05
      3.35241493e-05 2.32950697e-05 1.33837802e-05 7.05562843e-06
      3.71238384e-05 6.02933396e-05 6.06263166e-05 5.04354284e-05
      3.10725700e-05 -1.44512014e-05 -3.37512029e-05 -4.24588870e-05
      -1.29409364e-05 -1.47912706e-05 -8.34980710e-06 -1.86041525e-05
      -1.07116712e-05 -2.61817186e-05 -3.37872443e-05 -4.19641437e-05
      -3.82967592e-05 -2.15311466e-05 -8.40110897e-06 2.96175557e-07
      3.44198124e-05 6.30410650e-05 9.20384336e-05 9.47414665e-05
      7.14410562e-05 3.08780254e-05 1.40397515e-06 -1.25113793e-05
      -5.34836399e-05 -7.40036121e-05 -6.92727335e-05 1.96867786e-05
      1.03767134e-05 -2.54064144e-05 -3.35835866e-05 -3.98770062e-05
      -3.18405364e-05 2.01744515e-05 4.78884940e-05 8.09301127e-05
      9.27406072e-05 1.03664381e-04 9.01438907e-05 7.55121146e-05
      5.77862374e-05 3.54213553e-05 1.67639573e-05 9.08195216e-06
      -6.27139980e-06 -1.74169309e-05 -3.13176497e-05 -3.38933241e-05
      -4.09486747e-05 -3.72458235e-05 -1.68147690e-05 -3.72359755e-05
      -5.62875211e-05 -3.40754705e-05 -1.90940373e-05 4.63618471e-06
      1.51352060e-05 2.25331223e-06 -6.74659395e-06 2.44889611e-06
      7.16684690e-06 2.03234995e-05 2.90133630e-05 4.67369719e-05
      3.31795054e-05 2.77635554e-05 1.47684050e-05 3.13029227e-06
      7.19531545e-06 2.41314247e-05 1.71579286e-05 3.11971635e-05
      2.95758946e-05 1.67773323e-05 -1.03594939e-05 -6.09226527e-06
      2.72777033e-05 5.41624649e-05 3.71541864e-05 2.15749042e-05
      1.38042233e-05 -2.96393409e-06 -2.18510668e-05 -2.02935025e-05
      -2.94977453e-05 -3.75068448e-05 -3.36903868e-05 -1.12947582e-05
      1.14929544e-05 4.86052377e-05 7.06780047e-05 8.10196943e-05
      4.16853654e-05 3.65648848e-05 1.43736897e-05 -1.06499911e-05
      -3.19312967e-05 -2.44342791e-05 -2.00850682e-05 7.00609917e-06
      1.28966840e-05 2.05969973e-05 2.42673341e-05 2.91939887e-05
      2.25226358e-05 2.94369488e-06 -3.42820431e-06 1.08785644e-05
      2.54431106e-05 3.21239095e-05 4.59467919e-05 1.72900091e-05
      5.88974854e-06 -5.84755389e-06 -3.81528571e-06 2.42475176e-06
      -2.56254316e-06 1.12781699e-05 3.25068904e-05 5.79362240e-05
      7.65613368e-05 7.22565383e-05 6.27559784e-05 3.22079686e-05
      1.33163603e-05 2.26077227e-05 3.44723276e-06 1.83205466e-05
      4.16995172e-05 4.10023276e-05 3.60194208e-05 3.09848401e-05
      3.84710474e-05 4.98239788e-05 3.03065681e-05 3.58118341e-05
      2.68644617e-05 9.70699875e-06 1.64756493e-05 3.07263690e-05
      3.67153298e-05 6.17849873e-05 6.12358635e-05 6.19544444e-05
      4.02201804e-05 -3.59612727e-06 -2.34776417e-05 -4.18069103e-05
      -1.41328201e-05 -1.88889881e-05 -7.06600667e-06 -9.59159570e-06
      -2.67074256e-06 -2.16741446e-05 -3.12903940e-05 -4.33627865e-05
      -2.76129776e-05 -1.02462600e-05 -9.82589336e-06 5.97634698e-06
      4.09832974e-05 6.70919544e-05 9.56575968e-05 9.36184588e-05
      6.93561233e-05 4.22055018e-05 1.11640566e-05 -2.24731994e-05
      -6.10401839e-05 -7.89246260e-05 -7.28422528e-05 1.31989700e-05
      1.90100218e-05 -1.85916215e-05 -2.73036767e-05 -3.26149420e-05
      -1.80866300e-05 3.15393700e-05 4.67743557e-05 6.25771936e-05
      6.63878163e-05 6.57187848e-05 5.16273831e-05 2.70561377e-05
      1.03394075e-06 -1.70680159e-05 -1.43824600e-05 -7.68960217e-06
      -1.10289984e-05 -7.16372233e-06 -1.56644583e-05 -3.13818346e-05
      -2.57988995e-05 -6.19583261e-06 2.24779546e-06 -2.10049820e-05
      -4.34826070e-05 -2.97351035e-05 -2.41071793e-05 -6.95063227e-06
      -4.81064433e-07 -1.72743003e-05 -1.44652067e-05 -9.61068872e-06
      -1.28022475e-05 -1.08317918e-05 -8.11007340e-06 -9.09479877e-06
      -2.64100636e-05 -2.33450737e-05 -2.26956472e-05 -1.16533893e-05
      -1.40039401e-06 2.81160756e-05 3.06079382e-05 3.36310368e-05
      2.02159026e-05 1.09905377e-05 -6.24916129e-06 -1.70773346e-05
      2.29631132e-06 3.88520421e-05 3.42580934e-05 2.93590256e-05
      2.09587743e-05 -2.61465084e-06 -1.89908587e-05 -3.67159555e-05
      -5.55784027e-05 -6.58210265e-05 -5.37938467e-05 -2.72530178e-05
      1.83260079e-06 4.45589903e-05 8.29187265e-05 9.56490258e-05
      5.51911689e-05 4.71510102e-05 1.43582765e-05 -1.38799087e-05
      -3.08318922e-05 -3.51805647e-05 -3.14966455e-05 -1.05726422e-05
      -3.04292757e-06 -1.97380741e-05 -4.13175294e-05 -4.25140279e-05
      -4.32113520e-05 -5.36383122e-05 -4.71024759e-05 -3.09268689e-05
      -2.10834260e-05 -1.48651470e-05 5.05860180e-06 -1.59334704e-05
      -1.49126618e-05 -4.14215401e-06 1.47940100e-05 4.03975582e-06
      -1.04770027e-06 -1.02033327e-05 -1.03374225e-06 2.57498432e-05
      3.25287547e-05 3.63366780e-05 2.63406437e-05 7.39762254e-06
      -1.17509908e-05 -1.44574346e-06 -7.48321145e-06 1.96542260e-05
      4.10653738e-05 3.68289475e-05 5.52146339e-05 5.16811306e-05
      4.54243236e-05 1.79988056e-05 -2.71043996e-06 -1.26769592e-05
      -2.77949457e-05 -1.64834673e-05 1.84548517e-05 1.75973964e-05
      3.29496943e-05 6.47410052e-05 7.53117783e-05 8.23171358e-05
      5.49388278e-05 1.73378612e-05 -5.53463167e-07 -3.18057719e-05
      -9.94721540e-06 -1.30562294e-05 3.14535146e-06 6.33918899e-06
      1.16771052e-05 -7.67603160e-06 -1.74494144e-05 -3.26426671e-05
      -2.97112420e-05 -2.05297438e-05 -1.24719800e-05 -1.04318597e-05
      1.37743245e-05 4.52963650e-05 5.97970247e-05 5.72374047e-05
      3.56146447e-05 6.97493715e-06 -1.29489545e-05 -3.19862447e-05
      -6.55506883e-05 -7.79708789e-05 -6.34353273e-05 2.43278337e-05
      3.47375026e-05 -6.60906153e-06 -2.23313982e-05 -2.44364510e-05
      -1.94644817e-05 1.45637341e-05 1.69536670e-05 4.57748283e-05
      6.07717047e-05 5.32924023e-05 1.03115208e-05 -1.56009428e-05
      -3.37593192e-05 -4.09939639e-05 -2.56150652e-05 -1.83495231e-05
      -1.77290422e-05 -2.54456495e-06 2.33538267e-05 2.79806027e-05
      6.29826491e-06 3.09995403e-06 8.82335644e-06 -6.76601530e-06
      -3.26600675e-05 -3.19592036e-05 -3.03669967e-05 -2.27679466e-05
      -7.19290711e-06 3.81016707e-06 -8.38199048e-06 -1.23929722e-05
      -2.89595664e-05 -2.53961243e-05 -2.04594398e-05 -2.47631524e-05
      -3.57495446e-05 -3.57265526e-05 -4.82878713e-05 -4.55190748e-05
      -2.15680284e-05 1.89611983e-05 3.56488490e-05 4.09812747e-05
      2.63417896e-05 6.67196582e-06 -2.60881052e-06 -1.27989924e-05
      -2.46279842e-06 2.05796059e-05 1.85677163e-05 2.37575150e-05
      1.30402841e-05 -1.96316687e-05 -4.36897353e-05 -8.19803317e-05
      -1.00958634e-04 -1.08139313e-04 -9.51718685e-05 -6.68476059e-05
      -5.01685099e-05 -3.85193152e-06 4.35164693e-05 6.94143673e-05
      5.04875607e-05 1.72438322e-05 -3.14555928e-06 -1.81074811e-05
      -3.80606616e-05 -4.59914045e-05 -4.38029019e-05 -4.96050925e-05
      -5.14968087e-05 -5.62250389e-05 -5.51508565e-05 -5.75310660e-05
      -6.08127593e-05 -5.65332921e-05 -4.33721689e-05 -2.62469803e-05
      -2.20754464e-05 -2.82180827e-05 -3.07986083e-05 -4.38898496e-05
      -3.07593582e-05 -7.75514945e-06 1.77704023e-05 1.16526335e-05
      -5.37391725e-06 -2.33641422e-05 -1.82412969e-05 1.37874795e-05
      1.64130433e-05 1.48998743e-05 1.90364863e-05 1.09853463e-05
      -1.91959534e-05 -1.23576128e-05 -4.08420738e-06 2.02007086e-05
      2.92520581e-05 3.51561757e-05 5.52582969e-05 5.51761768e-05
      3.63786894e-05 6.44421652e-06 -1.24200133e-05 -3.95629540e-05
      -4.94708329e-05 -2.30875758e-05 -4.26624439e-07 -1.53461224e-06
      2.56452167e-05 4.53041466e-05 5.60622284e-05 7.23140256e-05
      5.11002254e-05 1.59390038e-05 8.20358218e-06 -2.52813679e-05
      -1.44297674e-05 -2.15926320e-05 -4.87342822e-06 1.03445755e-05
      2.36242868e-05 1.26807936e-05 1.11623431e-05 -4.83136773e-06
      -1.40788425e-05 -7.43514147e-06 2.26883435e-06 1.96353608e-06
      1.62072502e-05 2.87524290e-05 3.55837838e-05 4.62669777e-05
      3.27266243e-05 -2.31013729e-07 -2.42183432e-05 -3.35013538e-05
      -6.45190958e-05 -7.93638392e-05 -5.79023217e-05 2.22468025e-05
      3.11666663e-05 -5.91295156e-06 -1.84522341e-05 -1.76829035e-05
      -1.68614060e-05 2.98694886e-06 1.06963089e-05 4.81064053e-05
      6.47557827e-05 4.29108513e-05 3.73321154e-06 -4.04440252e-05
      -5.06658689e-05 -4.41398806e-05 -2.90208136e-05 5.76707123e-07
      2.28838835e-05 2.84446778e-05 4.84306547e-05 5.51409503e-05
      3.24586654e-05 2.30352434e-05 1.95639950e-05 -9.93617391e-07
      -2.90719126e-05 -2.70146174e-05 -2.13022431e-05 -1.06165853e-05
      6.37540188e-06 1.83897719e-05 1.19638889e-05 1.06655589e-05
      -8.14200030e-06 -1.01001788e-05 -2.58399796e-05 -3.07555529e-05
      -4.36113878e-05 -3.53024734e-05 -3.09531788e-05 -3.99158380e-05
      -2.95794525e-05 -1.69795911e-07 2.17453071e-05 4.05645733e-05
      2.80038985e-05 1.20080240e-05 1.11201998e-05 3.49022162e-06
      -1.31960696e-05 -1.88224985e-05 -1.01858768e-05 -2.06587606e-06
      -1.89714065e-05 -4.83628501e-05 -5.89192750e-05 -7.34123969e-05
      -6.57189521e-05 -6.72361639e-05 -7.17678922e-05 -5.09370693e-05
      -4.98534791e-05 -3.65827473e-05 1.36059816e-05 4.70810228e-05
      5.01006471e-05 1.36658573e-05 -8.38131655e-06 -9.36268225e-06
      -2.26631018e-05 -2.11160605e-05 -2.37780532e-05 -1.89701987e-05
      -2.88041138e-05 -4.23406382e-05 -5.17173321e-05 -5.63372087e-05
      -5.16373620e-05 -4.50019616e-05 -4.29488464e-05 -2.13214080e-05
      -7.86273631e-06 -4.76747391e-06 -1.73172812e-05 -2.91452488e-05
      -8.20445530e-06 2.10574194e-06 1.06829630e-05 2.43014492e-05
      1.03409980e-06 -5.01645309e-06 -1.01903743e-05 2.07366793e-05
      4.01157085e-05 2.72932884e-05 2.52380905e-05 8.78148057e-06
      -1.62028591e-05 -3.24901594e-05 -2.41252819e-05 -2.68606414e-06
      1.90914361e-05 3.29257600e-05 3.77652432e-05 2.76878254e-05
      8.97638131e-07 -2.30004662e-05 -1.74757042e-05 -1.94675195e-05
      -8.86047019e-06 -9.83775863e-07 -1.63999300e-06 -6.03885246e-06
      1.31472962e-05 3.93778646e-05 4.91509199e-05 6.32221490e-05
      4.11491237e-05 1.35639639e-05 8.49117350e-06 -2.49653131e-05
      -1.77620113e-05 -2.43937357e-05 -6.80706307e-06 2.50708945e-06
      1.39924505e-05 1.17183108e-05 1.07817932e-05 -7.61494584e-06
      -1.02193844e-05 -3.77111792e-06 -4.03823196e-06 1.29145646e-05
      3.67732828e-05 4.05782957e-05 3.52824936e-05 4.46411650e-05
      2.31936519e-05 -1.62755950e-05 -3.33335593e-05 -3.11449949e-05
      -5.77023893e-05 -6.60177175e-05 -3.63275176e-05 4.36653063e-05
      6.10668285e-05 9.96530434e-06 -2.46866475e-05 -2.76221963e-05
      -2.75188067e-05 -5.21769789e-06 2.16294811e-05 6.03261797e-05
      6.56292104e-05 4.92051258e-05 1.47118544e-05 -4.06613872e-05
      -5.81124732e-05 -4.15348113e-05 -1.00821389e-05 2.69400080e-05
      3.00581996e-05 3.47481691e-05 5.21124311e-05 6.48618225e-05
      4.92117579e-05 3.69726877e-05 3.32454729e-05 6.11812811e-06
      -1.91819563e-05 -1.79653034e-05 -1.25305341e-05 1.55921157e-06
      2.79338383e-05 3.89951529e-05 4.80694507e-05 4.03347840e-05
      1.35939372e-05 3.14475960e-06 -1.12644566e-05 -1.39511267e-05
      -1.79177423e-05 -1.09904704e-05 -1.14159684e-05 -9.26778375e-06
      -1.10913743e-05 -5.88078251e-07 2.35436528e-05 3.01034397e-05
      1.28342390e-05 5.34388619e-06 1.31697925e-05 2.94623078e-06
      -1.49218195e-05 -2.84236612e-05 -3.10762880e-05 -2.55961204e-05
      -3.20271829e-05 -4.25543294e-05 -3.86848988e-05 -5.71950550e-05
      -3.97703552e-05 -3.13187666e-05 -4.15850409e-05 -3.32329510e-05
      -2.47955304e-05 -2.06157420e-05 1.68689576e-06 2.71234258e-05
      2.31702306e-05 -1.46053742e-06 -2.20203729e-05 -1.07796150e-05
      -1.84271939e-05 -1.11667960e-05 -1.08505174e-05 1.79487301e-06
      -6.35263814e-06 -2.42232072e-05 -2.98228642e-05 -3.78730729e-05
      -5.80520937e-05 -5.61123525e-05 -2.96393628e-05 -1.46681332e-05
      6.48328523e-07 4.37786184e-06 -1.95126358e-05 -2.58906293e-05
      -2.85807732e-06 2.20465299e-05 3.19150895e-05 2.24964951e-05
      4.48034143e-06 2.11501765e-06 1.00545167e-05 2.31500599e-05
      4.73896907e-05 4.09434579e-05 4.23314668e-05 2.45287301e-05
      -1.59672163e-05 -4.64434379e-05 -3.22767410e-05 -8.31397938e-06
      1.27176436e-05 2.61956648e-05 1.82633576e-05 -2.23453426e-05
      -3.99472847e-05 -5.15692082e-05 -1.94607437e-05 4.27737859e-06
      2.32110942e-05 2.27929741e-05 2.39167875e-05 9.94795755e-06
      1.84224409e-05 2.76632727e-05 3.15459474e-05 4.36390073e-05
      3.60772938e-05 5.91814387e-06 1.84284875e-06 -2.49930490e-05
      -4.16915063e-05 -3.63979780e-05 -1.97748213e-05 -5.14153862e-06
      -1.96149102e-07 1.30006410e-05 2.44676885e-05 1.68413280e-05
      1.68828374e-05 2.61973073e-05 2.37740223e-05 3.74725241e-05
      4.74228837e-05 3.23629574e-05 9.98652104e-06 -1.22813628e-06
      -1.69405084e-05 -3.44915316e-05 -4.02815640e-05 -3.84454834e-05
      -5.73475336e-05 -6.43422900e-05 -3.84857085e-05 3.82787584e-05
      6.67979257e-05 1.32103660e-05 -2.43109862e-05 -2.84184553e-05
      -3.32360469e-05 -5.90621858e-06 1.36829030e-05 3.76456737e-05
      6.24742243e-05 6.83805338e-05 4.25668004e-05 -1.73693061e-05
      -4.77571230e-05 -3.09401184e-05 -1.85621720e-05 1.02059303e-05
      3.57240096e-05 4.62116404e-05 5.73436482e-05 7.06195788e-05
      5.79575826e-05 4.09413660e-05 3.45921108e-05 7.19008585e-06
      -1.61374828e-05 -1.21567900e-05 -4.78728623e-07 1.48020290e-05
      3.07397640e-05 3.47600289e-05 3.44206419e-05 2.74563845e-05
      1.96582141e-06 -1.75336736e-05 -2.31024151e-05 -9.92857440e-06
      -7.62022455e-06 -1.60384516e-05 -2.36388441e-05 -1.89759812e-05
      -8.97396876e-06 -3.05071317e-05 -9.51437050e-06 -4.90061393e-06
      -2.63343300e-05 -2.42819478e-05 -6.27241798e-06 -9.03691728e-07
      -4.96933399e-06 -2.40169829e-05 -3.27898051e-05 -2.34507752e-05
      -3.00645406e-05 -2.97855167e-05 -1.94991353e-05 -3.14244135e-05
      -1.77175043e-05 -1.57067843e-05 -2.92129098e-05 -2.15302971e-05
      -9.11171446e-06 -6.90373645e-06 -1.43376337e-05 -2.28625822e-06
      2.31419062e-06 -2.23122261e-05 -4.83884760e-05 -4.33188543e-05
      -4.18166164e-05 -2.96077851e-05 -2.03959389e-05 -1.41117505e-06
      -1.08059803e-05 -3.12239317e-05 -3.79462326e-05 -5.39686625e-05
      -5.43314200e-05 -4.28969252e-05 -1.79879971e-05 -8.74409579e-06
      -8.02107479e-06 -1.20392235e-06 -1.72165728e-05 -1.52144266e-05
      -1.73838907e-06 1.87952610e-05 3.95148527e-05 4.01620127e-05
      2.02355914e-05 1.42697536e-05 1.05607960e-05 2.18991809e-05
      4.51540182e-05 4.11166911e-05 3.36091471e-05 1.99729675e-05
      -2.04052340e-05 -4.29358624e-05 -2.77093550e-05 -1.67105611e-06
      1.47278806e-05 1.93437081e-05 -8.51143614e-06 -3.44494183e-05
      -5.04803356e-05 -7.07108557e-05 -3.05731046e-05 1.61298376e-05
      2.60018733e-05 2.91332490e-05 3.65866836e-05 2.87320127e-05
      3.35624864e-05 4.28339517e-05 4.23737329e-05 4.50503721e-05
      2.42670685e-05 -1.16035799e-05 -9.68823042e-06 -2.82385245e-05
      -3.78478653e-05 -3.90176247e-05 4.19755168e-07 1.34109923e-05
      -1.34239317e-05 -1.13961387e-05 7.08384187e-06 -3.72093177e-06
      2.63711263e-06 2.26221619e-06 4.56347743e-06 1.97581667e-05
      2.06862569e-05 -1.63526192e-06 -3.21694206e-05 -3.50173468e-05
      -3.77658071e-05 -3.92622533e-05 -4.25637700e-05 -5.64377406e-05
      -7.55039728e-05 -7.57614762e-05 -4.15422801e-05 3.13075980e-05
      5.41163936e-05 2.48649667e-05 -8.83721077e-06 -1.50715887e-05
      -1.61080170e-05 4.68893631e-06 1.19802608e-05 2.05670040e-05
      5.74346304e-05 6.38750571e-05 3.47156347e-05 -8.24196195e-06
      -2.04300122e-05 -1.24643493e-05 -8.36641630e-06 2.16305962e-05
      4.59850053e-05 5.39876237e-05 6.74034163e-05 8.20058849e-05
      7.54465946e-05 5.17954832e-05 2.99752373e-05 -7.37746814e-06
      -3.90144560e-05 -3.53608666e-05 -2.45824558e-05 -8.92880962e-06
      3.94355629e-06 7.44550607e-06 1.36764004e-06 5.45478815e-06
      -8.43420457e-06 -1.56546685e-05 -1.67782964e-05 -9.41875714e-06
      -1.01853702e-05 -2.18861423e-05 -3.04381447e-05 -3.06642905e-05
      -2.26442899e-05 -5.51330049e-05 -4.81193129e-05 -2.60697634e-05
      -3.43294851e-05 -3.31501360e-05 -4.86515501e-06 5.91393837e-06
      1.85590716e-06 -1.78303217e-05 -1.44713349e-05 -6.21572235e-06
      -1.16537385e-05 -1.27700923e-05 -8.77518778e-06 -1.61085081e-05
      -8.29169676e-06 -1.23124873e-05 -3.82599865e-05 -3.63555591e-05
      -1.84138680e-05 -9.64587616e-06 -2.33179289e-05 -1.28046822e-05
      -1.39117101e-05 -3.69094378e-05 -5.42889175e-05 -4.28102794e-05
      -4.40606927e-05 -3.87514519e-05 -3.17489430e-05 -1.68391143e-05
      -1.78985792e-05 -3.14202880e-05 -4.47868297e-05 -5.48573626e-05
      -4.82677169e-05 -3.22655578e-05 -8.31376838e-06 -9.10468316e-06
      -1.78745413e-05 -1.58388611e-05 -1.88910017e-05 -4.33854211e-07
      1.49406324e-05 3.21399239e-05 4.67564569e-05 3.58826255e-05
      -1.55719226e-06 -1.28917864e-05 -1.20977975e-05 -4.40645499e-06
      -2.41582120e-06 5.07060986e-06 1.44509759e-05 1.35373728e-06
      -1.47195824e-05 -3.19651881e-05 -2.27983892e-05 5.28389182e-06
      3.56591154e-05 1.57016621e-05 -1.02139284e-05 -3.11609911e-05
      -4.37757335e-05 -5.60008848e-05 -2.61617133e-05 -1.08499517e-05
      -6.89320268e-06 8.94252935e-06 1.96944056e-05 3.24544853e-05
      5.01080831e-05 5.45935654e-05 5.36340776e-05 3.51850940e-05
      5.31105206e-06 -2.64557038e-05 -2.82028395e-05 -3.75352247e-05
      -2.94354377e-05 -1.96610381e-05 1.03598850e-05 2.34174081e-06
      -2.36448050e-05 -4.33802197e-05 -2.40441750e-05 -2.41476064e-05
      -2.51527963e-05 -3.45295448e-05 -2.80753284e-05 -1.81852229e-05
      -1.37444276e-05 -1.91528143e-05 -2.99941948e-05 -2.45189985e-05
      -1.66857990e-05 -1.56652968e-05 -1.83859393e-05 -4.25584985e-05
      -6.39635109e-05 -7.12947731e-05 -4.17704505e-05 2.41931029e-05
      4.55219088e-05 3.00385327e-05 7.41238591e-06 -4.75073966e-06
      -4.75144634e-06 2.61535661e-05 1.00415000e-05 9.04791887e-06
      4.01139769e-05 4.62047210e-05 2.58087584e-05 -1.15325056e-05
      -9.36986362e-06 2.11249289e-06 1.19912265e-05 3.24900211e-05
      4.49046602e-05 4.49820582e-05 5.21519032e-05 6.81077945e-05
      6.78331417e-05 4.74956032e-05 2.52493755e-05 -5.88522835e-06
      -4.47789353e-05 -5.49198267e-05 -4.22629419e-05 -1.79284871e-05
      -1.01550295e-05 -2.03332202e-05 -2.25410822e-05 -1.70670755e-05
      -1.41144455e-05 -7.78053618e-06 2.56018279e-06 1.15076127e-05
      4.97033761e-06 -1.47997162e-05 -4.32068664e-05 -5.19515161e-05
      -4.27472078e-05 -6.35298566e-05 -4.78246766e-05 -2.01790117e-05
      -1.12393282e-05 -1.79883900e-05 -5.33776574e-06 5.71367366e-07
      2.57786564e-06 -4.87938860e-06 1.71454224e-06 1.25980878e-05
      2.00350496e-05 2.65757785e-06 -4.93466405e-06 -1.24310009e-05
      -3.17094964e-06 -6.90049137e-06 -2.01087751e-05 -1.80065636e-05
      -6.91012565e-06 -5.61614024e-06 -1.09585153e-05 1.23624341e-06
      -3.53405994e-06 -3.06622969e-05 -4.35220027e-05 -2.96850922e-05
      -3.94087911e-05 -4.51547312e-05 -1.84068103e-05 4.92994513e-06
      8.35284482e-06 -4.11978408e-06 -3.63921208e-05 -5.31604346e-05
      -4.93051994e-05 -4.15217328e-05 -2.51951205e-05 -2.02876508e-05
      -2.69958109e-05 -1.56652659e-05 -1.31948391e-05 3.93527898e-06
      1.33537897e-05 2.29646430e-05 3.36561716e-05 1.72627897e-05
      -3.76337493e-06 -2.24031628e-05 -2.41359594e-05 -2.20845322e-05
      -2.29793641e-05 -2.50245994e-05 3.99336932e-06 4.45091189e-07
      -1.05387335e-05 -2.13617768e-05 -8.67762537e-06 1.90666724e-05
      3.07965420e-05 9.59824320e-06 4.72184502e-06 -1.81358737e-05
      -3.46296147e-05 -4.22093253e-05 -9.91541310e-06 -4.89732793e-06
      -9.49760488e-06 -1.73086983e-06 5.52611027e-06 9.09249502e-06
      2.49169607e-05 2.85598489e-05 3.03915458e-05 4.82976839e-06
      -2.25405111e-05 -3.71315764e-05 -4.06422223e-05 -4.38180941e-05
      -3.28076349e-05 -8.84598740e-06 1.89765160e-05 1.02170607e-05
      -2.03927448e-05 -4.31839981e-05 -2.18756595e-05 -1.54300087e-05
      -3.11017611e-05 -3.98058364e-05 -3.52565876e-05 -2.74347276e-05
      -1.47430446e-05 -1.25939932e-05 -2.34899762e-05 -1.75823152e-05
      -7.15342139e-06 -9.41273356e-06 -1.49489206e-05 -3.61671919e-05
      -6.19816565e-05 -6.54407777e-05 -2.98520572e-05 3.73860130e-05
      3.17515369e-05 2.36013384e-05 1.07684245e-05 -6.98304393e-06
      -3.70618432e-06 2.94033744e-05 2.36610704e-05 1.70490021e-05
      3.30244511e-05 5.01363611e-05 3.75738637e-05 1.16497558e-05
      3.13083001e-05 3.35032055e-05 2.70433411e-05 4.52081294e-05
      5.60400695e-05 4.78653710e-05 4.14127935e-05 5.43770329e-05
      4.41107004e-05 3.00276934e-05 2.17863999e-05 -9.68402219e-06
      -4.58458380e-05 -6.58011995e-05 -5.65403097e-05 -3.48313588e-05
      -4.49194558e-05 -4.09269269e-05 -2.17099368e-05 -2.81413622e-06
      -7.87572844e-06 -5.99535360e-06 2.24327014e-05 3.49435250e-05
      2.18114619e-05 -6.97683981e-06 -4.08648266e-05 -4.78796683e-05
      -5.34715546e-05 -5.91053831e-05 -2.95953960e-05 -7.85309567e-06
      4.62366597e-06 1.88423310e-05 2.26614175e-05 1.31247780e-05
      9.93945741e-06 8.90894353e-06 1.59496394e-05 3.95261923e-05
      5.19390414e-05 4.28681706e-05 2.40173795e-05 1.01314990e-05
      1.07769647e-05 2.65958042e-05 2.26143238e-05 2.67856030e-05
      2.59156004e-05 1.95273788e-05 3.34204633e-05 2.88207757e-05
      1.70705025e-05 3.80254482e-06 3.28929832e-06 4.52006088e-06
      -1.34276445e-06 -1.15687362e-05 1.43706102e-05 4.07919979e-05
      4.40658005e-05 3.40618499e-05 1.66823102e-05 -6.65373091e-06
      -1.76884278e-05 -1.13347905e-05 7.82641018e-06 2.59239482e-06
      3.55427528e-06 1.56962124e-05 2.17818942e-05 2.56451895e-05
      3.05672947e-05 2.77926993e-05 3.25001929e-05 1.75026562e-05
      8.35266746e-06 -1.06377047e-05 -2.10354083e-05 -1.83685297e-05
      -2.28319477e-05 -2.47201915e-05 2.07080166e-06 2.08303773e-05
      2.80719496e-06 9.87174280e-06 2.72177949e-05 4.22348421e-05
      3.22038286e-05 2.22358394e-05 1.75624100e-05 -3.65072356e-06
      -9.65664367e-06 -3.14348181e-05 -2.50432568e-05 -8.19227989e-06
      -1.44742830e-06 4.68046755e-06 1.27474220e-06 -7.91063485e-06
      -1.10975998e-05 1.69131840e-06 1.85274912e-05 5.35928990e-08
      -2.37050754e-05 -2.88562278e-05 -3.30621588e-05 -4.41665070e-05
      -2.94075198e-05 -8.84593919e-06 1.71888678e-05 2.18512923e-05
      -6.16435227e-06 -1.65916174e-06 1.42898407e-05 1.30425815e-05
      -4.25428152e-06 -8.42568534e-06 -1.47778237e-05 -1.40015754e-05
      1.43031275e-06 1.86796342e-06 1.86755460e-06 3.70046178e-06
      -1.09478651e-06 -4.89833292e-06 -1.98320668e-05 -3.19903447e-05
      -5.08354860e-05 -4.34282592e-05 -1.20539889e-05 4.33789464e-05
      1.17923119e-05 7.04905403e-07 -2.34192999e-06 -2.20837192e-05
      -1.71355696e-05 2.48025790e-05 2.10690341e-05 2.43121267e-05
      5.74525184e-05 7.91862403e-05 7.28718733e-05 3.40450570e-05
      3.34862343e-05 4.74319932e-05 3.99704040e-05 2.85531423e-05
      2.13854946e-05 1.76812428e-05 1.61604439e-05 3.26185509e-05
      2.75342773e-05 1.58543007e-05 5.98198903e-06 -1.43899497e-05
      -3.89652887e-05 -4.71912899e-05 -3.13637174e-05 -1.31591987e-05
      -7.19182538e-07 -9.37033747e-06 1.23896079e-05 2.32141210e-05
      3.14874960e-05 4.17815718e-05 4.86192548e-05 4.76067689e-05
      2.78110929e-05 1.36581375e-05 -1.33349986e-05 -3.81069658e-05
      -5.01830509e-05 -2.31588092e-05 3.59017895e-06 1.57921477e-05
      2.79251781e-05 5.21945294e-05 4.49560102e-05 2.94778365e-05
      1.92839580e-05 2.90531352e-05 3.68319561e-05 4.92291765e-05
      6.41802035e-05 6.63291648e-05 5.55255319e-05 3.14241843e-05
      2.27875917e-05 3.43653774e-05 3.38841492e-05 2.90742846e-05
      2.85701153e-05 3.69536720e-05 3.79158228e-05 2.57186603e-05
      1.60096242e-05 2.70659893e-05 3.64473344e-05 1.12819744e-05
      5.04864147e-06 9.11580810e-06 2.80221630e-05 4.77006215e-05
      5.96522987e-05 5.25054857e-05 2.66851312e-05 8.10257461e-06
      3.78952086e-06 1.64582707e-05 1.99932274e-05 7.15420765e-06
      1.28826523e-05 1.81802770e-05 1.68495462e-05 2.22550225e-05
      3.21385414e-05 3.75473173e-05 3.46429842e-05 3.43068969e-05
      3.26492300e-05 2.58695181e-05 1.40455295e-05 3.61249431e-06
      4.27765735e-06 1.45648792e-05 2.49297900e-05 3.69767877e-05
      2.51480360e-05 2.94957135e-05 3.34429897e-05 2.97424231e-05
      1.87637361e-05 3.43422653e-05 2.48824017e-05 1.12718180e-05
      7.85994507e-06 -8.50910237e-06 -1.98648468e-06 -1.73041698e-07
      2.52973064e-06 9.49653895e-06 1.44188596e-06 -1.10257297e-05
      -1.65072815e-05 -5.81926179e-06 -1.55242674e-06 -3.03400793e-06
      -2.87572111e-05 -2.12848863e-05 -2.75738730e-05 -3.87775472e-05
      -1.92509797e-05 -3.21893208e-06 -5.05017113e-07 9.32867442e-06
      7.36410493e-06 2.22394119e-05 3.19007413e-05 3.04419063e-05
      2.78471543e-05 3.09705938e-05 3.57824683e-05 4.20914657e-05
      5.55301303e-05 4.27218292e-05 3.97836629e-05 3.91221183e-05
      2.79027317e-05 4.65950779e-06 -3.08389390e-05 -3.63368781e-05
      -3.66620952e-05 -2.71584577e-05 5.78588015e-06 5.73507750e-05
      1.42907056e-05 -1.22549636e-05 -2.40019690e-05 -4.21126060e-05
      -4.46144513e-05 -1.13381511e-05 -7.99158443e-06 4.93878042e-06
      3.61523598e-05 5.58728316e-05 5.40542096e-05 2.32606544e-05
      1.69671675e-05 1.41414075e-05 -8.70891927e-06 -3.10899122e-05
      -4.02869991e-05 -3.87298642e-05 -2.18446166e-05 8.30898807e-06
      1.23253885e-05 -3.31865294e-06 -2.43740160e-05 -4.50654443e-05
      -5.74709557e-05 -4.03341037e-05 -1.42054332e-05 3.04015953e-06
      2.02572082e-05 2.24668875e-05 1.60625968e-05 3.19468454e-05
      4.36492046e-05 5.86364840e-05 6.91320311e-05 6.28179332e-05
      4.96104694e-05 3.22436790e-05 2.38291050e-05 -2.39048723e-06
      -1.00290845e-05 6.31461546e-07 6.91412333e-06 1.23667505e-05
      3.32776326e-05 4.80150666e-05 3.52875904e-05 2.19352169e-05
      7.67251913e-06 1.86750858e-05 4.90431812e-05 5.55397382e-05
      4.80034032e-05 3.85220919e-05 2.68472904e-05 1.73033986e-05
      2.11597908e-05 3.45313601e-05 3.73760522e-05 3.30296789e-05
      3.19732899e-05 2.16846511e-05 7.94168136e-06 5.77309584e-06
      1.06658763e-05 8.39397671e-06 1.76850006e-06 -4.01844454e-06
      2.66038955e-06 1.07539990e-05 2.16811077e-05 2.38844004e-05
      3.59115074e-05 3.96866526e-05 3.04313253e-05 1.92462066e-05
      1.22950314e-05 1.44257665e-05 3.55012889e-06 -1.35942200e-05
      -6.54160021e-06 -2.41261637e-06 -1.22474758e-05 -1.12516118e-05
      1.96580322e-06 1.59029660e-05 1.82516251e-05 3.39260187e-05
      4.61100099e-05 4.83822951e-05 5.17463741e-05 3.83712650e-05
      3.62844949e-05 4.83581389e-05 4.73164255e-05 3.07754453e-05
      2.98827090e-05 3.49268157e-05 3.32478703e-05 1.54310655e-05
      -7.33789602e-06 4.52977520e-06 3.93023720e-06 8.82427503e-06
      1.09161620e-05 1.01959595e-05 2.03408945e-05 2.57069551e-05
      2.05936685e-05 1.02889853e-05 -7.46006026e-06 -1.48072504e-05
      -1.88644062e-05 -9.71076042e-06 -7.44945737e-06 -2.39367400e-05
      -5.46647534e-05 -4.51921260e-05 -4.54796318e-05 -5.41399677e-05
      -4.08642627e-05 -2.27623968e-05 -9.05122579e-06 1.46092625e-05
      1.32708237e-05 2.81946850e-05 2.70015407e-05 1.09041139e-05
      1.87185342e-05 3.35747864e-05 5.81600580e-05 5.92889992e-05
      7.04450576e-05 6.40795042e-05 5.47940544e-05 3.81112877e-05
      1.91436629e-05 -9.31792965e-06 -2.09525551e-05 -3.10625401e-05
      -3.74435549e-05 -2.09291884e-05 2.32754173e-05 7.30094907e-05
      2.11354782e-05 -1.32425257e-05 -2.15823911e-05 -3.81993159e-05
      -5.42038688e-05 -4.21271870e-05 -3.76491043e-05 -3.32709387e-05
      -1.31944125e-05 6.87325553e-07 -4.75808520e-06 -1.77954335e-05
      -1.28113843e-05 -1.28277052e-05 -2.36472806e-05 -3.99038036e-05
      -3.91875292e-05 -3.81965292e-05 -2.68799376e-05 -1.02060421e-05
      3.57436829e-06 -9.68420591e-06 -3.20376348e-05 -4.13247544e-05
      -4.80934032e-05 -2.45034025e-05 2.71934596e-06 1.43771877e-05
      2.32936854e-05 3.21423904e-05 4.80845119e-05 5.47433228e-05
      5.55472143e-05 5.88021394e-05 6.97827636e-05 6.15580793e-05
      4.68387188e-05 3.51123745e-05 2.15200653e-05 2.05104584e-06
      -3.02349008e-06 -1.73959518e-06 1.97189433e-06 1.41191540e-05
      1.53246619e-05 1.56133265e-05 1.22611409e-05 5.66427525e-06
      -5.79197331e-06 4.02342084e-06 3.09445240e-05 5.59314249e-05
      5.44707327e-05 3.26214104e-05 7.24383472e-06 -8.41840392e-06
      -1.46509319e-05 -9.85826955e-06 -1.48936979e-05 -9.07133381e-06
      -5.18410616e-06 -1.50222950e-05 -2.47160915e-05 -1.12923326e-05
      4.76858258e-06 -9.93623053e-06 -1.32126015e-05 -9.83419613e-06
      -7.47703507e-06 -1.06700854e-05 2.63240764e-07 1.14417153e-05
      1.84292330e-05 1.43450361e-05 -2.84977500e-06 -1.37832112e-05
      -2.85554343e-05 -3.26125883e-05 -2.09581212e-05 -3.39088656e-05
      -4.05316241e-05 -3.59038531e-05 -3.32538366e-05 -2.83010049e-05
      -1.96404380e-05 -7.01161616e-06 8.35687388e-06 1.90048049e-05
      3.28699243e-05 3.97759941e-05 4.60767551e-05 4.59063413e-05
      4.10569301e-05 3.66135318e-05 1.91353229e-05 5.29112549e-06
      -9.39105394e-06 -5.84924283e-06 1.30389217e-05 -5.67689631e-06
      -1.76783760e-05 -1.49307980e-05 -1.68389852e-05 -3.61369825e-06
      6.19909144e-07 -1.58806488e-05 -4.06356639e-06 2.27486112e-06
      -7.17089961e-07 -9.76991760e-06 -1.58202565e-05 -3.82399548e-06
      9.82549045e-06 1.43270017e-05 9.64677724e-07 -2.05318720e-05
      -2.85037640e-05 -1.90919636e-05 -2.84202197e-05 -3.75470227e-05
      -3.32846575e-05 -2.04802000e-05 2.81995085e-07 1.37393827e-05
      1.54587760e-05 7.80455866e-06 4.40803024e-06 -4.59771172e-06
      -5.81488803e-06 1.33272870e-05 3.03925954e-05 2.16586577e-05
      2.05827928e-05 3.54664189e-05 3.26819354e-05 2.49761270e-05
      1.43933557e-05 8.39939185e-06 -1.09573284e-05 -2.69466636e-05
      -2.16866629e-05 -1.27681978e-05 2.43391132e-05 7.21757388e-05
      1.03273042e-05 -2.75743550e-05 -2.42920323e-05 -2.69415305e-05
      -3.84959567e-05 -3.13874116e-05 -3.73435032e-05 -2.95408572e-05
      -2.06601271e-05 -1.07737260e-05 -1.96694546e-05 -3.24234024e-05
      -2.13921248e-05 -1.98668313e-05 -2.23211464e-05 -2.81407720e-05
      -3.80213460e-05 -2.13912936e-05 -7.67700021e-06 -8.64435663e-07
      -9.37558511e-08 -7.29482599e-06 -2.04427361e-05 -2.67843534e-05
      -1.47929823e-05 -3.69560553e-06 -5.59820649e-07 5.15058309e-06
      1.49780381e-05 1.56637780e-05 3.52014831e-05 4.52201239e-05
      4.82913529e-05 6.45953987e-05 6.68043576e-05 5.38022978e-05
      4.74294575e-05 4.29163447e-05 3.07236442e-05 1.70102267e-05
      1.35184064e-05 1.35286582e-05 5.09738447e-06 5.95418514e-09
      -1.05477520e-05 -1.88067152e-05 -1.74927845e-05 -2.84525431e-05
      -3.04620626e-05 -2.24235991e-05 -4.13297857e-06 2.32277489e-05
      2.97214992e-05 2.94579349e-05 2.39951587e-05 1.33562180e-05
      4.68433518e-06 7.19754144e-06 5.77205401e-06 1.07217984e-05
      3.73906323e-06 -1.06108523e-07 -4.85650753e-06 -1.60037362e-05
      -8.14831219e-06 -2.78141010e-06 -4.92813342e-06 -7.63273420e-06
      -1.04506298e-05 -2.14512183e-05 -2.15496893e-05 -1.59697465e-05
      -1.16668953e-05 -1.27248131e-05 -2.78647021e-05 -2.34606232e-05
      -2.42634760e-05 -2.84835787e-05 -5.00840770e-06 -8.86853650e-06
      -1.48397221e-05 -1.58456205e-05 -2.06204350e-05 -2.55865398e-05
      -2.04450116e-05 -1.18361932e-05 4.19771050e-06 1.83388347e-05
      2.94068013e-05 4.37145281e-05 4.82489741e-05 3.81421050e-05
      4.31621593e-05 4.17206174e-05 2.47705975e-05 4.57403394e-06
      -1.47243227e-05 -2.77898434e-05 -1.07180022e-05 -7.83709493e-06
      -1.06679436e-05 -5.60896012e-07 1.22426900e-06 6.50785410e-07
      5.20323192e-06 3.20875870e-06 6.76603213e-06 2.36250871e-05
      3.18135026e-05 3.83996048e-05 4.50733060e-05 5.02545809e-05
      5.38913664e-05 4.38734096e-05 3.59942933e-05 2.93850590e-05
      1.86381312e-05 -2.61289551e-06 -1.39520944e-05 -2.45847386e-05
      -2.01065814e-05 -1.40331707e-07 9.96151812e-06 3.12119591e-05
      3.04468595e-05 1.44595751e-05 1.01629721e-05 9.96663584e-06
      2.74257786e-06 1.58013318e-05 2.85387050e-05 1.81235300e-05
      2.47259813e-05 3.81959471e-05 3.56972669e-05 2.73437272e-05
      2.50894736e-05 2.38477901e-06 -2.45649953e-05 -2.85136502e-05
      -2.44728508e-05 -9.99798795e-06 2.87900202e-05 7.48798047e-05
      1.23582013e-05 -2.58574310e-05 -2.95529208e-05 -3.05500762e-05
      -3.45774388e-05 -2.31132981e-05 -2.71298577e-05 -2.38244484e-05
      -1.22012843e-05 -3.88555100e-06 -1.69818177e-05 -2.63378206e-05
      -9.40106020e-06 -6.76471927e-07 -3.23620543e-06 -9.95445589e-06
      -1.11238669e-05 6.55200620e-06 1.61079497e-05 1.79287927e-05
      2.13587955e-05 1.20155655e-05 6.98959093e-06 6.75565752e-06
      5.33439425e-06 5.29713861e-06 6.11297219e-06 6.87035754e-06
      1.20928498e-05 1.63621153e-05 2.13563326e-05 2.13144249e-05
      1.68350871e-05 1.97640838e-05 2.42041533e-05 2.56758321e-05
      3.02713161e-05 2.98127652e-05 1.67957933e-05 3.66074119e-06
      -4.39266523e-06 -1.02972799e-05 -1.35735672e-05 -2.28406334e-05
      -3.37103993e-05 -3.78025106e-05 -3.69835361e-05 -3.83042025e-05
      -3.59031328e-05 -2.95807113e-05 -2.29464495e-05 -8.05087529e-06
      -3.45278727e-06 -1.10872152e-05 -1.64873454e-05 -1.85389836e-05
      -1.63030872e-05 -1.42334675e-05 -1.22257607e-05 -1.13650194e-05
      -1.87553433e-05 -2.01145922e-05 -1.58958592e-05 -1.36490944e-05
      -1.20842942e-05 -1.37018760e-05 -1.54733825e-05 -1.76675421e-05
      -2.06942077e-05 -2.63685015e-05 -2.66332991e-05 -1.95273005e-05
      -1.97563022e-05 -2.21599712e-05 -2.47283842e-05 -1.95948942e-05
      -2.12514569e-05 -3.10250762e-05 -2.08958372e-05 -2.63129677e-05
      -4.11846158e-05 -4.13400448e-05 -3.64969674e-05 -3.69744157e-05
      -3.63894287e-05 -3.53120849e-05 -2.70612363e-05 -1.75661171e-05
      -1.24083390e-05 -1.73470903e-06 1.58927105e-06 -1.17576121e-06
      8.44879196e-06 1.67677183e-06 -1.65898509e-05 -2.80629192e-05
      -3.33793250e-05 -3.48797512e-05 -2.20898000e-05 -1.53253623e-05
      -2.09368955e-05 -1.45936410e-05 -1.02932281e-05 -1.00615716e-05
      -1.21109160e-05 -7.37801702e-06 -1.44711148e-05 -1.49946127e-05
      -1.52668747e-06 2.08224319e-05 2.21516202e-05 1.90508890e-05
      1.64451267e-05 2.51604397e-05 3.22117157e-05 2.93152534e-05
      2.23695261e-05 2.36634787e-05 2.36037758e-05 1.54718564e-05
      1.12998123e-05 9.53598374e-06 2.15321670e-05 3.01552118e-05
      1.25695633e-05 5.22474284e-06 1.24468597e-05 8.07873221e-06
      2.05002311e-06 1.28783649e-05 2.45763094e-05 2.49490745e-06
      1.93472988e-06 7.68852897e-06 8.32767091e-06 6.15244653e-06
      -8.52818062e-07 -1.22608608e-05 -1.69435898e-05 -1.44347277e-05
      -8.39483982e-06 3.84018767e-06 3.92174225e-05 7.56850859e-05
      5.29162717e-05 3.36920652e-06 -1.04215087e-05 -1.53594992e-05
      -1.89334132e-05 -1.42372410e-05 -1.35206792e-05 -2.47359967e-05
      -2.12966133e-05 -1.86480884e-05 -2.96902126e-05 -3.05795729e-05
      -1.98718371e-05 -1.24949356e-05 -1.47246628e-05 -1.91657327e-05
      -1.52334114e-05 -2.41205112e-06 6.23438746e-06 1.19874449e-05
      5.86782926e-06 -2.82844917e-06 -8.63151945e-06 -7.85131033e-06
      -7.23207449e-06 -1.44325736e-06 1.59854505e-06 -3.90468495e-06
      -1.28881243e-06 -1.34307243e-06 -5.28759074e-07 4.94672122e-06
      7.50564595e-07 -5.98174802e-06 -5.00377473e-06 -5.67209554e-06
      -1.17960744e-05 -1.20816640e-05 -1.80660136e-05 -2.61295590e-05
      -2.67202195e-05 -2.40792488e-05 -2.15364325e-05 -2.22327999e-05
      -3.04279547e-05 -2.69893389e-05 -2.45114970e-05 -2.48447759e-05
      -2.98263294e-05 -2.71299541e-05 -2.64122846e-05 -2.21076498e-05
      -1.64743415e-05 -3.03104207e-05 -3.55978118e-05 -3.59461010e-05
      -3.58050493e-05 -3.28780152e-05 -3.43375541e-05 -3.69492518e-05
      -3.97294534e-05 -3.86380962e-05 -3.17065096e-05 -2.51428501e-05
      -1.95119701e-05 -2.03125655e-05 -2.18039622e-05 -1.79169820e-05
      -1.96929595e-05 -2.38448210e-05 -2.81010853e-05 -3.01816490e-05
      -2.88050287e-05 -2.57497632e-05 -2.33934534e-05 -1.81874293e-05
      -1.95088105e-05 -2.77930158e-05 -3.76018179e-05 -4.29444772e-05
      -4.30510227e-05 -4.50994994e-05 -4.79717382e-05 -5.18952947e-05
      -4.88393125e-05 -4.37203962e-05 -4.01227553e-05 -3.41753876e-05
      -2.53390717e-05 -1.74492798e-05 -1.26814257e-05 -5.97557346e-06
      -2.54238762e-06 -2.87535772e-06 -1.15790808e-05 -1.49408079e-05
      -1.39419681e-05 -9.12950509e-06 -7.24727261e-06 -5.23604194e-06
      -6.98377880e-06 -1.12786583e-05 -1.74986180e-05 -1.57829490e-05
      -1.17486588e-05 -1.09126322e-05 -1.73257158e-05 -2.79780052e-05
      -9.69493703e-06 -2.07521271e-06 -4.97865983e-07 6.64299750e-06
      6.57759847e-06 8.32415481e-06 7.78241338e-06 1.74439883e-05
      1.91587296e-05 2.20299116e-05 1.34664697e-05 3.09689699e-06
      1.59314186e-06 7.48802631e-06 1.73123863e-05 2.21636164e-05
      8.07046217e-06 -1.94008649e-07 5.29344959e-07 -4.13733289e-07
      2.53710112e-07 8.19589150e-06 7.50706340e-06 -1.21867324e-05
      -8.33566355e-06 -3.65922187e-06 -5.18992283e-06 -2.85813667e-06
      -2.24834548e-06 -9.93289905e-06 -1.28952834e-05 -1.35291411e-05
      -1.24488952e-05 9.12920586e-06 5.91415956e-05 9.68731983e-05
      6.77665885e-05 2.13331932e-05 1.47544324e-05 1.40511311e-05
      7.85711109e-06 6.56969723e-06 -4.55554436e-06 -2.96263024e-05
      -3.43242973e-05 -3.02834815e-05 -2.78031403e-05 -2.06105924e-05
      -1.27429421e-05 -8.95441553e-06 -1.02539652e-05 -1.40675756e-05
      -1.62224842e-05 -8.27387066e-06 -6.10541883e-06 -2.82633323e-06
      -9.07368303e-06 -2.44022121e-05 -3.12218181e-05 -3.05019275e-05
      -2.50357389e-05 -1.56217047e-05 -1.48249928e-05 -2.23013540e-05
      -2.57612955e-05 -3.05291032e-05 -3.09423594e-05 -2.77345844e-05
      -2.66723673e-05 -2.79581727e-05 -2.89628024e-05 -2.81323300e-05
      -2.99889998e-05 -3.07052287e-05 -3.50943264e-05 -4.18166237e-05
      -3.90631685e-05 -3.78800250e-05 -4.02248515e-05 -3.30644216e-05
      -3.64203697e-05 -3.55148259e-05 -3.21430380e-05 -3.31943629e-05
      -4.02958685e-05 -4.89550803e-05 -5.14089734e-05 -4.88025835e-05
      -4.54945439e-05 -4.53654393e-05 -4.07592524e-05 -3.36182820e-05
      -3.64426342e-05 -3.66134664e-05 -3.70102316e-05 -4.20392389e-05
      -4.35480979e-05 -3.63253639e-05 -3.47438508e-05 -3.01261043e-05
      -2.59004119e-05 -2.44378898e-05 -1.99414790e-05 -1.34870079e-05
      -2.27833716e-05 -2.61853620e-05 -2.70355504e-05 -2.73467522e-05
      -2.45532920e-05 -2.60576780e-05 -2.89467480e-05 -3.15022044e-05
      -3.02553653e-05 -3.23788554e-05 -3.90507885e-05 -4.02663609e-05
      -3.85102903e-05 -3.58795296e-05 -4.71710155e-05 -4.93318912e-05
      -5.03199844e-05 -4.56131893e-05 -4.20465258e-05 -3.97930380e-05
      -3.53751457e-05 -3.02875051e-05 -2.60803736e-05 -1.89180610e-05
      -1.31136430e-05 -1.38564792e-05 -2.24741252e-05 -2.44635357e-05
      -2.48217075e-05 -2.07202211e-05 -1.83925440e-05 -1.70985004e-05
      -1.60361651e-05 -1.83524517e-05 -1.72178115e-05 -1.31647012e-05
      -1.01633723e-05 -9.48846082e-06 -9.19400190e-06 -2.06593377e-05
      -2.48437100e-05 -2.77166710e-05 -2.72056950e-05 -2.35922453e-05
      -2.18363548e-05 -2.30397454e-05 -2.26470565e-05 -2.12445793e-05
      -1.40897528e-05 -1.09304410e-05 -1.09757475e-05 -8.28967040e-06
      -6.83694589e-06 -1.39194776e-06 -5.21154220e-07 -2.26732050e-06
      -9.12261748e-06 -1.33857011e-05 -8.19922934e-06 -7.73684042e-06
      -1.08216127e-05 -9.53109247e-06 -1.50713122e-05 -1.90521878e-05
      -6.89473836e-06 2.58502928e-06 3.38473728e-06 1.80078860e-06
      7.59311263e-07 -9.61156093e-06 -1.72635700e-05 -1.82901804e-05
      -1.31015731e-05 1.45331451e-05 6.62971797e-05 1.05881794e-04
      8.90891679e-05 4.26025726e-05 2.49388413e-05 1.76385856e-05
      5.74595379e-06 2.77588902e-06 4.71013391e-06 -2.62775052e-06
      -1.04065912e-05 -8.01916849e-06 -4.08732694e-06 7.10651148e-06
      1.71892407e-05 1.57182694e-05 1.03640159e-05 9.26633584e-06
      1.07187416e-05 1.82419117e-05 2.69035536e-05 2.87839775e-05
      1.51637150e-05 -1.48867161e-06 -1.08328368e-05 -9.84033341e-06
      -4.35561424e-06 2.84942962e-06 1.16964952e-06 -1.48497850e-06
      -2.98434497e-06 -6.62364573e-06 -9.91803518e-06 -8.02779050e-06
      -1.77285540e-06 -9.16221666e-07 -1.54553368e-06 1.33626338e-06
      -2.78142193e-06 -1.01382439e-05 -1.45082868e-05 -1.71765314e-05
      -1.23198470e-05 -9.75951389e-06 -1.43288580e-05 -1.13389142e-05
      -1.11672025e-05 -8.15483145e-06 -1.03696602e-05 -7.97891971e-06
      -2.48262768e-06 -1.23911832e-05 -1.38429277e-05 -2.11975148e-05
      -2.47224416e-05 -1.73977314e-05 -1.18009448e-05 -1.50629694e-05
      -1.94298209e-05 -1.71686352e-05 -1.94450076e-05 -2.28497847e-05
      -2.36280066e-05 -2.00220711e-05 -1.23450518e-05 -7.31366981e-06
      -4.04711363e-06 -5.56966006e-06 -1.60034358e-06 -2.65347262e-06
      -9.85061706e-06 -9.79186825e-06 -1.02808162e-05 -6.95567451e-06
      -8.69478481e-06 -1.37982497e-05 -1.88298636e-05 -2.20748916e-05
      -2.27113178e-05 -2.09754144e-05 -2.49785444e-05 -2.02424853e-05
      -2.26512329e-05 -2.33600003e-05 -2.61988716e-05 -2.52825721e-05
      -2.55997747e-05 -2.34312993e-05 -2.00630893e-05 -9.75382045e-06
      -4.56255430e-06 -6.67434279e-07 5.13790610e-06 1.01645610e-05
      1.40051052e-05 1.31167972e-05 7.51098469e-06 3.84528630e-06
      3.88892340e-06 7.37353776e-06 5.39231723e-06 5.99099508e-07
      4.98491715e-07 -7.74619195e-07 -4.37138033e-06 -3.37049119e-06
      6.74949160e-06 1.10426872e-05 1.09855464e-05 8.36142772e-06
      -6.22870357e-06 -1.29253249e-05 -1.32262758e-05 -1.12427906e-05
      -1.13413826e-05 -1.13700125e-05 -6.80038966e-06 -4.63343940e-06
      2.47555022e-06 3.63372124e-06 1.93269625e-06 2.71820659e-06
      4.63873948e-06 7.91646471e-06 6.61833610e-06 6.10540110e-06
      -3.26699296e-06 -4.45290880e-06 7.52846233e-07 4.21468803e-06
      -2.93438075e-06 -1.14658751e-05 -1.85028566e-05 -2.15344771e-05
      -9.60684611e-06 5.09938127e-06 6.30576869e-06 1.29742853e-06
      -5.18290153e-06 -1.65220081e-05 -2.14255069e-05 -8.65062702e-06
      1.94970689e-05 5.56578379e-05 8.17488253e-05 1.06988686e-04</_></support_vectors>
  <uncompressed_sv_total>75</uncompressed_sv_total>
  <uncompressed_support_vectors>
    <_>
      66. 68. 76. 83. 84. 85. 81. 72. 63. 63. 61. 61. 60. 59. 59. 60.
      59. 60. 61. 65. 69. 72. 73. 73. 73. 72. 72. 73. 73. 75. 76. 79.
      83. 86. 87. 89. 89. 89. 88. 86. 81. 63. 46. 41. 41. 41. 41. 41.
      43. 44. 45. 45. 45. 45. 46. 46. 46. 47. 54. 59. 73. 90. 104. 113.
      120. 123. 124. 125. 125. 124. 122. 119. 118. 118. 117. 114. 110.
      109. 108. 107. 105. 103. 103. 102. 102. 102. 102. 103. 104. 105.
      105. 106. 104. 103. 98. 90. 81. 69. 57. 50. 46. 42. 40. 38. 37.
      36. 36. 36. 37. 37. 37. 37. 36. 36. 36. 36. 42. 52. 62. 76. 89.
      93. 93. 86. 61. 36. 30. 27. 25. 26. 27. 37. 49. 55. 55. 53. 44.
      32. 28. 28. 30. 44. 57. 61. 65. 69. 79. 90. 91. 91. 86. 76. 64.
      62. 61. 59. 58. 57. 57. 57. 58. 60. 62. 66. 71. 73. 74. 76. 74.
      73. 73. 73. 74. 75. 76. 79. 83. 85. 86. 88. 88. 88. 87. 85. 80.
      64. 47. 42. 42. 42. 41. 42. 43. 44. 45. 45. 45. 46. 46. 46. 46.
      48. 60. 72. 86. 100. 112. 118. 123. 123. 124. 125. 124. 123. 120.
      116. 114. 114. 113. 112. 109. 108. 108. 107. 104. 102. 101. 101.
      101. 101. 101. 102. 104. 105. 105. 106. 105. 103. 100. 92. 84. 73.
      61. 54. 49. 44. 41. 39. 38. 37. 36. 37. 37. 37. 36. 36. 35. 35.
      35. 35. 41. 52. 62. 76. 89. 93. 93. 86. 61. 36. 30. 29. 28. 28.
      29. 37. 48. 54. 54. 52. 43. 32. 28. 28. 30. 43. 55. 58. 65. 70.
      83. 96. 98. 99. 93. 79. 66. 61. 60. 57. 56. 55. 55. 54. 57. 60.
      65. 69. 73. 76. 77. 78. 76. 74. 74. 74. 74. 75. 76. 78. 82. 84.
      85. 87. 86. 87. 86. 84. 78. 64. 49. 44. 43. 43. 42. 43. 44. 45.
      46. 46. 46. 46. 46. 46. 47. 51. 70. 89. 103. 114. 123. 124. 125.
      125. 125. 125. 122. 120. 116. 112. 110. 109. 109. 108. 108. 108.
      108. 107. 104. 101. 100. 99. 99. 100. 101. 102. 104. 105. 105.
      106. 105. 104. 101. 95. 88. 78. 68. 59. 53. 47. 44. 42. 40. 38.
      37. 37. 37. 36. 35. 34. 33. 32. 33. 33. 40. 52. 63. 76. 90. 93.
      93. 86. 61. 36. 30. 30. 30. 30. 31. 39. 47. 52. 52. 51. 42. 33.
      29. 29. 31. 41. 52. 55. 64. 68. 82. 96. 99. 99. 94. 79. 65. 62.
      60. 57. 55. 53. 53. 53. 58. 63. 69. 72. 76. 77. 78. 78. 76. 74.
      74. 74. 74. 75. 76. 78. 80. 81. 83. 85. 85. 85. 84. 83. 78. 66.
      53. 48. 46. 46. 46. 46. 46. 46. 46. 46. 46. 46. 46. 50. 55. 62.
      85. 107. 116. 121. 125. 127. 129. 130. 130. 127. 121. 114. 110.
      107. 105. 104. 104. 106. 107. 107. 107. 107. 104. 101. 100. 99.
      99. 100. 101. 102. 103. 105. 106. 106. 106. 104. 102. 97. 91. 83.
      74. 66. 56. 48. 47. 46. 43. 41. 39. 38. 37. 36. 34. 34. 33. 32.
      33. 33. 41. 57. 72. 84. 95. 98. 96. 87. 62. 36. 31. 31. 31. 31.
      32. 39. 48. 52. 51. 50. 41. 33. 30. 30. 31. 41. 51. 55. 64. 67.
      82. 95. 98. 98. 93. 78. 65. 63. 61. 59. 56. 53. 53. 52. 57. 65.
      71. 73. 75. 75. 75. 76. 74. 73. 73. 73. 74. 75. 76. 77. 78. 79.
      81. 83. 84. 84. 84. 82. 78. 68. 58. 53. 50. 49. 49. 49. 49. 48.
      48. 46. 46. 46. 45. 52. 63. 75. 95. 116. 125. 129. 131. 132. 133.
      133. 133. 128. 119. 112. 107. 104. 103. 103. 103. 106. 109. 110.
      110. 110. 108. 105. 103. 101. 100. 101. 102. 103. 105. 106. 105.
      106. 104. 103. 100. 96. 92. 85. 77. 67. 57. 48. 48. 47. 46. 44.
      42. 40. 38. 37. 35. 34. 33. 33. 33. 34. 45. 67. 84. 92. 99. 99.
      95. 85. 61. 36. 32. 31. 32. 32. 33. 41. 49. 54. 54. 53. 43. 34.
      30. 30. 32. 42. 53. 56. 64. 68. 80. 93. 96. 96. 91. 77. 65. 64.
      63. 60. 57. 53. 53. 53. 58. 66. 72. 72. 73. 73. 73. 73. 73. 73.
      73. 73. 73. 74. 76. 76. 76. 77. 79. 81. 82. 83. 82. 80. 78. 69.
      62. 58. 55. 53. 53. 53. 51. 50. 49. 47. 46. 46. 46. 54. 71. 86.
      103. 119. 129. 134. 139. 137. 136. 135. 134. 129. 121. 112. 107.
      104. 103. 103. 104. 107. 112. 113. 114. 114. 112. 109. 107. 104.
      102. 103. 103. 105. 106. 107. 106. 104. 102. 100. 98. 96. 92. 86.
      78. 68. 58. 49. 48. 48. 48. 48. 46. 43. 40. 37. 35. 34. 34. 33.
      35. 36. 51. 79. 101. 103. 103. 99. 91. 80. 59. 36. 32. 32. 32. 33.
      34. 43. 53. 58. 58. 56. 46. 34. 30. 30. 32. 44. 55. 59. 67. 70.
      80. 90. 91. 91. 88. 77. 68. 66. 64. 61. 57. 53. 53. 53. 58. 66.
      72. 72. 73. 73. 73. 72. 71. 71. 71. 71. 71. 73. 73. 74. 75. 76.
      78. 80. 81. 81. 80. 79. 77. 71. 67. 63. 60. 58. 57. 57. 55. 53.
      50. 48. 47. 46. 46. 56. 74. 92. 110. 128. 135. 138. 142. 142. 143.
      139. 136. 129. 121. 114. 110. 107. 106. 108. 110. 112. 114. 114.
      115. 115. 114. 113. 111. 108. 107. 107. 107. 112. 117. 118. 113.
      107. 104. 99. 97. 93. 90. 84. 78. 69. 58. 50. 49. 48. 50. 50. 51.
      48. 45. 41. 36. 35. 35. 34. 36. 37. 65. 113. 152. 154. 154. 134.
      105. 79. 59. 37. 32. 32. 32. 32. 33. 42. 53. 58. 58. 56. 46. 34.
      30. 30. 32. 46. 58. 62. 73. 75. 81. 88. 88. 87. 83. 76. 70. 67.
      64. 61. 57. 54. 54. 55. 59. 66. 72. 73. 73. 72. 71. 70. 69. 69.
      68. 69. 69. 70. 71. 73. 75. 76. 78. 80. 80. 80. 80. 78. 76. 73.
      70. 67. 64. 63. 62. 61. 58. 56. 54. 50. 48. 48. 48. 58. 78. 97.
      114. 132. 140. 143. 146. 147. 150. 145. 140. 133. 125. 118. 114.
      110. 110. 111. 113. 114. 114. 115. 116. 117. 116. 116. 116. 114.
      114. 117. 119. 123. 128. 128. 122. 115. 108. 101. 95. 92. 87. 82.
      76. 68. 58. 51. 50. 50. 51. 53. 53. 51. 49. 45. 38. 35. 35. 35.
      37. 39. 73. 133. 183. 185. 185. 154. 110. 73. 55. 38. 34. 32. 31.
      31. 32. 41. 51. 55. 56. 54. 45. 34. 29. 30. 32. 47. 62. 65. 81.
      82. 85. 88. 87. 84. 80. 75. 69. 67. 64. 62. 60. 59. 58. 58. 62.
      68. 73. 73. 73. 72. 70. 69. 68. 68. 68. 67. 68. 68. 69. 72. 75.
      77. 79. 81. 81. 81. 80. 79. 78. 74. 72. 70. 69. 68. 67. 65. 63.
      60. 57. 54. 51. 51. 51. 60. 79. 97. 115. 133. 143. 149. 153. 156.
      157. 153. 148. 143. 134. 126. 120. 115. 113. 114. 114. 114. 114.
      115. 118. 120. 120. 121. 121. 122. 125. 132. 140. 140. 140. 139.
      134. 128. 115. 103. 95. 91. 86. 80. 74. 66. 57. 51. 51. 51. 52.
      52. 53. 53. 51. 45. 39. 36. 36. 36. 37. 39. 74. 133. 183. 184.
      185. 151. 102. 63. 50. 39. 34. 32. 31. 31. 31. 38. 47. 50. 50. 49.
      42. 34. 31. 31. 33. 49. 64. 69. 85. 86. 87. 88. 84. 80. 77. 73.
      69. 67. 64. 63. 62. 61. 63. 65. 69. 72. 76. 76. 76. 74. 71. 69.
      68. 67. 67. 67. 67. 68. 69. 71. 73. 75. 78. 80. 81. 81. 79. 77.
      75. 74. 72. 72. 71. 70. 70. 69. 67. 65. 62. 59. 56. 56. 57. 66.
      81. 97. 115. 134. 145. 154. 161. 162. 163. 158. 153. 147. 140.
      135. 129. 123. 118. 116. 115. 115. 115. 117. 120. 122. 125. 126.
      130. 135. 138. 142. 146. 145. 146. 143. 138. 131. 117. 101. 92.
      88. 84. 77. 70. 62. 53. 47. 47. 46. 48. 51. 52. 50. 48. 44. 39.
      37. 36. 36. 40. 44. 71. 117. 154. 156. 156. 130. 91. 60. 48. 39.
      34. 32. 30. 30. 31. 38. 46. 50. 50. 49. 41. 34. 31. 31. 34. 51.
      67. 72. 87. 87. 87. 87. 83. 77. 73. 71. 69. 67. 65. 64. 64. 64.
      68. 72. 74. 76. 78. 77. 77. 75. 71. 69. 68. 67. 67. 67. 67. 68.
      69. 70. 71. 73. 77. 79. 80. 80. 78. 75. 74. 73. 72. 72. 72. 72.
      72. 72. 70. 69. 66. 63. 61. 61. 62. 70. 83. 96. 115. 134. 147.
      159. 168. 168. 169. 162. 155. 149. 146. 141. 134. 127. 122. 119.
      116. 116. 118. 120. 123. 126. 129. 132. 137. 143. 147. 148. 149.
      149. 149. 146. 139. 132. 115. 99. 90. 86. 82. 74. 66. 57. 50. 44.
      44. 44. 45. 48. 49. 47. 46. 43. 39. 38. 38. 39. 44. 49. 69. 101.
      127. 128. 128. 108. 81. 58. 48. 37. 33. 31. 30. 30. 31. 37. 46.
      49. 50. 49. 42. 34. 31. 31. 33. 51. 69. 74. 88. 88. 88. 88. 83.
      75. 71. 70. 69. 68. 67. 66. 66. 67. 72. 77. 79. 79. 80. 79. 78.
      75. 71. 69. 69. 68. 68. 68. 68. 68. 69. 70. 71. 73. 75. 77. 76.
      76. 76. 74. 73. 72. 72. 72. 72. 72. 73. 73. 73. 71. 69. 66. 62.
      62. 62. 70. 81. 94. 114. 135. 150. 165. 174. 175. 176. 167. 156.
      149. 143. 138. 131. 126. 122. 120. 118. 120. 122. 125. 128. 131.
      134. 136. 139. 143. 145. 146. 149. 149. 149. 146. 138. 130. 116.
      98. 89. 84. 80. 70. 61. 54. 50. 46. 45. 44. 45. 44. 45. 43. 43.
      41. 41. 41. 44. 46. 49. 51. 67. 94. 116. 117. 117. 100. 77. 57.
      46. 35. 31. 30. 30. 30. 31. 37. 44. 49. 48. 47. 40. 34. 31. 31.
      34. 52. 71. 76. 88. 88. 88. 88. 82. 75. 71. 70. 69. 68. 68. 68.
      68. 69. 73. 78. 80. 80. 80. 79. 78. 75. 72. 69. 69. 68. 68. 68.
      68. 69. 69. 70. 71. 72. 74. 75. 75. 75. 74. 73. 73. 72. 73. 73.
      73. 73. 74. 76. 75. 74. 71. 67. 63. 62. 61. 66. 75. 86. 110. 133.
      150. 166. 177. 177. 176. 167. 154. 144. 138. 132. 128. 125. 123.
      122. 121. 122. 124. 126. 129. 131. 134. 137. 139. 140. 142. 143.
      145. 144. 142. 138. 134. 128. 111. 94. 83. 79. 73. 65. 57. 53. 50.
      47. 45. 44. 43. 43. 42. 42. 41. 41. 41. 42. 45. 48. 50. 52. 65.
      87. 106. 107. 107. 93. 74. 57. 45. 34. 30. 30. 30. 30. 30. 34. 39.
      42. 42. 41. 37. 32. 30. 30. 33. 52. 72. 77. 87. 87. 87. 87. 81.
      74. 71. 70. 69. 69. 69. 69. 69. 71. 73. 77. 78. 78. 78. 78. 78.
      75. 72. 69. 69. 68. 68. 68. 68. 68. 69. 70. 71. 71. 72. 74. 74.
      74. 74. 73. 73. 73. 73. 73. 73. 74. 76. 78. 77. 76. 73. 67. 63.
      61. 59. 62. 67. 76. 102. 127. 145. 162. 173. 174. 173. 162. 148.
      138. 133. 126. 124. 123. 122. 122. 123. 123. 124. 126. 128. 130.
      133. 136. 137. 137. 138. 139. 140. 137. 134. 131. 128. 124. 107.
      88. 77. 72. 66. 61. 56. 52. 50. 47. 46. 44. 44. 42. 41. 40. 40.
      41. 41. 42. 44. 47. 49. 51. 64. 82. 98. 98. 98. 86. 70. 55. 45.
      35. 31. 31. 29. 30. 30. 32. 35. 36. 35. 35. 33. 31. 30. 29. 33.
      52. 72. 78. 86. 86. 86. 86. 81. 74. 71. 70. 69. 69. 69. 69. 70.
      70. 71. 73. 74. 74. 75. 75. 75. 74. 71. 70. 68. 67. 68. 68. 68.
      68. 68. 69. 71. 71. 72. 73. 73. 74. 74. 73. 73. 73. 73. 73. 72.
      72. 73. 75. 75. 75. 72. 67. 63. 61. 59. 59. 61. 65. 85. 105. 122.
      139. 151. 151. 151. 146. 136. 129. 126. 120. 119. 119. 119. 120.
      120. 122. 123. 124. 126. 127. 131. 134. 134. 132. 131. 134. 136.
      134. 131. 125. 117. 110. 95. 80. 71. 68. 65. 61. 55. 52. 50. 47.
      46. 44. 42. 40. 39. 38. 39. 39. 39. 41. 41. 43. 46. 50. 62. 81.
      97. 98. 98. 85. 67. 53. 45. 37. 34. 32. 30. 30. 30. 32. 34. 36.
      36. 36. 33. 31. 31. 30. 33. 52. 72. 77. 85. 85. 85. 85. 80. 74.
      71. 70. 69. 69. 69. 69. 70. 70. 71. 71. 71. 71. 72. 72. 72. 71.
      70. 69. 67. 67. 67. 67. 68. 68. 68. 69. 70. 71. 72. 73. 73. 73.
      74. 73. 73. 72. 72. 71. 71. 71. 71. 71. 71. 71. 70. 66. 63. 61.
      59. 58. 59. 60. 74. 87. 101. 117. 128. 131. 136. 132. 126. 122.
      118. 116. 115. 115. 115. 117. 118. 119. 121. 122. 123. 124. 127.
      130. 130. 128. 129. 130. 132. 129. 125. 118. 104. 92. 83. 73. 68.
      66. 65. 62. 58. 54. 51. 47. 44. 42. 39. 36. 36. 36. 36. 37. 37.
      37. 37. 38. 41. 44. 57. 79. 97. 97. 97. 85. 68. 54. 48. 43. 37.
      33. 30. 30. 30. 32. 34. 36. 36. 36. 34. 32. 31. 32. 34. 52. 71.
      76. 85. 85. 85. 85. 80. 75. 71. 71. 70. 70. 70. 70. 71. 71. 71.
      71. 70. 69. 69. 69. 69. 69. 68. 68. 67. 66. 67. 67. 67. 67. 68.
      69. 70. 71. 71. 72. 73. 74. 74. 73. 73. 72. 71. 71. 70. 69. 68.
      68. 67. 67. 66. 64. 63. 61. 59. 58. 59. 60. 66. 72. 82. 94. 105.
      114. 123. 122. 118. 115. 112. 111. 110. 110. 112. 114. 115. 117.
      118. 119. 119. 120. 122. 125. 127. 127. 128. 128. 127. 122. 117.
      106. 91. 76. 72. 69. 67. 66. 65. 64. 62. 58. 52. 47. 42. 37. 34.
      32. 31. 31. 32. 33. 34. 34. 33. 32. 34. 36. 51. 75. 95. 96. 95.
      86. 71. 59. 54. 50. 42. 35. 30. 30. 30. 33. 36. 37. 37. 37. 34.
      32. 31. 32. 34. 51. 68. 73. 84. 84. 84. 84. 80. 75. 71. 71. 70.
      70. 70. 71. 71. 71. 69. 68. 68. 67. 66. 67. 66. 66. 67. 66. 66.
      65. 66. 67. 68. 69. 69. 70. 70. 71. 71. 72. 73. 74. 74. 74. 73.
      71. 71. 69. 69. 68. 67. 66. 66. 66. 65. 64. 64. 62. 61. 60. 60.
      60. 64. 67. 72. 79. 88. 99. 108. 109. 108. 106. 104. 103. 102.
      102. 103. 105. 107. 110. 113. 113. 113. 114. 117. 120. 122. 124.
      124. 122. 119. 110. 101. 89. 78. 69. 67. 66. 66. 65. 65. 63. 63.
      58. 53. 46. 40. 33. 32. 31. 30. 30. 31. 30. 30. 30. 29. 28. 29.
      30. 46. 73. 95. 96. 96. 87. 74. 63. 58. 53. 44. 34. 28. 28. 28.
      32. 35. 37. 37. 36. 34. 32. 31. 31. 34. 51. 68. 73. 83. 83. 83.
      83. 78. 74. 71. 71. 70. 70. 71. 71. 71. 70. 69. 67. 66. 66. 66.
      66. 66. 66. 66. 66. 66. 66. 67. 68. 69. 70. 70. 70. 71. 71. 71.
      72. 73. 74. 75. 75. 74. 72. 70. 69. 68. 67. 66. 66. 66. 66. 65.
      65. 64. 63. 62. 61. 61. 61. 63. 64. 67. 71. 76. 85. 93. 95. 96.
      96. 95. 94. 95. 95. 96. 99. 101. 103. 106. 108. 108. 110. 112.
      115. 117. 118. 119. 114. 110. 98. 85. 74. 68. 63. 62. 61. 61. 63.
      64. 62. 61. 57. 53. 47. 40. 32. 30. 30. 30. 30. 30. 29. 28. 27.
      26. 26. 27. 27. 43. 71. 95. 95. 96. 87. 75. 65. 59. 54. 45. 34.
      28. 28. 27. 31. 34. 37. 37. 36. 34. 32. 31. 31. 33. 51. 69. 73.
      83. 83. 83. 83. 78. 74. 70. 70. 70. 70. 70. 71. 71. 70. 68. 66.
      66. 65. 65. 65. 66. 66. 66. 66. 68. 69. 70. 70. 70. 71. 71. 71.
      71. 71. 71. 71. 72. 74. 75. 75. 74. 72. 70. 69. 68. 66. 66. 65.
      65. 65. 65. 64. 64. 63. 63. 62. 62. 61. 63. 64. 66. 69. 72. 75.
      78. 80. 82. 83. 85. 85. 87. 89. 91. 93. 95. 97. 100. 102. 103.
      105. 107. 111. 112. 113. 111. 105. 99. 85. 71. 61. 58. 56. 54. 54.
      55. 61. 64. 61. 58. 55. 53. 49. 41. 34. 31. 30. 29. 29. 29. 27.
      26. 25. 25. 25. 25. 26. 42. 71. 95. 96. 96. 87. 75. 64. 60. 54.
      44. 33. 26. 26. 26. 29. 32. 34. 34. 34. 33. 31. 31. 31. 34. 53.
      71. 77. 83. 83. 83. 83. 78. 73. 70. 70. 70. 71. 71. 72. 71. 70.
      68. 66. 65. 65. 65. 65. 65. 66. 67. 69. 73. 75. 76. 74. 73. 73.
      72. 72. 71. 71. 71. 71. 74. 77. 79. 81. 82. 79. 74. 71. 69. 67.
      66. 65. 66. 66. 65. 65. 65. 65. 64. 64. 65. 65. 65. 66. 67. 70.
      71. 72. 73. 75. 76. 78. 79. 81. 83. 84. 86. 89. 91. 93. 95. 98.
      100. 102. 102. 104. 104. 104. 102. 93. 84. 74. 64. 56. 53. 50. 50.
      49. 51. 55. 58. 55. 54. 53. 52. 50. 42. 34. 31. 30. 28. 28. 27.
      26. 25. 25. 25. 25. 25. 26. 42. 71. 95. 95. 95. 85. 70. 59. 53.
      47. 40. 32. 27. 27. 27. 29. 32. 34. 34. 34. 32. 31. 31. 31. 34.
      55. 77. 84. 84. 84. 84. 84. 79. 74. 70. 70. 71. 71. 72. 72. 71.
      70. 68. 66. 65. 64. 64. 65. 65. 68. 70. 74. 78. 82. 82. 79. 78.
      76. 75. 73. 71. 71. 71. 72. 78. 84. 90. 94. 95. 88. 82. 77. 73.
      70. 69. 68. 67. 67. 67. 67. 67. 67. 67. 67. 68. 68. 68. 68. 68.
      70. 70. 71. 72. 72. 73. 74. 76. 78. 79. 80. 83. 86. 90. 92. 93.
      94. 96. 98. 98. 98. 98. 97. 93. 82. 71. 65. 59. 54. 52. 48. 48.
      47. 48. 50. 52. 52. 52. 51. 50. 47. 42. 35. 33. 30. 29. 27. 27.
      26. 25. 25. 25. 25. 26. 27. 42. 69. 91. 92. 92. 81. 65. 51. 47.
      42. 36. 32. 29. 29. 29. 30. 32. 34. 34. 33. 32. 31. 31. 31. 34.
      59. 83. 90. 84. 84. 84. 84. 80. 75. 72. 73. 73. 73. 73. 71. 69.
      67. 66. 65. 65. 64. 64. 65. 65. 72. 78. 84. 86. 88. 87. 84. 82.
      79. 77. 75. 72. 71. 71. 74. 88. 104. 111. 115. 115. 105. 97. 89.
      83. 79. 77. 75. 73. 70. 69. 69. 69. 69. 69. 69. 68. 68. 68. 68.
      68. 68. 68. 69. 71. 71. 72. 72. 74. 74. 76. 78. 82. 86. 91. 92.
      92. 93. 94. 95. 95. 95. 94. 93. 90. 81. 72. 64. 59. 54. 53. 52.
      52. 51. 51. 52. 52. 52. 52. 50. 47. 43. 39. 35. 33. 31. 29. 29.
      28. 27. 25. 25. 25. 25. 28. 31. 44. 64. 82. 83. 83. 73. 59. 48.
      43. 39. 35. 32. 31. 31. 31. 32. 33. 34. 33. 33. 32. 31. 31. 31.
      35. 62. 88. 96. 83. 83. 83. 83. 80. 75. 73. 73. 73. 73. 73. 71.
      68. 66. 65. 65. 65. 65. 65. 68. 70. 76. 82. 87. 90. 92. 90. 88.
      86. 83. 81. 78. 75. 74. 75. 80. 99. 118. 126. 128. 126. 117. 109.
      99. 92. 86. 82. 79. 77. 74. 72. 72. 72. 71. 70. 69. 69. 68. 68.
      68. 68. 68. 68. 68. 69. 70. 72. 72. 73. 74. 77. 81. 84. 88. 92.
      92. 92. 92. 93. 93. 93. 93. 92. 91. 89. 84. 78. 72. 64. 59. 57.
      55. 54. 53. 52. 52. 51. 50. 49. 47. 43. 40. 37. 35. 33. 32. 31.
      30. 29. 28. 26. 26. 26. 26. 30. 32. 43. 59. 73. 74. 74. 67. 55.
      45. 41. 38. 36. 35. 34. 34. 34. 35. 36. 35. 34. 33. 32. 31. 30.
      30. 35. 63. 91. 100. 83. 83. 83. 83. 79. 75. 73. 73. 73. 73. 73.
      71. 68. 66. 65. 65. 65. 65. 67. 70. 74. 79. 85. 89. 93. 97. 96.
      95. 92. 87. 84. 82. 79. 79. 82. 87. 109. 130. 136. 137. 134. 125.
      118. 108. 98. 90. 87. 83. 80. 77. 75. 74. 73. 72. 71. 70. 69. 69.
      68. 68. 68. 68. 68. 68. 68. 69. 71. 72. 73. 75. 79. 85. 89. 91.
      92. 92. 92. 92. 92. 92. 92. 92. 92. 91. 90. 89. 88. 80. 71. 64.
      61. 58. 57. 55. 53. 52. 51. 49. 45. 42. 40. 37. 36. 35. 34. 34.
      33. 32. 31. 29. 27. 28. 27. 28. 31. 33. 41. 55. 66. 67. 67. 61.
      51. 44. 41. 39. 38. 37. 37. 38. 39. 39. 39. 38. 36. 34. 32. 30.
      30. 30. 35. 64. 94. 103. 83. 82. 81. 80. 77. 74. 73. 73. 73. 73.
      73. 72. 68. 66. 66. 66. 66. 66. 67. 71. 75. 79. 84. 90. 100. 109.
      110. 109. 105. 94. 84. 83. 82. 83. 88. 95. 112. 130. 136. 136.
      134. 127. 120. 113. 106. 98. 92. 85. 81. 78. 76. 74. 74. 73. 72.
      71. 70. 68. 68. 67. 67. 67. 67. 67. 67. 67. 69. 70. 73. 76. 81.
      88. 92. 93. 94. 94. 92. 92. 91. 91. 91. 91. 91. 92. 92. 92. 92.
      87. 80. 76. 70. 65. 61. 58. 56. 54. 52. 47. 42. 40. 38. 37. 36.
      35. 35. 36. 36. 36. 35. 34. 32. 30. 29. 30. 31. 33. 41. 54. 64.
      64. 65. 59. 51. 44. 41. 38. 38. 38. 38. 39. 41. 41. 40. 38. 36.
      33. 32. 30. 30. 30. 35. 65. 96. 104. 83. 82. 79. 76. 74. 72. 72.
      72. 73. 73. 73. 71. 69. 67. 66. 66. 66. 66. 66. 70. 74. 78. 84.
      91. 103. 115. 117. 117. 112. 98. 85. 85. 84. 87. 94. 100. 113.
      126. 131. 132. 131. 123. 116. 110. 103. 96. 89. 82. 80. 76. 75.
      74. 74. 73. 73. 71. 70. 67. 67. 67. 67. 67. 67. 67. 67. 67. 68.
      69. 74. 79. 85. 90. 94. 95. 95. 94. 92. 92. 90. 90. 90. 91. 92.
      92. 93. 93. 94. 90. 86. 82. 77. 72. 68. 64. 59. 56. 52. 47. 42.
      39. 38. 36. 36. 35. 36. 37. 38. 38. 38. 36. 34. 33. 32. 31. 33.
      34. 41. 54. 64. 65. 65. 59. 51. 44. 41. 38. 38. 38. 38. 40. 41.
      41. 40. 38. 35. 33. 32. 31. 30. 30. 35. 67. 100. 109. 84. 82. 76.
      70. 70. 70. 70. 72. 74. 74. 74. 72. 70. 68. 67. 66. 66. 66. 66.
      69. 71. 76. 83. 90. 104. 116. 118. 119. 113. 100. 87. 87. 87. 90.
      97. 104. 111. 117. 122. 125. 125. 116. 107. 100. 94. 87. 83. 78.
      76. 75. 75. 74. 73. 73. 71. 70. 68. 67. 67. 67. 67. 67. 67. 67.
      67. 67. 67. 70. 76. 82. 87. 92. 94. 95. 95. 93. 92. 90. 88. 88.
      89. 92. 93. 94. 94. 94. 94. 91. 88. 85. 83. 78. 75. 70. 65. 58.
      53. 47. 41. 39. 37. 36. 35. 35. 36. 37. 38. 38. 38. 36. 34. 34.
